weights len: 197
* * * * * * * * *
Parameters => Epochs: 100, Learning Rate: 1.000000
Type of network used: HiddenNetwork
Input Nodes: 36, Hidden Nodes: 5, Output Nodes: 2
* * * * * * * * *
1 Performance: 0.50000000 0.500 0.500
2 Performance: 0.50000000 0.500 0.500
3 Performance: 0.50000000 0.500 0.500
4 Performance: 0.50000000 0.500 0.500
5 Performance: 0.53915663 0.544 0.527
[-0.21652346980257706, 0.0028190920125248514, -0.24560027318419095, -0.23105154719943605, -0.20047590646871774, 0.08831465340021724, 0.08544006172917705, -0.2480446664097925, -0.24900053130395622, -0.2647243665383528, -0.11443021785921348, -0.1607125513018377, -0.14901203210360614, -0.24224477238601144, -0.24408952163783368, -0.2550544264138796, -0.24973260973172115, -0.0569647029268919, 0.019582978108250014, -0.1856447309640433, 0.09861622742029705, 0.07272913020579509, -0.22898544982353966, 0.09669981370377516, 0.08914668694303597, -0.10639831955606205, -0.13763247328831751, -0.15964289374486124, -0.1682411365700707, -0.09156698805959854, -0.08396850827407754, -0.2544299974034057, -0.06621785419117245, 0.031719807518560045, -0.23835562891376433, -0.0581004338119008, 0.0491894245046251, -0.22833693868801033, -0.00827947416693579, -0.2802263689051461, -0.25459792383477936, -0.19363985298365693, 0.44184854624076103, 0.4254660216686306, -0.26994127790747074, -0.2933240881731252, -0.3162440547784762, -0.05381211770443813, -0.06537219287224427, -0.04368868924405251, -0.24946132227604131, -0.2524777986614917, -0.2942187188444318, -0.41283520171232163, -0.02117648785410481, 0.11610250424865531, -0.17174566063370678, 0.40907213146453997, 0.3920621348664631, -0.2577898373084794, 0.4555925033111969, 0.45220544303407484, 0.013652871339544534, -0.010787550503261639, -0.039641873595642044, -0.1502387960656288, 0.05225257404602274, 0.06998128099430169, -0.44488953212234716, -0.04369153725080846, 0.18194391131539478, -0.39172625049981175, 0.025065447829769216, 0.2462095883169962, 0.3103470496406459, -0.00025395831199092646, 0.2760595163484562, 0.29564079727090786, 0.2827428699774049, 0.19377586795578025, 0.20091825535705812, 0.2920568420250598, 0.28687774019788315, 0.2610021138899215, 0.2549882301455011, 0.3154797875041741, 0.3215687399758098, 0.29489439431900055, 0.2722166952713533, 0.27098583805586896, 0.15761097363949628, 0.09964740331161044, 0.08130741568242084, 0.3053721543640542, 0.19862032791862624, 0.21724051722064958, 0.286152939584689, 0.21746075019406794, 0.2783279867981082, 0.23456955643541166, 0.3076879806597136, 0.3141887463085254, 0.2465515840629854, 0.2773355582118295, 0.2704873456008566, 0.14037468325489322, 0.09621648607490066, 0.08679112162574737, 0.21653781809888772, 0.14445198450585464, 0.13085818486710393, -0.33922663953124754, -0.00011054281484139221, -0.38279075947429153, -0.39057235988230393, -0.2605607401447373, 0.8557242713040071, 0.8366439379623453, -0.38402939660567914, -0.4398716404770343, -0.44760073346201185, -0.014000138906365155, 0.015451413904905061, 0.034199288436870826, -0.35763776088173976, -0.38675724109888815, -0.4718839715589079, -0.6812115395311586, 0.011577122234481487, 0.2517183760630533, -0.25033616543396514, 0.7995085321677853, 0.7588904231843984, -0.37133749032229996, 0.8696805141020723, 0.8718467186329991, 0.0696051746133104, 0.06656718064597378, 0.02484456680035965, -0.20164947075523618, 0.18207681216496582, 0.19602040600697246, -0.7749814672209915, -0.07027557681755718, 0.34493743784872594, -0.6401919542298068, 0.09264677945581001, 0.47418597130442297, -1.0059522857736063, 0.0008716601213884061, -1.2232377655900084, -1.149292234792663, -0.7649555737583261, 3.8145701543332597, 3.9312167736711405, -1.0939017574068899, -1.2625881796676846, -1.3350043943972596, 0.3278458788614623, 0.5779250585461073, 0.6578578801090779, -1.0889347472748427, -1.1798501157479089, -1.4687882273331523, -2.5380578628652786, 0.20653471983571586, 1.2863826372454774, -0.6791060463855074, 3.572245719391963, 3.5096999188809495, -1.1248875072895195, 3.99186340688801, 3.947657295389892, 0.6296681291689101, 0.8271710382690078, 0.5106010961323463, -0.407549269091632, 1.1996508281135647, 1.2128542955577812, -2.881491730077709, -0.0582177895762118, 1.604003255357941, -2.4981351144749335, 0.6680614825725096, 2.221610979745082, 0.18117537850430673, -0.008030197210381677, -0.4931166940561639, 3.377599438591842, -1.1456932488570937, -5.683117965924516, -0.17111788605362388, 0.0014951155891313062, 0.5082460742147771, -3.3736191682672314, 1.1498190285284955, 5.680718439767037]
6 Performance: 0.90813253 0.881 0.873
[-0.21901171326023017, 0.0028190920125248514, -0.24806584669080398, -0.23344876220797858, -0.20300023581497373, 0.08440548631601835, 0.08148105028947014, -0.25069682433341456, -0.2516042040209144, -0.26727637351892264, -0.1170966739543094, -0.1642911793943374, -0.15268421832748053, -0.2448299220074506, -0.24655327585678743, -0.25779804243375765, -0.25028999076897285, -0.05813152033377822, 0.018137814919293685, -0.18805782936066848, 0.09525913250898525, 0.06893101632361527, -0.23170879482452142, 0.09256112025902498, 0.0844495525506469, -0.10931072198133537, -0.1419455748076757, -0.16323510089426116, -0.1706864157694939, -0.0952839795964911, -0.087498390369041, -0.2549160769474314, -0.06746956742307349, 0.030003529455363533, -0.23968622298324976, -0.05969998707780769, 0.04701049924561876, -0.22736999952245587, -0.00827947416693579, -0.27638267197491917, -0.25402355198939924, -0.18503149500886046, 0.4887850898379568, 0.4714815953661769, -0.2642997410260127, -0.28880638197709957, -0.31173212670129935, -0.03498678291289403, -0.03960369663546775, -0.014936048287374822, -0.23949669359880646, -0.25019291589773496, -0.28867490754449093, -0.42796140339268995, -0.011084795578978771, 0.12919302092704077, -0.16038247600245023, 0.45165125088049346, 0.43618611747595243, -0.2491495281481388, 0.5050147140574669, 0.507338075576496, 0.03587338177878503, 0.02547038247970133, -0.017416593255270844, -0.13701157837665784, 0.07866870882765535, 0.09475467124200902, -0.4632483894659382, -0.036295268224171444, 0.2036303635408292, -0.3951800514121126, 0.03574504744175714, 0.2727974072963491, 0.31715044767763034, -0.00025395831199092646, 0.28255385505087466, 0.3026855158649622, 0.28783370249956947, 0.1846302125601183, 0.19211157909224075, 0.29797761984580695, 0.29307379535939193, 0.2675267024694209, 0.25618476167677934, 0.3168549605596163, 0.3225548448073047, 0.3006269206465907, 0.278907081184031, 0.27688283563213145, 0.166620873223709, 0.10020765110520698, 0.079020958140593, 0.31052691428935764, 0.19112181556271862, 0.20915929846973938, 0.291741311492446, 0.20791995915914407, 0.26857899226795334, 0.23462746356005537, 0.30638356084241525, 0.31578887320900173, 0.24938107713130964, 0.2760881752496792, 0.2696607192709139, 0.14997958350879925, 0.09679944892236408, 0.08317694221374745, 0.22399469369041514, 0.14511813583043456, 0.12632585534715274, -0.36139868449907364, -0.00011054281484139221, -0.3980341853757469, -0.4154773490530066, -0.26015577721110056, 0.9763842784279554, 0.9527067060803284, -0.3991840460966794, -0.4580833224909386, -0.46500181376475064, 0.015657791480953698, 0.055368936963375616, 0.07972399335155743, -0.3562771339285866, -0.40726711127890836, -0.48606400334822325, -0.7410726395006929, 0.023289867975301505, 0.27900266306237254, -0.24820524063916705, 0.8975575938533311, 0.8613270317084544, -0.3741269208741732, 0.9966996809585663, 1.0066888063849924, 0.11051918966054927, 0.13717859561679077, 0.06261092611202443, -0.1849325399794953, 0.2281526637124011, 0.24608744247399272, -0.8460957659932197, -0.06506416393224447, 0.39706725946826343, -0.6745240413468674, 0.10607882965241287, 0.53759346614563, -1.1192463438763822, 0.0008716601213884061, -1.328934906895378, -1.2540369266942746, -0.817977944450187, 4.216348363988212, 4.309898723475534, -1.169784604942202, -1.3032123938926885, -1.4383133683271083, 0.4200225415897001, 0.6447423150319356, 0.7407292018214601, -1.1604545431691038, -1.286570153681194, -1.5346549367441193, -2.785735046713023, 0.19352920301112636, 1.4250238015549448, -0.7346173812251349, 3.890112036942978, 3.8569518741363185, -1.1553727095631634, 4.376610507758821, 4.36444108566101, 0.7147449228288546, 0.9919904918240618, 0.5680039637679057, -0.3417133202351739, 1.3825490630607178, 1.3216205732491264, -3.091472000160433, 0.02326402570574101, 1.7871115996800329, -2.64592293139556, 0.6888351360810653, 2.414503782671974, 0.1653887370426923, -0.008030197210381677, -0.5767021829849434, 3.5776863552553615, -1.3648085686697913, -6.301644487302118, -0.15535103303176714, 0.0014951155891313062, 0.5913585984252693, -3.5741918955720657, 1.3676214109988882, 6.298467867610311]
7 Performance: 0.98192771 0.975 0.973
[-0.2204495871728568, 0.0028190920125248514, -0.24961919871274232, -0.23487584351623816, -0.20478046428859922, 0.0819786283532228, 0.07910180124464881, -0.25221400326223625, -0.25297641994126024, -0.2687898317010136, -0.11879946704701859, -0.16645409334086467, -0.15489336689359848, -0.24659629850041265, -0.24799319685107918, -0.25946710833180525, -0.25059576125624844, -0.05884246333390691, 0.017283776560911693, -0.18989066582557057, 0.09305535254730309, 0.0665627281978406, -0.23334443469831284, 0.08995526667249251, 0.081576078614918, -0.1110080440506759, -0.1445281842968374, -0.1653554836169197, -0.17220091470220347, -0.09744847198585496, -0.08982641322083415, -0.2551641612458346, -0.06833551590144207, 0.028904000679772012, -0.24060695044635524, -0.060648369394720986, 0.04544678877716598, -0.23259317605462862, -0.00827947416693579, -0.2767761081883559, -0.259070615497012, -0.1761411888738355, 0.5298749377957646, 0.5103350757384704, -0.26391102301334396, -0.2932287913718118, -0.3151135024239371, -0.01882397460536739, -0.020592365078072886, 0.0045682161126528575, -0.23157515438790113, -0.25521836412615945, -0.28862533838877125, -0.44454751207791143, -0.005062161354526019, 0.1403502970565803, -0.14715482861149426, 0.4915514893445095, 0.47486435294549, -0.24697536245189972, 0.5492230048864897, 0.5535530808374648, 0.04978284012229266, 0.05189368499278255, -0.0039710248125639416, -0.12930961795849719, 0.09813129122412301, 0.1180259999088626, -0.4825925571022795, -0.029311438186872638, 0.22273299266709448, -0.39912648393616157, 0.04259190629482198, 0.3005490862172223, 0.32146934802940463, -0.00025395831199092646, 0.28627940593877127, 0.30713089988711606, 0.2898279401680046, 0.1781409676826621, 0.186087563607149, 0.30179308223218604, 0.29755804526947066, 0.27165618119766716, 0.2562374012732914, 0.31731112717991466, 0.32289477622529644, 0.30320220618098453, 0.283258640779445, 0.28037880109118624, 0.1724623852664517, 0.10046570415473709, 0.07744277433538921, 0.312128499337552, 0.18530460032420643, 0.2033648140056271, 0.29513843281060376, 0.20097932820428357, 0.2618278556748075, 0.2346529032947707, 0.30519893419397737, 0.3166995889093017, 0.2508859520026035, 0.27523412690843563, 0.268019640587425, 0.15621859735747703, 0.09663843850879965, 0.08045002623626162, 0.22815092108954282, 0.14544296825565972, 0.12224167466091318, -0.389402224124671, -0.00011054281484139221, -0.4167959286130779, -0.4475021339011479, -0.25373423242622817, 1.0714027378375446, 1.0403474273635762, -0.4225302216150458, -0.4873108868739339, -0.49015163098710424, 0.03947889259231592, 0.07907287538242355, 0.10508948053861485, -0.354960083007158, -0.4356553096689763, -0.506525960502058, -0.7959624271592861, 0.028052302133857027, 0.30083267652352047, -0.23693175373323647, 0.9788632911753572, 0.9393801008529258, -0.3881058209580532, 1.099458259196273, 1.110372149865226, 0.13329894733647887, 0.1818231013161433, 0.07728384189398266, -0.17801530032617685, 0.25969854101041717, 0.28639993318432333, -0.906503159919828, -0.05540995579788722, 0.43916582809123506, -0.7032159399289292, 0.11542907372514179, 0.5960223721844885, -1.209718679272953, 0.0008716601213884061, -1.3960843438989832, -1.323400966970121, -0.8154898013099547, 4.484633182589605, 4.5328810114628855, -1.254738389583086, -1.3777872263154538, -1.5251282266350525, 0.5170527362810625, 0.6712565357885937, 0.7713939174483949, -1.16553642231902, -1.3799534217640563, -1.5921741443084587, -2.958566720961288, 0.1828633446405683, 1.5076236043620213, -0.6866212772000739, 4.117604823977993, 4.072545389362341, -1.1596069003955092, 4.630028456054457, 4.611168932589193, 0.7246924928082578, 1.0733798186717338, 0.5866580094797006, -0.27039829120958286, 1.4539909604317318, 1.419795707036712, -3.2291551243292895, 0.106504001872516, 1.931067843303287, -2.7132393759805282, 0.671073171852102, 2.579521396369918, 0.1548378387493471, -0.008030197210381677, -0.6498337807923745, 3.7100939518605536, -1.5592343434274922, -6.687441553292833, -0.14480009983103412, 0.0014951155891313062, 0.6639905368113252, -3.7067120371863163, 1.5608299815201738, 6.68402982134557]
8 Performance: 0.98795181 0.988 0.991
[-0.2215161711194545, 0.0028190920125248514, -0.25109826326212326, -0.2360927259321631, -0.20626729577327363, 0.08002539994092416, 0.07712193484825258, -0.25344718357555346, -0.25405827590108426, -0.27002024083196147, -0.1201646149253519, -0.16830428587569196, -0.1568531287304487, -0.24798152675847587, -0.24925844184290552, -0.26078453348573155, -0.25085062802412017, -0.05933490193858229, 0.01656443231538945, -0.19145055031568303, 0.09132979825474939, 0.06470953785441366, -0.2345419846406601, 0.08795870891418381, 0.07922090588843989, -0.11247193000585713, -0.14675733602824542, -0.16716987431797814, -0.17349182210700703, -0.09919169753059862, -0.0918161973260746, -0.2553513447448884, -0.06899040224994565, 0.028075475810780046, -0.24141533240449098, -0.06137852268477873, 0.0442119922409195, -0.24504429345471776, -0.00827947416693579, -0.2764865825339563, -0.26594266945822553, -0.16986836402775773, 0.5710952140615002, 0.551279613424632, -0.2673086324836644, -0.3029465775083899, -0.32300572001453226, -0.005457541052725305, -0.0033352162994800517, 0.024765957307037605, -0.22868680657354185, -0.2620153588700124, -0.29330134006655834, -0.4647293299786159, -0.0032155095932446544, 0.15243641496701915, -0.13533785155383868, 0.5293851688458058, 0.5124243882891278, -0.2537773718895898, 0.5900054001578906, 0.6002777589695342, 0.0629645505633924, 0.07842737735516941, 0.00858671836743351, -0.12357399251066413, 0.11493710422165139, 0.14257958778315777, -0.5052440866278854, -0.024812335575184745, 0.23956662689484626, -0.4048588384446866, 0.04582714575685903, 0.326791374536976, 0.3252844107770176, -0.00025395831199092646, 0.2883593908831226, 0.3104230367750383, 0.29111356378506886, 0.17236453971356777, 0.1804373943338766, 0.30474988220990856, 0.3012759976472849, 0.2749267236315187, 0.25606723079109256, 0.31706933247249414, 0.32220438941097274, 0.3052318616289693, 0.28633386747610706, 0.2831937695253271, 0.17733446967233316, 0.10092617404906049, 0.07586323781149623, 0.31289934788749857, 0.18039383253964883, 0.19836778948730938, 0.2983125326292872, 0.19528859282255434, 0.2556677097264667, 0.23410087063907398, 0.30326731623472564, 0.3167816426939491, 0.25169877869593776, 0.27427842323700274, 0.2659029360870368, 0.16144995892970854, 0.09654850375505376, 0.07826025707914053, 0.2311983265643085, 0.14577747494836274, 0.1187169581791072, -0.4255323717313612, -0.00011054281484139221, -0.4271979756461835, -0.476513823863463, -0.2485284321789595, 1.162608236888885, 1.129855061012865, -0.4482963566040126, -0.5207313074035191, -0.5175007827238927, 0.059803001116733916, 0.1027996704633334, 0.1361824201131275, -0.35940089694829175, -0.4606293331583271, -0.5310477237126782, -0.8524405859615948, 0.025449216970143462, 0.32434616682937095, -0.22484288764928514, 1.0507183387135022, 1.010293102597262, -0.41652645864045207, 1.190077890855455, 1.2122504262484142, 0.15819215052408792, 0.23013003373865878, 0.09356181621278245, -0.16976010185431778, 0.28761989614132794, 0.3304590578233628, -0.965978577728431, -0.04890586756242945, 0.47537373623082485, -0.7296357514953834, 0.11863955317633045, 0.6478801133787497, -1.328269999814476, 0.0008716601213884061, -1.4092652361437468, -1.3813429333313665, -0.8144977208194294, 4.726977330660482, 4.751612183383546, -1.3421457214649974, -1.4647272802265643, -1.6185718960583741, 0.5887532420969177, 0.7031896484097568, 0.8353059937036007, -1.1942019341383778, -1.442847169287213, -1.6648731366899738, -3.1268816089813556, 0.14489250021504316, 1.5940857975155345, -0.6377516134498543, 4.303994949023312, 4.25173745162059, -1.2083306690811515, 4.821933872066762, 4.838053990538382, 0.7489017767326975, 1.1733446573173425, 0.6230888251164763, -0.20026498814255098, 1.5068325845019699, 1.527342080013183, -3.3651683630973137, 0.16561170629657943, 2.044585890327189, -2.7754917833108537, 0.6395934692669072, 2.718579598097823, 0.14573194754607427, -0.008030197210381677, -0.7198435269761588, 3.8136143442078154, -1.735178079431268, -6.949963309451854, -0.1356878536689509, 0.0014951155891313062, 0.7335412522426444, -3.810211683160773, 1.735790122198453, 6.946662136619387]
9 Performance: 0.99548193 0.988 1.000
[-0.2224291426006508, 0.0028190920125248514, -0.2522235130648234, -0.23699177855737782, -0.2074815643051732, 0.07849308665209145, 0.07562879238093348, -0.2545559476469705, -0.25489746684300796, -0.2709499295017445, -0.12118759260654985, -0.16972761769235445, -0.1583761477226435, -0.24918887427911202, -0.2502118161386906, -0.26193301259488866, -0.25111388143953095, -0.059768097425333976, 0.016026379385125532, -0.1926978197584599, 0.08988985192847525, 0.06311761371940894, -0.2356803816978192, 0.08640372040503295, 0.0773992429864501, -0.11366722503194962, -0.1486028311417287, -0.16862979771938647, -0.1744579522988152, -0.10057691769447809, -0.09334933632928086, -0.25550231072752666, -0.06945406889831178, 0.02737928630240388, -0.2421177369339251, -0.06199541874814452, 0.04316944590747288, -0.25777406485058046, -0.00827947416693579, -0.28167165956892426, -0.27791299412276194, -0.16564413548403667, 0.608740569974655, 0.5868305927812405, -0.26929315139362225, -0.31588057574823586, -0.33547331042374795, 0.0028355971832027685, 0.008290946194464082, 0.03971457381506868, -0.22558112000798936, -0.2732983274151216, -0.29753207191390546, -0.4841183895095382, -0.0010434703670332893, 0.16263676579136357, -0.1266662301535445, 0.5667761513280981, 0.55146242930471, -0.2574701377983771, 0.6266011299446628, 0.6419404851686121, 0.0741769598905246, 0.10337589820664933, 0.0182006877710855, -0.12280242394995187, 0.12839458833599496, 0.16226405567507723, -0.5281072727475685, -0.022931216512680593, 0.2566545440293102, -0.4106196819323246, 0.04839429206479783, 0.3530603550106204, 0.32787254991678866, -0.00025395831199092646, 0.28994564032697795, 0.313153613777858, 0.29164703258643676, 0.16730560977517617, 0.17567787090293688, 0.30629826094276874, 0.30413004197350335, 0.27754710294691975, 0.255896364876161, 0.3166534680277457, 0.3213369169236118, 0.30609878664208584, 0.2887799607852228, 0.2847339829395905, 0.18098395068245335, 0.10099643129664079, 0.07451588471174059, 0.31312343504918594, 0.17568022228423083, 0.19331315822699774, 0.29984173544526077, 0.19034901118560868, 0.25029873679025316, 0.23313784163346732, 0.30081346880255144, 0.31635863323223135, 0.2523771097831314, 0.2731281423403665, 0.2639227075683425, 0.16562124238472017, 0.09652669030568312, 0.07609642222529012, 0.23319589487206396, 0.14573738746618625, 0.11526103827951938, -0.4551181305213436, -0.00011054281484139221, -0.44450996087047717, -0.5113990977681209, -0.2419343522747793, 1.2439943072966004, 1.2062221688618633, -0.46484001590000024, -0.5543772138423445, -0.5485726129115975, 0.07092598408561751, 0.11734579668850686, 0.1586024786036982, -0.35766640096874575, -0.48897667893883967, -0.5482099925248773, -0.9016170043299545, 0.02472462621257998, 0.3437956469075284, -0.21617237934155392, 1.1188844225357015, 1.0820974145386397, -0.43236722168510244, 1.2695240661524099, 1.3014216951633788, 0.18295277062661128, 0.2777358650060505, 0.10697377379319098, -0.17011427014357788, 0.3110286337900873, 0.3654847634994616, -1.019384336786033, -0.04701094113765043, 0.5110692964482539, -0.7510133773233424, 0.12319928556390823, 0.698676593316927, -1.4127272823181365, 0.0008716601213884061, -1.4376832564989523, -1.4503290698849651, -0.8099687774396505, 4.925242314527527, 4.913542257218393, -1.3846633222018534, -1.5456142593265403, -1.7214403369150315, 0.626989755758384, 0.7053961623652069, 0.8704058131931177, -1.1972082818258094, -1.5118374790082085, -1.6999284907844316, -3.2573912486313525, 0.11965921412765677, 1.662899471833533, -0.6025344235075019, 4.479711157357954, 4.434427250404622, -1.1919232905221118, 4.965590071732049, 5.00773966534913, 0.7699078389156024, 1.269747089058771, 0.6560664001994733, -0.15501873223011203, 1.5444878196301308, 1.5978288328688952, -3.4769791329408233, 0.20518789704235643, 2.1564911514583835, -2.820338217033283, 0.6167486099049729, 2.8514739938580895, 0.13791061974317453, -0.008030197210381677, -0.7847712899501021, 3.9027181172009864, -1.8943941308733698, -7.147841534465382, -0.12785869937960045, 0.0014951155891313062, 0.7980277306806169, -3.899227201397933, 1.8941399691053182, 7.144680782961773]
10 Performance: 0.99698795 0.988 1.000
[-0.22284604466954566, 0.0028190920125248514, -0.2526828852501016, -0.23752117174077025, -0.20820732005146614, 0.07715974588298438, 0.07439242147294843, -0.25508093855009806, -0.2554124773045882, -0.27123740661666884, -0.12171632874698397, -0.17069497604779982, -0.1594899702604866, -0.2498601364175833, -0.25064359637190525, -0.2626312874662269, -0.2512180959242414, -0.060097878640499265, 0.015635545154715127, -0.1933414585600567, 0.08857350987467802, 0.06170273488447227, -0.23668875884688692, 0.08518736786115456, 0.07583124776650182, -0.1144712159507043, -0.14979382349681075, -0.16959231961597387, -0.1751989976715928, -0.10168533120575406, -0.0944169891333024, -0.25543737286939333, -0.06968089600206134, 0.026764406364573463, -0.24237520594938824, -0.06234366544498453, 0.04222656850049809, -0.27222975129430416, -0.00827947416693579, -0.29302588779727345, -0.2866944278451623, -0.16338803387289405, 0.6467828687442718, 0.6198270042513686, -0.27583569130059676, -0.3251838639287029, -0.35283644759764143, 0.004550741443758085, 0.018905208564977228, 0.05506060088296448, -0.22748521032040492, -0.2855234569540647, -0.3002944969659096, -0.4996401357651026, 0.001707011760520353, 0.17147774895835094, -0.1249501248649551, 0.6060736942296039, 0.5916232475323816, -0.24996603454320532, 0.6596773221387824, 0.683738380033438, 0.08220276960194563, 0.12063208405888211, 0.027744547253307432, -0.11779101352951991, 0.1463901590524383, 0.18035487803901218, -0.5487606462807203, -0.024645172378418557, 0.2740149581031391, -0.42136250514260043, 0.04897497188406623, 0.37974927650639756, 0.3327350684110998, -0.00025395831199092646, 0.29468430875807505, 0.31756386750764487, 0.2943311756929129, 0.16307554722074089, 0.17216856061037386, 0.31061197446008687, 0.3084143319816182, 0.2831175514813832, 0.25808121349111396, 0.3182768054400719, 0.3223221924960439, 0.3095513582445154, 0.29356572029744743, 0.2882302600445408, 0.1853721827117023, 0.10152197409525325, 0.07382068889494874, 0.3162301962594229, 0.17150484062470736, 0.1890403697626732, 0.30176620064907955, 0.18698362242077451, 0.24602009367530273, 0.23397521977959693, 0.3014402525083419, 0.31810812052278936, 0.2540020145749465, 0.273143099238808, 0.26409367085069313, 0.17077563919075628, 0.09767700186393594, 0.0742814815380087, 0.23732080029686248, 0.14692354625702736, 0.11222356287391494, -0.4874561445364208, -0.00011054281484139221, -0.47461807054192345, -0.5341865498186252, -0.23525393322288587, 1.3378023172011546, 1.2856086090421173, -0.48608592418439495, -0.5757893576609623, -0.5909354998672542, 0.07238085091041871, 0.14060774414151073, 0.1944150636337997, -0.3607175833895195, -0.5197604741836366, -0.5568402388647763, -0.9387594346514941, 0.030163273768509653, 0.36296603252547727, -0.2149017467320901, 1.2087959208365853, 1.172579266935418, -0.4119583598692488, 1.347898049021239, 1.4039425987523586, 0.20491913266799222, 0.3182496478351481, 0.12907981872842697, -0.15291782111191707, 0.3547189535230153, 0.40620571249060644, -1.066363448960872, -0.0529383321556577, 0.5537051127435773, -0.7781405562849306, 0.12404885200108563, 0.7593712961623664, -1.53287828099506, 0.0008716601213884061, -1.5504496713963214, -1.5096716992011583, -0.7873738226009971, 5.20117735654307, 5.142906389242982, -1.4707028463968224, -1.5987877044049714, -1.9017695386554851, 0.6108913340671864, 0.7497006625473303, 0.9661597594882259, -1.2223816039119746, -1.6186303062353493, -1.7136366364145328, -3.376426391591245, 0.11698803652992662, 1.7391275100773282, -0.6294962014199389, 4.764035040414921, 4.7215797990865145, -1.0643780706179589, 5.156993339648016, 5.29290338910975, 0.8285010762654471, 1.344177739705452, 0.7036404470451619, -0.08153560856894532, 1.6650806508611087, 1.6793786313303483, -3.6196919569095996, 0.19707527137527533, 2.2868508773199037, -2.9228938061797556, 0.5928681406888524, 3.0649136581189134, 0.132719958800807, -0.008030197210381677, -0.8341300051159919, 4.039929060620104, -1.9968431814600494, -7.292252632046251, -0.12265260384730686, 0.0014951155891313062, 0.847323691668643, -4.0360681164251995, 1.9963649237895362, 7.2893893073897695]
11 Performance: 0.99849398 0.994 1.000
[-0.2230696142168516, 0.0028190920125248514, -0.2529680091422589, -0.23768848860412317, -0.20849417672592982, 0.07634512744090373, 0.07364768306748408, -0.25532512491249454, -0.2556321172935619, -0.27151204782759514, -0.12214325822662757, -0.17126995166082565, -0.16017745631368902, -0.2502537658414754, -0.2508756617271464, -0.2629551825374716, -0.2510732230185101, -0.06040772751604211, 0.015421504259711996, -0.1938246760189728, 0.08784942849258993, 0.060884665768253646, -0.23713451679195388, 0.08438783861864288, 0.0748446511743245, -0.11500431929592443, -0.15073917172198836, -0.170170329470778, -0.17571148602714318, -0.10229534800368825, -0.09497756012941826, -0.25534723099753737, -0.06991896238736352, 0.026281808313087227, -0.24257185838069392, -0.06263227416070086, 0.04174365214194008, -0.2849081579931309, -0.00827947416693579, -0.3026806814059474, -0.30077601070506715, -0.1701370999282857, 0.67235476556136, 0.6425866813741875, -0.2857218032481083, -0.33519484485790796, -0.36142737388154583, 0.008495845828384209, 0.024238223189954406, 0.06624137313527109, -0.23019907106104354, -0.2969907232499965, -0.30807767411908865, -0.5194884409734498, 0.008791593837148493, 0.17595258840008346, -0.1222738868247731, 0.6299472365095341, 0.616981544796639, -0.2528679831102987, 0.6845032551679685, 0.7136828039185745, 0.08975447036086467, 0.14025866376251409, 0.030872564253139802, -0.11247300273458102, 0.15433745401856774, 0.1850898743357484, -0.5655433854343025, -0.021106936590874713, 0.2902916430733209, -0.4281194082416965, 0.052502169195468705, 0.39424043052402713, 0.33577599569910405, -0.00025395831199092646, 0.2973586403284316, 0.3208930250107749, 0.2966670497933404, 0.16023696278387828, 0.16974816704410342, 0.31341182439606896, 0.31132690522685674, 0.2858464511895141, 0.2587113075197361, 0.31914539458650776, 0.3225636059024594, 0.3115170507640533, 0.2964962134190336, 0.2907151748468111, 0.1890654708070003, 0.10119519246561731, 0.0734294131538887, 0.3174652231072351, 0.16903291969651668, 0.18633156520333916, 0.30363177181871553, 0.18432718467227185, 0.24294646149728796, 0.23408899047747111, 0.3004023037403207, 0.3190606191712053, 0.25451919225088937, 0.2732945794669283, 0.264466865876419, 0.17415011403287486, 0.09769111761714355, 0.07246446441257291, 0.2395328064564917, 0.14715226380982752, 0.11062910484364898, -0.5072931415895108, -0.00011054281484139221, -0.4892489049083244, -0.5594593236013632, -0.24101529096872318, 1.4046465684989533, 1.343714736939328, -0.5018511174727794, -0.5931061021717231, -0.6041647635373903, 0.08833157622921058, 0.16092551755402204, 0.2277605168768707, -0.35624200682710255, -0.5396503583467654, -0.5677366139812798, -0.9797213522887768, 0.04629380824685294, 0.37411045394468984, -0.19883327909245713, 1.2666021895071367, 1.234186680921007, -0.4090754326187586, 1.4114156350867864, 1.4808980591814047, 0.22893449476566505, 0.3745202823893687, 0.14623626728461925, -0.13015460282282781, 0.38210853814297663, 0.4276703827021419, -1.0987501225386793, -0.04396373953878474, 0.5944079234411661, -0.786972565544207, 0.13477246629488956, 0.7954931333588403, -1.6036214254842793, 0.0008716601213884061, -1.5940076538879324, -1.5864542199166052, -0.824038968983509, 5.365597432299961, 5.2756670453777925, -1.540802252383358, -1.6481348001582807, -1.9709422596077877, 0.6408270886389275, 0.7574244820094037, 1.0211898118439642, -1.2285676282525588, -1.6859586335661132, -1.74640509146113, -3.5084573322835344, 0.14657596534265885, 1.7705479156942092, -0.5934465811171304, 4.896657625267152, 4.872170444200792, -1.0317344153939374, 5.287635362302267, 5.449334650881909, 0.86170373481681, 1.4620957225468785, 0.7340296899027483, 0.00010621661556421606, 1.7228009953559473, 1.7041300392448169, -3.705548753623309, 0.23708326443706193, 2.4015071984626237, -2.962363714881458, 0.6084966673804371, 3.1523478173650545, 0.12929613716659114, -0.008030197210381677, -0.8658754707396301, 4.152791978419735, -2.0638602563846984, -7.439834445048195, -0.11922127859561613, 0.0014951155891313062, 0.8790028198525306, -4.148773928990481, 2.063151754412413, 7.4371263576391335]
12 Performance: 1.00000000 1.000 1.000
[-0.22308813393465265, 0.0028190920125248514, -0.2530532553427779, -0.2376632586191559, -0.20869322688224357, 0.07585714447668822, 0.07319583820162452, -0.2554150106604759, -0.2556243306079678, -0.27155987961598227, -0.12241006203826932, -0.17147834204790754, -0.1604456477043473, -0.2503521608198857, -0.2510525017970316, -0.2630515153493067, -0.25095371913471304, -0.06056369526990958, 0.015313032071270735, -0.19392687907313305, 0.08756036730867986, 0.06049796733313483, -0.23724435369857422, 0.08379235776559354, 0.07416101215957827, -0.11529360489602647, -0.1512638093780854, -0.1704746774860531, -0.17589260410780114, -0.10255894645970375, -0.09533278214169402, -0.2550680883884634, -0.07003375497249292, 0.0259731590074565, -0.2425518271369412, -0.06269526781394606, 0.04147370868764639, -0.2919638416386534, -0.00827947416693579, -0.30698513047548687, -0.30945818536905106, -0.1681431933201913, 0.6886544699341519, 0.6572584129871412, -0.2887152981519409, -0.34213094583528264, -0.36682942983814804, 0.014164642124995021, 0.025755525409402232, 0.07025823819923369, -0.23317230256237015, -0.29683453047252295, -0.31150936155060155, -0.5285986875056505, 0.012083794010781683, 0.17852862648418166, -0.12468031918590194, 0.638050562536351, 0.6282523309266184, -0.2564538566693047, 0.7049281429057273, 0.7364245420537943, 0.095399927308893, 0.15379417058683525, 0.035691810465364446, -0.11077063324229232, 0.15890373301205557, 0.1933596386702385, -0.580977457148846, -0.01909083223978433, 0.30078403450394564, -0.434312762568197, 0.05166848515764237, 0.40259229333604946, 0.3381836980773736, -0.00025395831199092646, 0.29940297132633104, 0.3235790190687883, 0.2979594243192427, 0.15848640258393737, 0.16824214784507613, 0.31537681865796113, 0.31382231181736875, 0.2881328655107179, 0.25910129666784626, 0.32040529960188424, 0.32352889535956725, 0.3134632705585762, 0.29806370540708127, 0.29268090729731017, 0.19148256138344266, 0.10121956893876474, 0.07327851307024996, 0.3192329415042812, 0.1683277580708945, 0.18521923439211435, 0.3055647530508169, 0.18213131244418446, 0.24064359942344593, 0.23435636203864607, 0.30001675251558063, 0.3198121567035789, 0.25545943872522786, 0.2738488364785788, 0.2645028383554605, 0.17735387538984143, 0.09784690676761426, 0.07128611908007136, 0.24164420422876876, 0.14784722213088833, 0.10974207961461861, -0.5199103736028284, -0.00011054281484139221, -0.49435827549720046, -0.5760565525534973, -0.22776862288954758, 1.4503687670050034, 1.3843242574387282, -0.5031349694106475, -0.6047231260021987, -0.6116170696750772, 0.10894383291516134, 0.17076736870739598, 0.24489638052653864, -0.3569127437787785, -0.5320075844531005, -0.5707751078989921, -0.9981209935516556, 0.056101400950737804, 0.38152675443913203, -0.19853705188292037, 1.2891044593317487, 1.2645267734094525, -0.4118341667777552, 1.4679478953080964, 1.5452305751291697, 0.24845959743147134, 0.416815896805502, 0.16558090660585748, -0.11901115482585647, 0.3994951146550747, 0.45484286035503435, -1.1344193549902042, -0.036667453625264294, 0.6238508762986376, -0.7978644617189019, 0.13437346453717972, 0.8176667505180821, -1.6448817859956002, 0.0008716601213884061, -1.616463762382506, -1.6514084450588151, -0.8075277545694336, 5.466217796175945, 5.359622148646697, -1.5709035392992685, -1.6975498282611239, -2.018795559042245, 0.6858555364019404, 0.7490578063635372, 1.0394131305554828, -1.2397650614679459, -1.6837271010338848, -1.7662865216632875, -3.5781932578119986, 0.1597889755433851, 1.79020073634434, -0.6023891269970526, 4.931003173687065, 4.929719357989962, -1.0265278973791818, 5.399705142475258, 5.581225439484634, 0.8996571951192225, 1.5619514171083666, 0.7667442164120994, 0.05246201042457998, 1.7477645141211882, 1.7348490019516352, -3.803063848925823, 0.2668167124199958, 2.481225801301444, -3.0025960032088235, 0.5922083899513413, 3.2013899962167964, 0.12759640111076023, -0.008030197210381677, -0.8856282251643431, 4.253883522774456, -2.103673966176046, -7.558483835754653, -0.11750723006909058, 0.0014951155891313062, 0.8988281073325354, -4.249513321796458, 2.10303099431811, 7.556020067547438]
13 Performance: 1.00000000 1.000 1.000
[-0.22357495976651873, 0.0028190920125248514, -0.25357141296936736, -0.23804171849506353, -0.20941062276604605, 0.07502573716813088, 0.07227599557602843, -0.25596860590206627, -0.25607400365671695, -0.27180558879847044, -0.1233135146329613, -0.1723173461292844, -0.1613533774067195, -0.2510736800044792, -0.25171995844453526, -0.2635548605931994, -0.25107206300869706, -0.06096495262049602, 0.014945329018566439, -0.1947851086635955, 0.08687927872080117, 0.05943751216535744, -0.23779460806071606, 0.08275962106367925, 0.07289823957606803, -0.11580474916305052, -0.15241359048823877, -0.1712837777702374, -0.17642551252306135, -0.1032257790431458, -0.09600842629058225, -0.25497244535180813, -0.07041344972886816, 0.025368685560204534, -0.24276098226695683, -0.0631953164408274, 0.040779483762512676, -0.3005185015410228, -0.00827947416693579, -0.313956418497227, -0.3224463041766647, -0.16367963790741222, 0.7143184743977725, 0.6853872908643873, -0.29279791664644117, -0.35052669273854725, -0.3850406059599291, 0.03266809345511764, 0.03438798785552369, 0.0823382844577108, -0.22886694018569378, -0.2974599584989272, -0.31834113415886567, -0.5432166215403925, 0.02023205679093015, 0.18771572518911792, -0.11402801390851401, 0.6566881289864961, 0.6607543110826423, -0.26235071488076966, 0.7382395474443532, 0.7747611319741057, 0.09779448978161247, 0.17603275659954323, 0.04221100474205908, -0.10997272647564796, 0.16443810769633455, 0.2006477568924482, -0.6042739748533634, -0.013508185268250365, 0.3203413019099779, -0.4458676034070911, 0.05949801513217319, 0.42474823205490864, 0.3407466737179489, -0.00025395831199092646, 0.3017724465123854, 0.32680719314683065, 0.29900141129585633, 0.15568883688034493, 0.16514456726946347, 0.31746356835699213, 0.3164785959701494, 0.2920232040871109, 0.2579313722228759, 0.3207979419756271, 0.3235180386128518, 0.31452900310117915, 0.2998017343942697, 0.2950384344689869, 0.19457516332299205, 0.10062664450081497, 0.07232223221429807, 0.3193682388297718, 0.16634999613542165, 0.18149169879493382, 0.3077571462674206, 0.1784320384079479, 0.2366123657687416, 0.23506080171777294, 0.2986279278597929, 0.32035733299187363, 0.25652474835627254, 0.27431322885356724, 0.2647695145307853, 0.18146047443441862, 0.0975277933827504, 0.06900261893789833, 0.24440371437751338, 0.14743100998661746, 0.10714322041181933, -0.5500132230439713, -0.00011054281484139221, -0.5202727282709461, -0.6183912738261239, -0.22198177598783853, 1.5171278275801199, 1.457008618348595, -0.5216365532148175, -0.6351245541654947, -0.6687465272502562, 0.154738000715937, 0.1861541541450729, 0.27113727255982667, -0.35080003984681213, -0.5416827200754225, -0.5961506578251726, -1.0424629607814577, 0.07598998403717036, 0.40403154901094146, -0.1757292364741181, 1.3368167363819528, 1.3491475256183623, -0.43489034010908184, 1.5549495890947127, 1.6438337579454014, 0.24889676710543848, 0.4693984858693498, 0.17606286370122218, -0.12108990175093058, 0.408735219258331, 0.46728220034373524, -1.2036758465256507, -0.02495821248947215, 0.6749892252972838, -0.8354272961227819, 0.15222768660807584, 0.8745057389536888, -1.7325812327909698, 0.0008716601213884061, -1.6925527976553367, -1.7960545167386752, -0.774862285100933, 5.683907037246076, 5.6076676563067505, -1.6283704350009576, -1.7979608184756193, -2.224448352171858, 0.8634861265729058, 0.802085674520224, 1.1377416026840979, -1.1991812700738678, -1.708959263100221, -1.841443588021451, -3.7276567347261955, 0.22828079405586435, 1.871565925366042, -0.5132589606186179, 5.083375262457071, 5.220934566139418, -1.088840256239594, 5.679156329727502, 5.900817189558622, 0.8899518296955876, 1.7557168835408183, 0.8114878481592286, 0.07794501025040927, 1.7819714541764948, 1.7453617818148714, -4.045041814653909, 0.3199979649658782, 2.653882145977018, -3.1352944812017305, 0.6655396694155488, 3.39727564888005, 0.12288586501059562, -0.008030197210381677, -0.917642993503509, 4.358361305883562, -2.1430967615571923, -7.634179294074777, -0.11279692762912293, 0.0014951155891313062, 0.9308176170261044, -4.354027794037968, 2.14240290777829, 7.631738406332092]
14 Performance: 1.00000000 1.000 1.000
[-0.22413841697518178, 0.0028190920125248514, -0.254290156450844, -0.2387135625197362, -0.21012966766926328, 0.07408866148838614, 0.07140273788303815, -0.25671341558167704, -0.25670606624708425, -0.2724092239538648, -0.12397498015735382, -0.1731691637374616, -0.16232925347956176, -0.251929381169819, -0.2524785113822859, -0.26448185446668654, -0.2512359453509418, -0.06147116790300634, 0.014709773726613019, -0.1955007429690644, 0.08619417979985192, 0.05856800380947301, -0.23859086941050106, 0.08178667277951197, 0.07162342292835287, -0.11647266020471075, -0.15360504449951948, -0.1722047652367753, -0.17703508323465192, -0.10412059354937221, -0.09694330207092768, -0.25503768917127884, -0.07076925344879094, 0.02489150331501354, -0.24311240081876026, -0.06365094491959025, 0.04018875189881491, -0.3048527273718484, -0.00827947416693579, -0.31198236974488386, -0.3223900926887943, -0.15843706620481907, 0.7477685947105585, 0.7143299252829015, -0.2877677478772217, -0.35158244787783016, -0.38781993036077955, 0.04087974092307387, 0.04404041486681473, 0.09766465478581572, -0.219041742877556, -0.29169319932979787, -0.30481456071234725, -0.5567673833415493, 0.034111257385468656, 0.1928300336815173, -0.10955593841339713, 0.6781430974052503, 0.6882193476080846, -0.25741230487083927, 0.7718699920406192, 0.818828250704285, 0.10593778876537406, 0.2020388508406906, 0.055443554946354355, -0.1047153829077504, 0.18235444153177535, 0.22054011134740353, -0.6235076134213898, -0.006651406042599341, 0.3358332133760152, -0.45535920380590267, 0.06730335942105041, 0.4438943119252764, 0.3414296395257166, -0.00025395831199092646, 0.30158567100152583, 0.3269492514508578, 0.298526073831993, 0.15164799707738472, 0.16152812987467213, 0.3170390985433871, 0.31672796394392466, 0.2924974998625708, 0.2569622407327637, 0.31962842872436303, 0.3215635751811585, 0.31348159082471433, 0.2993106555501062, 0.2936191858386107, 0.19638808123680604, 0.09898877197301126, 0.0717184082033692, 0.31889776740022413, 0.16372438757223298, 0.17799229602747657, 0.30718696802623413, 0.17421851407215325, 0.23132379430860875, 0.2340449978858302, 0.2955314630007921, 0.3188594431386932, 0.25599543510179285, 0.27226142644403717, 0.26247884424816476, 0.18387052817605543, 0.09671691304481919, 0.06698383599604538, 0.24556156472921248, 0.1464678741700261, 0.10465737051141209, -0.5764431608948825, -0.00011054281484139221, -0.5306432612848846, -0.6338980170639158, -0.22079519944904616, 1.5968203137403953, 1.5249183124551866, -0.524179068458679, -0.652326779759939, -0.6899546469024134, 0.16545253475051905, 0.1958287885590393, 0.2987888064302792, -0.34007289665986623, -0.5389259841165971, -0.5775745864996596, -1.08569371775286, 0.10792660092651452, 0.41211340047218625, -0.17780051039573605, 1.3851832303353238, 1.413076197902019, -0.4376711811420984, 1.6392489594256348, 1.7512845463484736, 0.2599319979562781, 0.5226047197837037, 0.19412542435823013, -0.11834725093819201, 0.44170423800186864, 0.5055795006378735, -1.2635947096219289, -0.01216323300483152, 0.7126116121838593, -0.8719159148018946, 0.16441864474211867, 0.9190534739343997, -1.8457647495615834, 0.0008716601213884061, -1.7577414176483384, -1.8871832655627012, -0.7987866695546223, 5.920429898119653, 5.7786851301315085, -1.6806692707576243, -1.886529010840233, -2.338991339209301, 0.8610456987321842, 0.7714400447537322, 1.1783814914733062, -1.191842536039181, -1.7209995260340512, -1.8185119816024653, -3.878732439969617, 0.31622263007600254, 1.863077582532562, -0.5741339455766833, 5.1987567998944915, 5.389265011473503, -1.1340989325575055, 5.9313167620766585, 6.243615620528175, 0.8985782407480447, 1.897038665248498, 0.8397177980735977, 0.0911595972277248, 1.8605541941797623, 1.8399369152833684, -4.271884303319775, 0.3514591191274202, 2.77524154181905, -3.2928622803306644, 0.66912388421039, 3.5174528609291937, 0.11700617585734052, -0.008030197210381677, -0.9577363594713214, 4.417127635975484, -2.199678141709539, -7.69638112694386, -0.1069204999546599, 0.0014951155891313062, 0.9708479721781638, -4.412924473270813, 2.198877996452712, 7.693923345272717]
15 Performance: 1.00000000 1.000 1.000
[-0.22438941903517262, 0.0028190920125248514, -0.25463221262126207, -0.23901196060427635, -0.21061810883447452, 0.07346893889121141, 0.07082394791138416, -0.2571220535778653, -0.2570693178362424, -0.27253575674302016, -0.124276031076442, -0.17374354459824518, -0.1629582928296428, -0.2523723979381955, -0.25272638425839, -0.2649945281833011, -0.25137927157355594, -0.061540757682414085, 0.014486002058847326, -0.1959141429944025, 0.08552360455471633, 0.05778906495288241, -0.23920301637091038, 0.08122755204672631, 0.07083368607353133, -0.11694414342508955, -0.15427825799477446, -0.1728199133193159, -0.177436333811182, -0.10461266074221429, -0.09746445610093024, -0.2550463145477469, -0.07093768569096201, 0.024545543422119717, -0.2433999688258959, -0.0637718785309435, 0.03969271435011518, -0.31997190519111574, -0.00827947416693579, -0.32240063377697586, -0.33337004365467715, -0.15675568663046177, 0.7707384627446588, 0.7336581861977745, -0.29311083460530774, -0.3599642677310326, -0.40807111287233727, 0.038841699555418725, 0.04933382106881801, 0.10536420797892566, -0.22305714655874012, -0.3058478036356083, -0.3052775133161538, -0.5689241819793124, 0.029319135795820697, 0.1996310503335119, -0.11118469047408058, 0.7047915913661024, 0.7180727589277901, -0.2527699849778509, 0.7904562996285925, 0.845618927898403, 0.11048747167370244, 0.21093819343359888, 0.062481150524638734, -0.1044114805818398, 0.1872215404600806, 0.2269995248830819, -0.6413542394708402, -0.007588560901665587, 0.34876989831296257, -0.4618244781456725, 0.062322520671670635, 0.4626913625184464, 0.3428146556528999, -0.00025395831199092646, 0.30252703281014787, 0.32808671349899976, 0.29818121194695835, 0.1487373613878075, 0.1589336452952363, 0.3175335467871624, 0.3173999331839665, 0.2947583625627092, 0.25719440049598846, 0.3187910174908165, 0.32041870280616674, 0.31365310066301466, 0.30078417152573, 0.2933890520248109, 0.19767713937298761, 0.09947248214540433, 0.07086591140078144, 0.3191103540294264, 0.16054556737232947, 0.1743016633659815, 0.3063078565390321, 0.17182035018596645, 0.22782734676339667, 0.23311066604583533, 0.2941597624621414, 0.31778247412022503, 0.25574000008774345, 0.27154102552967435, 0.2615702327903414, 0.18591636496778707, 0.09669528986578368, 0.06533211598570146, 0.2461528390735774, 0.14694458448725464, 0.10225690000648728, -0.611589747880972, -0.00011054281484139221, -0.5552084925246306, -0.6599927119707294, -0.21370111612176038, 1.6538033124119784, 1.5729407261115385, -0.5356383757483528, -0.6699671268414479, -0.7384878348305773, 0.16072995666426607, 0.21000333547370817, 0.31884333350181027, -0.3471555001917293, -0.5720900895733402, -0.5759500038731163, -1.113667358031417, 0.09643876583724517, 0.4294439413539956, -0.18064819312602767, 1.4502825994647648, 1.485277047106965, -0.42251183391269015, 1.6834249848661842, 1.8178486801739384, 0.2737446987745775, 0.5462959890431613, 0.214215372717693, -0.1144322930739942, 0.4549551712619609, 0.521180079417217, -1.304695359713543, -0.013957069722460198, 0.7452711647904097, -0.8860183903229758, 0.15215335351695705, 0.9639876387992473, -1.943692033484015, 0.0008716601213884061, -1.8244746137974965, -1.9360076289375558, -0.7496673950948114, 6.093030281622335, 5.918874643752218, -1.710142135169593, -1.9229387003820386, -2.5130628354919007, 0.8535968803817551, 0.8129189146737557, 1.2501773245635242, -1.196959231945246, -1.82283852064475, -1.7961408443860039, -3.94985846020462, 0.2548427821282677, 1.9127984900892947, -0.569786034753528, 5.399535753707931, 5.62219929570515, -1.043424447366177, 6.060655137916413, 6.444074342912384, 0.941069161578647, 1.9507161188191093, 0.9092689469862996, 0.12600716238788473, 1.9004125501968676, 1.882433736634991, -4.391226058312763, 0.34350064419050513, 2.874117517934586, -3.32639839859067, 0.6149290219269639, 3.659922605584184, 0.11316623555535421, -0.008030197210381677, -0.9868140899655886, 4.504389048451371, -2.254792634078298, -7.746744803390227, -0.10308379562898194, 0.0014951155891313062, 0.9998677853861161, -4.500283943682968, 2.2538852969061907, 7.744233244258754]
16 Performance: 1.00000000 1.000 1.000
[-0.22433099197175455, 0.0028190920125248514, -0.2546826594577323, -0.23900227529393267, -0.21060006110917173, 0.07325474365219058, 0.0705161002752398, -0.25712297121626504, -0.25702678594470146, -0.2723934768146785, -0.12428303434659635, -0.1738390976788798, -0.16300722429553016, -0.2524220158925937, -0.2525865233743528, -0.2650840218683796, -0.2512037054614625, -0.061494673850883703, 0.01442562551258424, -0.1959518704700942, 0.0853225649717574, 0.05743706383918457, -0.23926245669263005, 0.08091555842820422, 0.07049184167028572, -0.1171083858729197, -0.1544219723534798, -0.17299945561097843, -0.17747263324578563, -0.10462207535987164, -0.09764001849114663, -0.2548075569728604, -0.070962672011143, 0.02438678538626796, -0.24334812656764848, -0.06374192868390566, 0.039478394252845016, -0.33670364618060117, -0.00827947416693579, -0.3337589326403092, -0.3469150494329592, -0.16926944778263628, 0.7780175525928904, 0.74446815617455, -0.30649955989724037, -0.3756532649304216, -0.42912666226505497, 0.03048358317718605, 0.0415611711302639, 0.09560408190363608, -0.23364874630792234, -0.3262632041998348, -0.31430079719838466, -0.5876732340492429, 0.022290696915911946, 0.20052125433947351, -0.12079469217824079, 0.7110710337663376, 0.7318003110003671, -0.26256286676220525, 0.802106964286764, 0.8568734475809776, 0.10939070003033459, 0.20572975433574453, 0.059132334388605254, -0.11206038740293923, 0.17772000248390626, 0.2256301783863657, -0.6630034681147664, -0.010675874389949816, 0.3544416009183595, -0.4754212563658581, 0.05498168572995792, 0.47083051621494965, 0.3446998428587776, -0.00025395831199092646, 0.3037610749417484, 0.32962446640518017, 0.2996619852179293, 0.14778784332941647, 0.15738817772430463, 0.31904217794026396, 0.3192295134171193, 0.2972946209133807, 0.25818954867074484, 0.3195324499927767, 0.3214221580876335, 0.31480062523577373, 0.3032433812865914, 0.29433702869182266, 0.19997995130502288, 0.1002813550813535, 0.07074061443201438, 0.3202887008732801, 0.159689100509665, 0.17249241697610757, 0.3074292197273171, 0.17025868884114137, 0.22630678520947095, 0.2330688553189519, 0.29462670597819934, 0.3179815631579091, 0.25665186881121227, 0.2726747085343036, 0.26161365243816875, 0.18864334155170243, 0.0970830155130603, 0.0645543446404768, 0.2477110255601786, 0.14778566242549562, 0.10116186574983367, -0.6363432285316625, -0.00011054281484139221, -0.5655083948305598, -0.6770616860247143, -0.22874306694711288, 1.6782984329822435, 1.6067342507254323, -0.5510202682153322, -0.6915394752963445, -0.7736311142073954, 0.15182598813266027, 0.20634281015487616, 0.3105216311850838, -0.35539689540762515, -0.6053642177574345, -0.5802620466635471, -1.1485350658058466, 0.08423051394858705, 0.43535016564024415, -0.1881011841594212, 1.471231561045537, 1.5264672392455183, -0.4289205607762431, 1.7187995348551226, 1.8549277344363795, 0.28411847245442085, 0.5510251777960626, 0.2233705398303566, -0.11922464039626002, 0.444478578625649, 0.5312034950607037, -1.3460940164083475, -0.01515917983425331, 0.7636412924052906, -0.9054569911620879, 0.14042207854610417, 0.9879903396017485, -1.9760266214925217, 0.0008716601213884061, -1.809235398339145, -1.9266692743671365, -0.7521537477992816, 6.173396127046646, 6.04120781965199, -1.7198877594899165, -1.9486803681475626, -2.5976590523972103, 0.8606303730909947, 0.855805385514357, 1.2727934037592992, -1.1723162753367422, -1.902285604948713, -1.763070777158026, -4.029884981123885, 0.2222485607454661, 1.9297367529803595, -0.5470758162529288, 5.475454730695124, 5.782365434294227, -1.0135024753034405, 6.196727278513282, 6.595814164413382, 1.0125204642509333, 1.9970741986136362, 0.9864518340803873, 0.14198510056880484, 1.8873474242252908, 1.9542328480989029, -4.50291811720819, 0.3423949546381628, 2.935343342082477, -3.3450071387849203, 0.5907377822616273, 3.7608341580919364, 0.1122112135034452, -0.008030197210381677, -0.9961225095917652, 4.618465852494772, -2.281659454375768, -7.812090232803639, -0.10212193992678685, 0.0014951155891313062, 1.0092224998796362, -4.614161777669812, 2.280807416562598, 7.8096613076820915]
17 Performance: 1.00000000 1.000 1.000
[-0.22447698119162846, 0.0028190920125248514, -0.25488825416522654, -0.23913524623248308, -0.2106988779137158, 0.07290663667362904, 0.07020833172384588, -0.2573929636963973, -0.2570633590671034, -0.2725041354529766, -0.12432739130953933, -0.17412253378905676, -0.16324813432514176, -0.2526772553547692, -0.25270206723858724, -0.26535148696389116, -0.2510779444268956, -0.06156450253233658, 0.01433688357177513, -0.1961419673784331, 0.08507033554211148, 0.05704386834343847, -0.2394987790282173, 0.08052292933074799, 0.07007341289648047, -0.11735003690724415, -0.15482778553523865, -0.1733327627645068, -0.17767258126795504, -0.10474306706431573, -0.09791429739070608, -0.25463651245740865, -0.07098021722964383, 0.024190128615940096, -0.24348914598436888, -0.06380683263974081, 0.03924096194978621, -0.3424692363045987, -0.00827947416693579, -0.33684178030804923, -0.353261617099831, -0.1753992318480208, 0.790926189426396, 0.7546239516439723, -0.3056936719451475, -0.3860488229649643, -0.43618108982401343, 0.0243593463399181, 0.042978720840347685, 0.09552451720130443, -0.23355228021319016, -0.3327733000117701, -0.3140739118222292, -0.6025178808016143, 0.021408714825411387, 0.20266280027836278, -0.12251546643950803, 0.7189890736097851, 0.7458979052636204, -0.26341756834694097, 0.8165846640582661, 0.8706435260392975, 0.112164041803973, 0.21359742228708883, 0.06325250031703607, -0.11117070570306696, 0.17437656560207127, 0.22870576594333888, -0.679319247464458, -0.013371592463431002, 0.3619478253742251, -0.4788712851146465, 0.05277692814033695, 0.47887484729816676, 0.3452788568358528, -0.00025395831199092646, 0.3039424049260526, 0.33034005812901246, 0.3004363976749829, 0.14592238874226446, 0.1557932173367531, 0.3187598256765812, 0.32051568045614137, 0.29813573348919203, 0.2589820443368727, 0.31912669691136836, 0.32123767656531105, 0.3146104519179218, 0.30402354066261034, 0.2940863366872917, 0.2019425595906772, 0.10029850229622045, 0.07041482036581016, 0.32048224742834236, 0.15848896532725584, 0.17039394901971713, 0.307417893151917, 0.16812805716604584, 0.22423783472992892, 0.23248370583709674, 0.2933284803401035, 0.3171737566119271, 0.2564672554989585, 0.27305943371825736, 0.2609992985251581, 0.1909072508616567, 0.09740670447737242, 0.06345831177553624, 0.24804158728817838, 0.1479908193478231, 0.09991195622848842, -0.6442914135801797, -0.00011054281484139221, -0.566035933599919, -0.6863267645473115, -0.2365093952085474, 1.714467323589355, 1.6362863810971373, -0.5406002877917326, -0.7103877463128533, -0.7847568536692486, 0.14167898825064335, 0.216284918020906, 0.3172014198026437, -0.3466325115202523, -0.6144474471034578, -0.5716823555711074, -1.1816851467226894, 0.08334859351509172, 0.4427880296773247, -0.18520428819749474, 1.4934391774230085, 1.5654766793028316, -0.42263067986975744, 1.7586040031542038, 1.8943619866983137, 0.29755452299070595, 0.5790195695303201, 0.2423260358209245, -0.11006705105738873, 0.4418453002051517, 0.5444630903192297, -1.3821868209423795, -0.019456973609348522, 0.7849720742452652, -0.9082985368015297, 0.13695317667444099, 1.0093465957485754, -2.0107378574189143, 0.0008716601213884061, -1.8139000800739598, -1.966004054559699, -0.7969282907350883, 6.291619705159922, 6.1292918697150505, -1.6922211336120305, -2.0321876795633744, -2.647439862857104, 0.8054242378773837, 0.8810116069050618, 1.2870415095239476, -1.1457803951054757, -1.9472550059029778, -1.7400886409171112, -4.158820836684633, 0.21653280196969718, 1.942547526550931, -0.5486939269613188, 5.538322904409157, 5.913477956762694, -1.004924741934708, 6.33398849266217, 6.729331313694436, 1.0522978699754595, 2.0887547157102984, 1.0453063777840665, 0.17112312707316174, 1.8531166899149012, 1.9937647584180958, -4.645738664180384, 0.3207634575697091, 3.012003127522194, -3.3498055185426763, 0.5698371448732109, 3.8341411628039297, 0.11017935429960242, -0.008030197210381677, -1.0094403823926525, 4.699945314721634, -2.3050494520187716, -7.869685250270653, -0.10008067786410942, 0.0014951155891313062, 1.022596953499372, -4.695365713068023, 2.3042655561467207, 7.867372529811203]
18 Performance: 1.00000000 1.000 1.000
[-0.22452446167021253, 0.0028190920125248514, -0.2549931400664724, -0.2391510048439173, -0.21069404040046685, 0.07274482345533856, 0.0699468808641011, -0.25744484744384544, -0.25708575105254844, -0.2724714720179614, -0.12430301726148164, -0.17419285524070088, -0.16331826065949454, -0.25276740967449174, -0.2527073584707911, -0.2654584906629458, -0.2509567910643643, -0.06155940204961225, 0.014257185748334978, -0.19611208024809074, 0.08498956303132504, 0.056821734797741094, -0.2395576374324435, 0.08033598118467099, 0.06985662550294017, -0.11753263120556916, -0.15503247386897953, -0.1735551628397866, -0.17776384304194393, -0.10475645117961067, -0.09803022333029762, -0.25449372219046945, -0.07104744121540597, 0.024038548465887603, -0.24349679489829462, -0.06377774225218574, 0.03913469691367152, -0.34605677387155653, -0.00827947416693579, -0.33763823764504375, -0.35823931532903236, -0.18056237689371823, 0.7975185146761978, 0.7654069509667558, -0.3088066279824969, -0.3906171699511584, -0.4434646539757248, 0.01931572988155033, 0.04069976222635766, 0.09356871897339573, -0.23474496392450303, -0.3378123850435053, -0.3146228757111943, -0.6127104808008544, 0.01916094941844389, 0.20594771180690005, -0.12885357881671666, 0.7211749587769798, 0.7550796497545189, -0.2659521456640381, 0.8238327866296624, 0.8785650142192447, 0.11713883374316043, 0.21856808631377098, 0.068899367908109, -0.1104578547343849, 0.17097391542419554, 0.22994866859901722, -0.6900318152590258, -0.011524454535639685, 0.36856514663373646, -0.4831857104919126, 0.04876292607036154, 0.48268002458188475, 0.34571316923674184, -0.00025395831199092646, 0.3039661461619048, 0.33103304028101754, 0.3012101263093364, 0.145007728570899, 0.15416378503804, 0.3191410392131738, 0.3211280903211435, 0.29916760099837264, 0.2597196002440208, 0.31936353890570557, 0.32147291941426714, 0.3147298978263144, 0.3047515238389186, 0.2940761900246891, 0.20338010191021727, 0.10055946138216634, 0.06995218787584144, 0.32142537856688935, 0.15816690567089092, 0.16905176459499477, 0.307770024472482, 0.1670657170614244, 0.22307252250414125, 0.23169492946364106, 0.292550408523582, 0.31629057150662915, 0.2563953919428625, 0.2735588224245724, 0.26077221692771646, 0.19248679740944596, 0.09712735898377593, 0.062497296258002794, 0.24861525650851213, 0.14851030282305366, 0.09929754068592149, -0.6479330471291502, -0.00011054281484139221, -0.5618567548007154, -0.6936443014812451, -0.2443825629200072, 1.7344165708475414, 1.6678312888190288, -0.5424164045083221, -0.7162831738209772, -0.798380250316687, 0.1323794746208134, 0.21553050238789861, 0.31767038094288164, -0.3431977998573764, -0.6214767904736366, -0.5667411006178602, -1.2048318995744849, 0.07920230431703194, 0.45330157155243017, -0.19635034240659657, 1.5009431679503142, 1.5929572023313807, -0.42271819700232455, 1.7801846791910299, 1.9188148287471714, 0.3159514073841529, 0.5989311793628087, 0.26398059743757263, -0.10285074494319967, 0.43738335764162295, 0.5522731224609565, -1.4063391858796839, -0.011905093453132287, 0.8041682623280938, -0.9146776213359228, 0.1283570524380973, 1.020985103464081, -2.0170770147801744, 0.0008716601213884061, -1.7874823088149705, -1.9851336497248087, -0.8311573493188414, 6.3402965264591415, 6.226467131473949, -1.701146982397005, -2.049123430207584, -2.695614034335463, 0.7630344383885533, 0.8758769716814611, 1.2845032860725267, -1.1283809279347192, -1.9720218332675707, -1.719192030956412, -4.235104205732361, 0.20303383239109113, 1.9714607243157258, -0.5939203981316338, 5.542894318678954, 5.998951240079641, -1.0087663393587, 6.3947651739518845, 6.802116620390959, 1.118024342968655, 2.1568197839302585, 1.1245211852357897, 0.19739290066916051, 1.822493922252832, 2.019631552847004, -4.728852746963602, 0.3514451131674701, 3.076632980689632, -3.3578751802306894, 0.5353220005748779, 3.8696135535942533, 0.10920823047193119, -0.008030197210381677, -1.0184363758734385, 4.767334285569857, -2.325173332595008, -7.926683781286052, -0.09910773120868897, 0.0014951155891313062, 1.0316045926473665, -4.762710659100427, 2.324404371371969, 7.924395479250445]
19 Performance: 1.00000000 1.000 1.000
[-0.22468261744771822, 0.0028190920125248514, -0.2551916445625071, -0.2392775398396462, -0.21079662915868075, 0.07251556435756285, 0.06967517640424649, -0.25773068670316335, -0.25723000161255644, -0.2725948421708381, -0.12440109300052378, -0.1744871076729394, -0.16352344111500475, -0.2530053574491519, -0.25288414800302306, -0.2657372737297562, -0.25088757079567575, -0.06164989187685066, 0.014148635745586181, -0.19628295011120547, 0.08478439528216465, 0.05654130337568527, -0.23986336585778265, 0.0801000415030806, 0.06953631627687984, -0.11778690967726128, -0.1554198953094933, -0.17383914990610425, -0.17799689596497528, -0.10492249154292414, -0.09825147244017804, -0.25445639540513165, -0.07115176056828566, 0.023881039494472026, -0.24362041311901525, -0.0638788859807411, 0.03890283955748233, -0.3436865877614892, -0.00827947416693579, -0.3332467413767602, -0.35731938793122614, -0.1799129695157637, 0.8077018864512383, 0.7770950200550413, -0.2998276537731932, -0.3886500429099496, -0.4425136233234836, 0.020901912363694545, 0.05028058989733051, 0.09895297811279458, -0.2281256812129637, -0.3338866935425156, -0.3060280342786161, -0.6200587032936405, 0.021893903848954066, 0.21072416146547251, -0.12481120410291312, 0.7298830477917996, 0.767248342554603, -0.2555650219461509, 0.8338319811122101, 0.8920812855035196, 0.12609463081851624, 0.23328825677643797, 0.0781009696574288, -0.10231384258418903, 0.17554448352160926, 0.23682841831778614, -0.6953306041486281, -0.007786582169746955, 0.3755914269316804, -0.48144050790307347, 0.051441196385512755, 0.49304382137732844, 0.3458051500624835, -0.00025395831199092646, 0.30375575447646525, 0.33143055422810136, 0.3016211660529164, 0.14376791623444565, 0.15261411397076033, 0.3183371449187704, 0.32129866540478974, 0.29956918667578664, 0.25985887662423013, 0.3184670502467053, 0.32118957113686647, 0.3142524590801887, 0.3047024056946837, 0.29328265978922863, 0.20475709475912449, 0.10027642206753808, 0.06935810473212649, 0.3213501997041674, 0.1571331585629978, 0.16747270189202124, 0.3068182018926988, 0.16582425876835677, 0.22141408688451297, 0.23071290799628075, 0.2908700280536808, 0.31537081539864376, 0.25564664737792725, 0.27332481001693587, 0.2601606674767, 0.1936361629306879, 0.09670265987347545, 0.06158276524092784, 0.24873614014545375, 0.14829203056538426, 0.09788037115235308, -0.6457332253094097, -0.00011054281484139221, -0.5539211688048332, -0.6959103563664033, -0.24609489718095004, 1.760720625134395, 1.698222687426925, -0.5219248041336224, -0.7146107444837434, -0.8003223997624129, 0.1342232166401197, 0.2370516597546625, 0.3281196654664784, -0.32903257608442305, -0.6144128466680564, -0.5471253996016926, -1.227747174329953, 0.08532767007605974, 0.465968264372217, -0.1890714345686062, 1.5225805607036866, 1.6242067982894843, -0.3978253979444434, 1.8053503807247653, 1.953222928316916, 0.3379157715513055, 0.6359954579236557, 0.28560470469390453, -0.08286735464578887, 0.4465694895629909, 0.5671398921499821, -1.423233423076191, -0.0022257164191777437, 0.8226906237983339, -0.913242381339097, 0.13363637829632868, 1.0482848155308917, -2.0586121959354386, 0.0008716601213884061, -1.809324705775481, -2.051230076907958, -0.8888896140342696, 6.397935601233107, 6.303609064522684, -1.6787264714344503, -2.0881945125010946, -2.761361041508167, 0.7293342484306155, 0.8916647583348789, 1.2631363555162645, -1.1268029029572364, -1.9971035260705774, -1.7000223521794864, -4.349240563787337, 0.20649117310590162, 2.002714684557587, -0.6252645271046919, 5.5782201988845195, 6.070605042661554, -0.9683113522698341, 6.442268849561199, 6.88073201252084, 1.1638480508537663, 2.237834076673239, 1.1524771447900664, 0.23770652723441577, 1.8057425436714065, 2.019138810125857, -4.815882207742131, 0.37776622786559766, 3.132809742740241, -3.389295159334762, 0.5283584142331769, 3.9468598592904485, 0.10734787745423667, -0.008030197210381677, -1.0334957252631631, 4.800684136459377, -2.3511438481392086, -7.988181708748466, -0.09724571998663127, 0.0014951155891313062, 1.0466752842389284, -4.796030259496008, 2.3503910019204084, 7.985929018783729]
20 Performance: 1.00000000 1.000 1.000
[-0.22476228785891914, 0.0028190920125248514, -0.255339371176393, -0.23931381324202433, -0.21087066174938013, 0.07229584092450879, 0.06938845840655605, -0.25796867556626113, -0.2573182476464774, -0.2726554580869432, -0.12450969069633813, -0.17479867005881922, -0.16378734709205858, -0.2532386977943248, -0.2529761278835532, -0.2659513066372776, -0.2507661192472692, -0.061785985545463676, 0.014066935450805644, -0.196532920349289, 0.08452548533949435, 0.056219879950770824, -0.24008789141309705, 0.07979335997560509, 0.06922278122468231, -0.11797331972621543, -0.15580182374825663, -0.17402770224657677, -0.17814546941904655, -0.10502684845163981, -0.09840901571009922, -0.2543977461343262, -0.07126465906299598, 0.02367772535447347, -0.243757719443953, -0.06401675909897567, 0.038608977591072395, -0.3501138639423384, -0.00827947416693579, -0.3356667933529107, -0.3660513706371598, -0.18490682904912706, 0.8171123049179347, 0.7895230230787872, -0.296891263439564, -0.39398822522545796, -0.4492925025766823, 0.02020502018303026, 0.05816900704587867, 0.10476490521433175, -0.2251918639370609, -0.338830926530069, -0.30485552525568743, -0.6342258187017751, 0.026606616045700193, 0.21347246954156215, -0.1196486788869823, 0.7414978003499881, 0.7816425573176234, -0.253308433379372, 0.8481809601916124, 0.9049208097951086, 0.12910819929400358, 0.24550381365704063, 0.07863300878354008, -0.10171166508923989, 0.17346208102473354, 0.23725241459191268, -0.7058081938038707, -0.004647260526841959, 0.3852956963443818, -0.4822859303733549, 0.054921962577632266, 0.5073939649150806, 0.3469253714208429, -0.00025395831199092646, 0.304349962275264, 0.3329543191678597, 0.30264118028455267, 0.14265309156892325, 0.15099254215182972, 0.31826814922642854, 0.32229783270990814, 0.30086293158021943, 0.26020269502377186, 0.31775499542596997, 0.3207632210038101, 0.3141771761155505, 0.3057100866932666, 0.2933998787594007, 0.2068835346205328, 0.09973906972458763, 0.06903996742070179, 0.3210520442774083, 0.1557373913548381, 0.16566725554533407, 0.3068667994099976, 0.16406653314478634, 0.21988314571511622, 0.23046880441534323, 0.28952343468098696, 0.3155374990760352, 0.2558183201619832, 0.27387502192173657, 0.26034413668458917, 0.19528744635019893, 0.09633063594553051, 0.06032112931353064, 0.24909593156449394, 0.14794639569414583, 0.09601647707140534, -0.6721235665903084, -0.00011054281484139221, -0.569067247266596, -0.7297659702852972, -0.2681014210931072, 1.7836415123588845, 1.7295443819285943, -0.5221788230425972, -0.7375339622068114, -0.8280253049034862, 0.12638438012963682, 0.2497484673874483, 0.33585154129624245, -0.3292027923276275, -0.6360835272236538, -0.5525244256378242, -1.2728517776290535, 0.09646285366495072, 0.4722605186798201, -0.18305646769125003, 1.550836213787483, 1.6606207864077938, -0.39991906004189226, 1.841793307845774, 1.9839998427325085, 0.3407050396755175, 0.6628199910795963, 0.27897340407872, -0.08697034809263812, 0.4336645106502076, 0.5602949434492154, -1.458274706574929, 0.00495120768476339, 0.8480056470438692, -0.9227312677764482, 0.13977776481412674, 1.086657018450688, -2.1208801210620623, 0.0008716601213884061, -1.832617130393564, -2.1421229388712146, -0.9437228166105646, 6.469688043220588, 6.408820109029132, -1.646377517935167, -2.1393034334654106, -2.832290511693311, 0.7185095635568819, 0.9610824554846215, 1.3125096706461825, -1.094950251988375, -2.045725899910122, -1.6879396811902716, -4.484191008953639, 0.25550682938548697, 2.0224126798741797, -0.5748395887828619, 5.668660788749384, 6.197006387724516, -0.9447935867863904, 6.566196867174547, 6.987812765295415, 1.1900127200063522, 2.3554884645403624, 1.1517350929828842, 0.24694126887454423, 1.77304160782937, 2.0080628304911987, -4.912803881163729, 0.41347836957826056, 3.22538664446228, -3.388995304952305, 0.5617260247126529, 4.084002837155689, 0.10562971524303408, -0.008030197210381677, -1.0484670393270203, 4.861626846091115, -2.376753116593038, -8.072228394379492, -0.09553197554377299, 0.0014951155891313062, 1.0616159569464672, -4.85711086170996, 2.375956743254657, 8.069925687710592]
21 Performance: 1.00000000 1.000 1.000
[-0.22520012941255965, 0.0028190920125248514, -0.25572840991011275, -0.23977552410213504, -0.21134126316076043, 0.07180003923889729, 0.0688595169041451, -0.25850234512417974, -0.2578189657417141, -0.2730016179353566, -0.12473235864467398, -0.17549320317821063, -0.16444574051113708, -0.25378588882789693, -0.25340917655918194, -0.2665423897731265, -0.25094649892363724, -0.06198740704902121, 0.013851999940635955, -0.1969130275052392, 0.08393988391653634, 0.05558421078421878, -0.24087620005360308, 0.07933542775374472, 0.06851567144460026, -0.11852128198704076, -0.1564570623338402, -0.17449772460420573, -0.17863758336026303, -0.10555573311948033, -0.09882359043703381, -0.25453809267123473, -0.07149047777000635, 0.02341980816408425, -0.24407628413313173, -0.06426936534613804, 0.03809196380969923, -0.3524011210597336, -0.00827947416693579, -0.34161225664638534, -0.3657984613020168, -0.1809715073515918, 0.8381683244578175, 0.8101634570333333, -0.29301036488864063, -0.39229265049427636, -0.456312040663468, 0.015084251266100029, 0.0741857940717718, 0.11855202538132464, -0.22008255764035053, -0.34092861525342133, -0.2978705856838148, -0.6432453323079348, 0.02997941301780239, 0.22087865830208783, -0.12149330448971717, 0.7675540379478498, 0.8090024390414694, -0.23385321031313325, 0.866225854528874, 0.9342868596130869, 0.14229749897237043, 0.2577749553852329, 0.0806499782117646, -0.09331457629131695, 0.18360170538375215, 0.2405475590056808, -0.7173176357405945, -0.00200969447644862, 0.3951422981170405, -0.4857735306339383, 0.05827476718610219, 0.5318803010750068, 0.34709100264064846, -0.00025395831199092646, 0.3049394951188637, 0.33297553359642434, 0.30212073839159365, 0.1399556491489787, 0.1482181973586779, 0.31773334195628916, 0.3219212321189451, 0.3017998820298406, 0.26087549520623504, 0.31569395033331604, 0.31897295915990365, 0.3134279210652901, 0.3059447235929651, 0.2923389648710452, 0.20793023608285283, 0.0992301248055106, 0.06803332377915945, 0.32126628233492854, 0.15238262967576788, 0.1620342491354398, 0.304308462166702, 0.16175466007603728, 0.21612635193056565, 0.22869992159468652, 0.28779099569913347, 0.3151505669560202, 0.25472601076297896, 0.2725315195447486, 0.2598826037867754, 0.19675057707320084, 0.09582308760099992, 0.05900781808418785, 0.249445173446063, 0.14745182284645164, 0.09276688883721035, -0.6915371032563195, -0.00011054281484139221, -0.5990923386855183, -0.7417678578014072, -0.26968619147022277, 1.8330991521277598, 1.7781225945522843, -0.5258061767894958, -0.7465075329136647, -0.8609203994517185, 0.10482599196819878, 0.27894043746200947, 0.35937854279896486, -0.32957850344450973, -0.6554029676031372, -0.5484059651716802, -1.306237890216847, 0.10117971090529757, 0.48879956014011544, -0.2010076135669746, 1.613206519050074, 1.7261765278312116, -0.3625149931581391, 1.8833724969997931, 2.05365092858238, 0.36663123903074896, 0.681241205026467, 0.2718862325008933, -0.07521272436289508, 0.44889687717543325, 0.557453821845446, -1.4979013319201513, 0.0064971537199645536, 0.8703339540214521, -0.9430059954461769, 0.14274807946693857, 1.1478138553307173, -2.1995831257262304, 0.0008716601213884061, -1.9497198676523972, -2.201583995615947, -0.9680622104187967, 6.633312180987727, 6.576900550816333, -1.6694163547551595, -2.1774859959074098, -2.9709333635341033, 0.6272062223922947, 1.0469288542133448, 1.3827683851049641, -1.1059989424363796, -2.1234183531408464, -1.6827741091486588, -4.611162859345278, 0.26995507836481103, 2.081336794663891, -0.6595502476663219, 5.877244789580177, 6.426666668720572, -0.8113321155577204, 6.699774408610541, 7.220912240431998, 1.279350983661451, 2.4178390608996616, 1.110754573304657, 0.2898470852196024, 1.815180191054505, 1.9755447240886037, -5.058594812456205, 0.4321947968695515, 3.3040783592583707, -3.469310973211474, 0.5653324576018587, 4.3074399242990795, 0.10155575629456304, -0.008030197210381677, -1.070677191560894, 4.8900942073291915, -2.3993996884178643, -8.085381943096133, -0.09145985561356033, 0.0014951155891313062, 1.0838098334259443, -4.8856496861819325, 2.398582803396781, 8.083059639820004]
22 Performance: 1.00000000 1.000 1.000
[-0.22527918145856507, 0.0028190920125248514, -0.2558318809747397, -0.23982547057583004, -0.2114153933574049, 0.07165239424376979, 0.0687200790262432, -0.25868388970532824, -0.25786549654919727, -0.2730688463944941, -0.12477068432042962, -0.17568223051848736, -0.16454428069735355, -0.25393295982134073, -0.2534849203629672, -0.2667107939651313, -0.25088556769887205, -0.06202408638258531, 0.013782922458199376, -0.1970810394161425, 0.08379449978172233, 0.05539219642787656, -0.2410329794395696, 0.07917818419702966, 0.06832009786205714, -0.11862590353849871, -0.15666473858959767, -0.1746238456965279, -0.1787503296823085, -0.10566925764622859, -0.09897349491105441, -0.25449323877400426, -0.07155080767566281, 0.02332865728002079, -0.24415215331714285, -0.0643680787275777, 0.037923031961608115, -0.3553256937803606, -0.00827947416693579, -0.34305037920246023, -0.3705759033481395, -0.18292679340839657, 0.8452500484109833, 0.8160682750809279, -0.2893290740549471, -0.3969354989636311, -0.4597877328595312, 0.012423780528867641, 0.07844381313915953, 0.11742283812149946, -0.21852397268844184, -0.3434768685353618, -0.2950085603505932, -0.6525016736597639, 0.029558756445223374, 0.2240499645596999, -0.11785151369814335, 0.774086057222492, 0.8179614799259769, -0.23138946715319092, 0.8732425638226968, 0.9427617668935938, 0.14344218268297135, 0.26374293509160446, 0.08133603931063596, -0.0915214295793434, 0.18511182511446714, 0.2438817447678689, -0.7252462783001608, -0.0004899707626321269, 0.3995072345770051, -0.4874687063577334, 0.061004970498516865, 0.5404561915943015, 0.34728018588958154, -0.00025395831199092646, 0.3049350320770754, 0.3334591892808789, 0.3023007953447865, 0.13902467240941888, 0.14733153735047047, 0.31711607151794874, 0.32235496283233467, 0.30213319494623336, 0.26114594794138635, 0.31499690450203105, 0.3189776350579929, 0.31308204024977554, 0.3061572549654286, 0.29180122937236364, 0.2090325072681729, 0.09919508695080949, 0.06759614782040603, 0.32073052491529935, 0.15149329455344204, 0.1607891849765887, 0.3038798794646309, 0.16079449531905224, 0.21496272169543143, 0.22840090389067405, 0.28686480652851926, 0.31488801672722744, 0.2544220418503596, 0.27224980151479494, 0.2593337280128732, 0.1977042045691418, 0.09553931630465347, 0.05839441129221457, 0.24953464080111432, 0.14700146120738844, 0.09157905263762998, -0.6953661264172176, -0.00011054281484139221, -0.5991384167923135, -0.75039508348988, -0.270591590716273, 1.8520714046176303, 1.7940079193582814, -0.5125188576867267, -0.7543485041311458, -0.8661118765276712, 0.10085307914625735, 0.29288209817389876, 0.35977763235888416, -0.32167780912561034, -0.6579896802974612, -0.5373082346932306, -1.3268802437527294, 0.10080236330965689, 0.4974849957643488, -0.1879978007102124, 1.630462012029908, 1.749487554260177, -0.3521835289886823, 1.901869251522567, 2.0766723812879984, 0.37224000510072636, 0.6997910895857125, 0.2770534642922495, -0.0672735486750718, 0.4556053499396066, 0.5683812860460727, -1.5147515653552233, 0.011722459712681977, 0.8821360214727574, -0.9441657190413215, 0.15101988255625332, 1.1699379412854263, -2.2279670797535154, 0.0008716601213884061, -1.9657691719351824, -2.2548076405732367, -0.9895689019080129, 6.678576211051053, 6.617117626808397, -1.6388665277032015, -2.2158258189204436, -3.0120360131150403, 0.60098216295358, 1.069836241101854, 1.3606890884486593, -1.0936739341784663, -2.1489514479515908, -1.6605314814758814, -4.6908219325314136, 0.2639000319051396, 2.1062553803798583, -0.6351792595353399, 5.912458658150519, 6.487624669640363, -0.7904857627186362, 6.739592299918383, 7.276530846250664, 1.2894039130065886, 2.4655833221896986, 1.1131170869356888, 0.30892260908605756, 1.8182782685204382, 1.987963634153765, -5.120490174258037, 0.4524470677141428, 3.341013312424658, -3.4824241684739885, 0.5859117712718338, 4.375750374862178, 0.10036290147569295, -0.008030197210381677, -1.0803080742480982, 4.923081725730103, -2.4185943212850063, -8.1465841940369, -0.090266815801996, 0.0014951155891313062, 1.0934411882596329, -4.918642483980204, 2.4177777761368824, 8.144274701484798]
23 Performance: 1.00000000 1.000 1.000
[-0.22547139788660306, 0.0028190920125248514, -0.2560682231013857, -0.2399995156487686, -0.2116289003251613, 0.07138765534175996, 0.06841066707997269, -0.25902710664598255, -0.25804423925985587, -0.2732191280128247, -0.12499833012487882, -0.1761048376486716, -0.16490397547697191, -0.25431738729561026, -0.25364245597291823, -0.2669936591251985, -0.25085625827558977, -0.06216760491716934, 0.013699211929490184, -0.1975168479295812, 0.08349333843108507, 0.05502365837958161, -0.24131872825868086, 0.07883947028127507, 0.06795364932608436, -0.11887556632199464, -0.15712170158447508, -0.17486086794386413, -0.1789461660093519, -0.1058272248294669, -0.09922134407170355, -0.2545280235160929, -0.07166611519001208, 0.023131854072101696, -0.24444357366070554, -0.06454209395263949, 0.03760071249628085, -0.3607528957590094, -0.00827947416693579, -0.34561503870205823, -0.3772977975361121, -0.18488835050200478, 0.8581207735722233, 0.8311968747504137, -0.2850560111259906, -0.4028336275941594, -0.4682182470763801, 0.016183657844411326, 0.08929653682393504, 0.12518967480126408, -0.20993726900731763, -0.3512769014168487, -0.2953680993215658, -0.666946796378563, 0.03366298780454387, 0.2262442968653632, -0.1051305438987587, 0.7887907480335937, 0.8358517437228397, -0.2308553155388418, 0.8901872326121686, 0.95922612289582, 0.14820725515895405, 0.27808787868070517, 0.0799333111494707, -0.09194911077753723, 0.18108649987191075, 0.2461380664224808, -0.73559319132931, 0.0015088138222884109, 0.40957482135643397, -0.4821443938165924, 0.06461639800531328, 0.5582205086565518, 0.34785203821705407, -0.00025395831199092646, 0.30513775453636777, 0.3342458443816192, 0.30251219466088874, 0.13741663798845297, 0.1453540249457543, 0.31647327716533263, 0.3229764934698614, 0.3031155978455802, 0.26064703500479675, 0.31352623274948177, 0.3179353213966275, 0.3118691893889025, 0.30708325022204375, 0.29169920909889757, 0.2108202512312889, 0.09861905168816236, 0.06729881435402597, 0.3190722178964943, 0.1496272252898934, 0.15848580423972225, 0.3037143046683443, 0.1586353543673829, 0.21284895589199077, 0.2276980779264785, 0.28494504407214516, 0.31495314124775453, 0.25441179492629235, 0.2726610562742422, 0.2589536091370576, 0.19896103621991953, 0.09523567414454268, 0.05707799116378469, 0.2487531356668389, 0.14646303027784027, 0.08928695386930643, -0.7156375142550807, -0.00011054281484139221, -0.611932372447063, -0.7742391111256212, -0.28075091846714123, 1.8839393700063958, 1.831424969755376, -0.5072621357157462, -0.77530172611992, -0.8939997371182236, 0.10717061938008095, 0.31516205001870323, 0.37475715392529924, -0.3038979251307471, -0.6845554562747546, -0.544893932771009, -1.3682184806110236, 0.10981332053886908, 0.5016269211089667, -0.1597930182746433, 1.66650431464304, 1.7932221255073069, -0.3568677049144188, 1.9443009902906605, 2.1171131601427686, 0.3811812853344658, 0.7321795760236885, 0.2673446778761543, -0.07239837214120186, 0.4399283140813328, 0.5689866124324994, -1.5456584243512166, 0.015034595543026056, 0.9074270323162221, -0.934310379296226, 0.15779408657626007, 1.2149461055224373, -2.2994843133394296, 0.0008716601213884061, -2.0118057300998657, -2.3420051262660215, -1.0284360297893966, 6.775822397407062, 6.735884785521514, -1.6184180363466611, -2.2871706304126254, -3.113685209164287, 0.6198917705355779, 1.142554161600867, 1.4075867629337402, -1.0281793870139224, -2.243294547780287, -1.6870595493993665, -4.833658728680701, 0.29573320134713926, 2.115165326191485, -0.5362410933347607, 6.0223236606742, 6.628973636329074, -0.8060161871892794, 6.875977771648093, 7.405479827658335, 1.3185406423821182, 2.576683571539541, 1.0751848777624102, 0.2936584587358582, 1.755364831023179, 1.980004065967838, -5.222565280516415, 0.4647903593776211, 3.428647183180653, -3.4413860658193762, 0.607850183199534, 4.528550110918489, 0.09792621815743181, -0.008030197210381677, -1.0970190398635051, 4.960266022436504, -2.4431009138503623, -8.225799348994405, -0.08783215427274829, 0.0014951155891313062, 1.1101355520283425, -4.955891126535433, 2.4422632649680125, 8.223474290433744]
24 Performance: 1.00000000 1.000 1.000
[-0.22541000887681004, 0.0028190920125248514, -0.2560159896985471, -0.23989408007793572, -0.21158970856557147, 0.07131163256276914, 0.0683359856539428, -0.25897596851950355, -0.25796243171175204, -0.2731105809590136, -0.12496533418672932, -0.17608989654118967, -0.16488808233918445, -0.25427516463792543, -0.25355917252275884, -0.26698043889131196, -0.25071202569200485, -0.06212910430338261, 0.013688650276123026, -0.19748298606599482, 0.08344225600912202, 0.05496826352310907, -0.24127773227100552, 0.07878468188230808, 0.06788039754314665, -0.1188781577142646, -0.15714795573660031, -0.1748579418562171, -0.17894531409004266, -0.10578774394256268, -0.09921841083464658, -0.2544387416727955, -0.07166905410481354, 0.023046966463953076, -0.24440789247028855, -0.06452390531764991, 0.03754648466619727, -0.3677856162732027, -0.00827947416693579, -0.35205410645005264, -0.3872121629164626, -0.18984542606495167, 0.8624773993666629, 0.8350306846354941, -0.29136093284616965, -0.41112510750237885, -0.47827678256726924, 0.012212840100556252, 0.08568531235257493, 0.12155335900646659, -0.21553994348140193, -0.3595688489335555, -0.29910041815221955, -0.6787718708781322, 0.030036028975491118, 0.22644998983294748, -0.10960505414798552, 0.7912392494437982, 0.8385264744402765, -0.23627619608762127, 0.892982239344272, 0.9628539923776871, 0.1462765943803468, 0.2774419177299165, 0.07707226110441619, -0.09373971845905416, 0.17633007972588166, 0.24372808114953243, -0.7434638039437305, 0.000861326465891727, 0.41494033235617794, -0.48678391088115336, 0.062049431021336074, 0.5611633895859679, 0.3485962510622184, -0.00025395831199092646, 0.30580922636074137, 0.3353960220657596, 0.30305779669029975, 0.13681548249725434, 0.14474814308419864, 0.3171290252545992, 0.3239009862591714, 0.3043035587502194, 0.261089740101178, 0.31384067500119783, 0.3182655174464201, 0.3124462038240156, 0.30803884597986625, 0.29201569633494495, 0.21223932892245032, 0.09901013556722342, 0.06724028253269888, 0.31956716393063817, 0.14922614464152115, 0.15806025190731476, 0.30427790433737406, 0.1582279787312708, 0.21229302598827762, 0.22780551521109915, 0.28490141483737363, 0.3151652342138811, 0.25458201635846905, 0.2731695557662183, 0.25913550259886203, 0.19990155157206177, 0.09526941076705742, 0.05635453300403394, 0.24923545334332237, 0.14669933144323455, 0.08883840676070269, -0.7226473990392724, -0.00011054281484139221, -0.617141474928886, -0.7885480366992216, -0.28286389611861873, 1.8983599250050682, 1.845068270959735, -0.5120789264663304, -0.7852798527221424, -0.9086224815711271, 0.10502480230761652, 0.316452039308187, 0.37607102829746825, -0.3068580671103187, -0.694618320616406, -0.5431237254027458, -1.3904887834121626, 0.10402962454733747, 0.5041055731926845, -0.1604627757701213, 1.6761005464828245, 1.803888210435825, -0.3593715879577319, 1.955094825104272, 2.131595470466141, 0.3840853085991609, 0.7411503732466791, 0.27039306767268767, -0.06844191670483936, 0.43615746897244684, 0.5710692104975311, -1.5574545267478732, 0.01712415193170932, 0.9232323248214558, -0.936735750570305, 0.1558989206246306, 1.224987438229726, -2.3059268554071277, 0.0008716601213884061, -2.013948075387348, -2.3766278251585913, -1.024764787798635, 6.819378454345634, 6.776117105992915, -1.6211051214159, -2.3060200458449223, -3.151771635463063, 0.6202163029719944, 1.1553324062858188, 1.4209993092117843, -1.0217225574261772, -2.26334046194612, -1.6663367554933632, -4.898907477396627, 0.2778798549345552, 2.1213595417603894, -0.5254091668716473, 6.04569810445458, 6.66000555358901, -0.798538375502386, 6.906694706431555, 7.451390698495733, 1.3362908647476561, 2.617990793632937, 1.0970033076710326, 0.323749080484648, 1.7462751254607336, 1.9915390142288947, -5.247003487147942, 0.4774923678499904, 3.48574344778639, -3.432900335067779, 0.6037898362404295, 4.560625717817931, 0.09782435949250443, -0.008030197210381677, -1.1021594320293073, 5.0206840764443506, -2.463143725352541, -8.310420443528537, -0.08772990657151956, 0.0014951155891313062, 1.1152786422912682, -5.016298195933717, 2.4623095045348684, 8.30810821730947]
25 Performance: 1.00000000 1.000 1.000
[-0.22537190388749956, 0.0028190920125248514, -0.25598718125886594, -0.23981846223200645, -0.21156932588477792, 0.07123271264256206, 0.0682631011036935, -0.25893716292249985, -0.2579020663081681, -0.2730270410651595, -0.12494950753567717, -0.17608943208641284, -0.16489462521834025, -0.25425076437306715, -0.2534996965923195, -0.26698285500473923, -0.25059310820197955, -0.062097842572061523, 0.013680302546045528, -0.19746247643508083, 0.08339051394676117, 0.05491460758753148, -0.2412583476637132, 0.0787283590071895, 0.06780275619544322, -0.11889151706947246, -0.15718672161548541, -0.1748744173957734, -0.1789602650792549, -0.10575886479333371, -0.09922974195265949, -0.2543692327480694, -0.07166907375446929, 0.022965800390362147, -0.24438964148861042, -0.06450439510913437, 0.037498558555228025, -0.371870753494896, -0.00827947416693579, -0.35552004839958307, -0.3936305665981676, -0.19231338144276658, 0.8672458352296205, 0.8390915115632419, -0.2954804237486534, -0.41655223605918784, -0.4851616626020848, 0.01033486096387977, 0.08428319942292803, 0.12066305499022222, -0.21859963731455587, -0.364860411147005, -0.3005015335583688, -0.6876946760382123, 0.027387361576987602, 0.2267148327454182, -0.11195523753703586, 0.7940727467139015, 0.8414598084046683, -0.23894344277478072, 0.8962218610805602, 0.9672369186394931, 0.1459493441669242, 0.2787133134228925, 0.07667072342343913, -0.09359496878068384, 0.1733480963428909, 0.2432629822301127, -0.7489343287800103, 0.0004338044524415474, 0.4200972965839846, -0.4891577892400723, 0.060008089698920034, 0.5638831716867012, 0.34906782324692126, -0.00025395831199092646, 0.3062061132831654, 0.3362115555081087, 0.30336976264973353, 0.1361632684577447, 0.1441344348639707, 0.317605599358697, 0.32456951340947393, 0.30520051852979946, 0.26133220411557717, 0.31395683087462106, 0.3183293758223908, 0.3127956080563397, 0.30871792472502685, 0.2921250570962396, 0.21338721919173456, 0.09931848440360395, 0.06719136751153668, 0.31987599028311114, 0.1487924608714069, 0.15762355199005898, 0.304581591335716, 0.15777853753532153, 0.2116588506104537, 0.2277705543121077, 0.2846848228942168, 0.3151419928019007, 0.2545618142124908, 0.273530597226103, 0.2591344311696946, 0.20061952635566926, 0.09531314186269652, 0.05565008075700198, 0.2495059751936536, 0.14691884319510598, 0.08843027339271604, -0.7252080986283159, -0.00011054281484139221, -0.6178003681171452, -0.7972237154356143, -0.281412166133086, 1.9134101544570705, 1.858648572504579, -0.5145116526669082, -0.7911905782843145, -0.9184940997726913, 0.1061250048397293, 0.32063593947971236, 0.38172791399899836, -0.3063722723315015, -0.7002097672598985, -0.5383123153851482, -1.4080936201905134, 0.09962094541024262, 0.5062502916354872, -0.15849622029615495, 1.6860379197930044, 1.8144619760889191, -0.35782158333535535, 1.9663565641343626, 2.1470615756674722, 0.38908365490414515, 0.7525568199194625, 0.27711359338323316, -0.06154024045587782, 0.43454015034058213, 0.5760008407719337, -1.565585214021026, 0.018852068969813857, 0.938482400022587, -0.9358578620746261, 0.15395420322383643, 1.2340404475872697, -2.312784997611782, 0.0008716601213884061, -2.0163568250790775, -2.407069060650684, -1.0232739540588314, 6.861055842497914, 6.810329554791669, -1.6321328919498483, -2.3271663399514106, -3.1890040445094643, 0.6206295014335096, 1.1637602789100367, 1.4349679617576891, -1.019467503014406, -2.2837543050405977, -1.6511413011798903, -4.95982530952849, 0.2596708057605427, 2.1234188236054448, -0.5199133861561283, 6.065821715728905, 6.685542400313881, -0.7929663217955056, 6.934588194521016, 7.49395002342127, 1.349822355675738, 2.653191097297625, 1.1169336308845343, 0.35230022632927604, 1.7324164371549002, 2.0015920044088764, -5.270874775161144, 0.48312328895535367, 3.5383966216346026, -3.425786618823064, 0.592511651968467, 4.585972984140002, 0.09759934445654732, -0.008030197210381677, -1.1080218383349152, 5.072855534913083, -2.4829241180898785, -8.391161066256545, -0.08750218796305623, 0.0014951155891313062, 1.1211596405462694, -5.068386993102035, 2.482115181283297, 8.388894811893381]
26 Performance: 1.00000000 1.000 1.000
[-0.22532817259869792, 0.0028190920125248514, -0.2559385264216495, -0.23973490976096484, -0.21154646742229713, 0.0711794299165453, 0.06820214828755503, -0.2589046450379728, -0.2578474661776284, -0.27294226274882455, -0.12493030892935801, -0.17608697062117695, -0.1648887903917586, -0.2542212928076927, -0.25342972551893195, -0.2669749807062799, -0.2504805554820635, -0.0620641601429037, 0.013674357197772748, -0.1974510063465426, 0.08334666057313903, 0.05487324277796153, -0.2412225508212716, 0.07868897015452374, 0.06775023656516677, -0.11889157062526914, -0.15720229229914345, -0.17486387115697544, -0.1789625412713385, -0.10573534661406586, -0.09922414585451324, -0.2543187951558915, -0.07168018139837351, 0.022887980330457348, -0.2443681075366676, -0.06449553667813034, 0.03746279485530236, -0.37467319965760837, -0.00827947416693579, -0.3586313528540175, -0.3989183601099356, -0.19347322764195374, 0.8708470385600477, 0.8430050241895931, -0.2974679827085792, -0.41993615121903577, -0.4904562615171054, 0.009357861772030508, 0.08427737531103875, 0.12048230117601139, -0.22036602605912062, -0.3691822989210402, -0.3008971944434401, -0.6949638589025828, 0.025149064573489553, 0.2271360014407172, -0.11231332949289408, 0.7969276712355855, 0.8441864696544447, -0.24105937689597592, 0.898912700078879, 0.9707528457542445, 0.14597382673613143, 0.27998848600095755, 0.076080883525514, -0.09314682862120748, 0.1719691931850533, 0.24293948716212677, -0.7520029534475788, 0.0012063976866444033, 0.4252226591201312, -0.49042850285578754, 0.05936838234921756, 0.5661641871543995, 0.34955598967107254, -0.00025395831199092646, 0.3067449319379164, 0.33706730170091365, 0.3036773202577386, 0.1357254162700053, 0.1436164520768201, 0.3179987139417754, 0.3251600036012647, 0.30607797013290533, 0.2615833450310875, 0.31406530894760903, 0.3184744469317117, 0.3131599629674048, 0.30945890130192444, 0.2922952893698705, 0.21446091801515507, 0.09964076153573218, 0.06715893211606733, 0.3200769687940812, 0.14841971383336458, 0.15728485438286777, 0.30500109202646286, 0.1574668267999234, 0.21123164101611727, 0.22783416395119266, 0.28464278314833646, 0.31532902005159097, 0.2546266962922657, 0.2738227421718194, 0.2592579053560041, 0.2011480741760514, 0.09524745628414708, 0.05496612060596198, 0.2497805996130185, 0.14703324199229167, 0.08812297632626068, -0.7271723083254479, -0.00011054281484139221, -0.6204823327008717, -0.8059557706581345, -0.27902863591748356, 1.9248337209968034, 1.8711787764592829, -0.5140579013765215, -0.7945649788198013, -0.9272156448409508, 0.10765528983620615, 0.32604780656470367, 0.38672760253786065, -0.30525909845953425, -0.7062239377629843, -0.5335101516693163, -1.4237742367870556, 0.09525177271898033, 0.5083539907329491, -0.15374538883816308, 1.6954067610633916, 1.8237167749153809, -0.3576323092639811, 1.9754351265047796, 2.1592188247880846, 0.39317241215239396, 0.7615651844234166, 0.2808098340742144, -0.055729489171498434, 0.4350742104748943, 0.5792780182182369, -1.5694600832762098, 0.02297985241454211, 0.9536146920694444, -0.9343031885679266, 0.15457323627448674, 1.2414678450517065, -2.3191554469096305, 0.0008716601213884061, -2.027841366824208, -2.4393328023331287, -1.0191847021354643, 6.8891057346364635, 6.84113730795512, -1.6320835221893448, -2.339741480539279, -3.2236675548218288, 0.6214034988995149, 1.176162949579166, 1.4454477301348614, -1.0161041230164594, -2.306940461187531, -1.63649701092814, -5.014044984360709, 0.2415857702920615, 2.125208919083124, -0.5060609765371095, 6.084138780080426, 6.706278487205223, -0.7938587704810961, 6.954529807503359, 7.524591033378468, 1.3604543782336431, 2.6788247314310243, 1.1256267893333112, 0.3742238032877024, 1.7259639931264135, 2.004717107474311, -5.280627499952051, 0.4959164096851498, 3.589271663561599, -3.4176085781319663, 0.5903691632724367, 4.604616607227393, 0.09749775391856319, -0.008030197210381677, -1.1131573041649536, 5.117795025161179, -2.500591673345292, -8.464227527810532, -0.08739834750377479, 0.0014951155891313062, 1.1263102559969635, -5.113258974230474, 2.4998047542910364, 8.462002672176366]
27 Performance: 1.00000000 1.000 1.000
[-0.22529512504939722, 0.0028190920125248514, -0.25589903511555195, -0.23966255774007308, -0.21152253806360866, 0.07113114261295302, 0.0681477246183503, -0.2588770435163434, -0.25779956815337673, -0.2728675069531302, -0.12491423946450618, -0.17608271979444245, -0.16488341521690253, -0.25419632753204263, -0.2533691669638837, -0.2669692805629327, -0.25037947603402444, -0.06203338214575412, 0.013669839744045674, -0.19743993533865126, 0.08330961156322783, 0.05483665886635744, -0.24119258204424712, 0.07865461527208047, 0.06770467690589319, -0.11889118505521601, -0.15721744631553758, -0.17485592595301921, -0.17896991849517113, -0.10571285957708772, -0.09921978304040328, -0.25427561920059355, -0.07169112377132816, 0.022816759946302684, -0.24434877980359326, -0.06448442521150803, 0.03743341290757212, -0.3763238167577079, -0.00827947416693579, -0.3606862779126028, -0.4030157782877284, -0.19433575052568922, 0.87421850358274, 0.8466305170071793, -0.2987093963298112, -0.4224413231791382, -0.49464255925921097, 0.008860331511999414, 0.08453399158199004, 0.1207150408647376, -0.22141491626613866, -0.3724479752582116, -0.30072755173762367, -0.7011319751435786, 0.02326241058924375, 0.22754486272634586, -0.11229338389684564, 0.7994561883449969, 0.8467437333161795, -0.24237586863106628, 0.9013895388773151, 0.973981015493551, 0.1462756010175215, 0.2815930465232205, 0.076052788798611, -0.09208316797097013, 0.17098422347078646, 0.24301535192642124, -0.7542897112816349, 0.0021015299475518594, 0.4299394950185281, -0.49121734064032424, 0.0587742913007048, 0.5681189984069184, 0.3498967034249393, -0.00025395831199092646, 0.3071476685516188, 0.33777224250800003, 0.30394594121443946, 0.1353134752510652, 0.1431369815288109, 0.31829395094179486, 0.32563972372161687, 0.3068132108588365, 0.26176824747836697, 0.3141419378398871, 0.3185665735719703, 0.31343140646279305, 0.31006236888488165, 0.2923939640655369, 0.21539772761641793, 0.09992239765905864, 0.06712948915778255, 0.3202255578726906, 0.1480914428373104, 0.15696849985377925, 0.3053182659730624, 0.15717836544961916, 0.21083957648194057, 0.22786552548152653, 0.2845532891176041, 0.31544432601148203, 0.2546058762259618, 0.2740651964858298, 0.2593288422143644, 0.20157616547101115, 0.09516495885222331, 0.054330430154858, 0.24999387627143935, 0.14714574826039345, 0.08785976751702423, -0.7275907993658509, -0.00011054281484139221, -0.621971125721207, -0.8132321458213811, -0.2773864347394785, 1.935338448368159, 1.8825337155382187, -0.5132273515893013, -0.7972641022725272, -0.9347352310171095, 0.10932221928304482, 0.33068578759809725, 0.3913480250454661, -0.3038378140232416, -0.7111114521248736, -0.5287310612792667, -1.4379413961565388, 0.09121877966113327, 0.5101436944191953, -0.1494869317277074, 1.7034887814962145, 1.8320719436036441, -0.35691845064300437, 1.9835171766233173, 2.1700257710158293, 0.39693494859942297, 0.7700781536563893, 0.28458797228313454, -0.04931791421988285, 0.4353988214239549, 0.5824662598733535, -1.5724927277511154, 0.026956331124537377, 0.9676265591359787, -0.9327896800762138, 0.1545763369957075, 1.2477315620710754, -2.3215894006130484, 0.0008716601213884061, -2.0362956145768147, -2.467429040250234, -1.018766666856996, 6.914075097947967, 6.8680021192700895, -1.6318973771047334, -2.351182716623, -3.2547439498680992, 0.621998649979345, 1.1850988894160226, 1.4537371017487233, -1.0131171773891006, -2.327153494317229, -1.6232331864306802, -5.063606537697797, 0.2246723533598357, 2.1259424563288665, -0.4950615049454842, 6.098179611361508, 6.724016613745882, -0.7945280707747338, 6.971531810132277, 7.5504797646406, 1.3691184801551586, 2.7020212558350565, 1.1337315777230874, 0.3966722933564846, 1.7182482799745484, 2.0071636308139995, -5.288918692982621, 0.5078018139392968, 3.635726430415199, -3.4107011911775404, 0.5859013684160888, 4.619290012958177, 0.09739185793001387, -0.008030197210381677, -1.1179667700810831, 5.157491900361982, -2.516930669893483, -8.531465076943222, -0.08729066538137441, 0.0014951155891313062, 1.131131603551475, -5.152902825817969, 2.5161618223742583, 8.529275151988525]
28 Performance: 1.00000000 1.000 1.000
[-0.22528061736141675, 0.0028190920125248514, -0.25589605118360703, -0.23961611620414425, -0.21153125964879727, 0.0710539625222346, 0.06808151121025881, -0.2588612580255114, -0.2577631056975068, -0.27282075703433806, -0.12491564143133574, -0.17609506527613178, -0.1649078510207378, -0.2541927018960391, -0.2533421842391546, -0.26699139847633446, -0.25028446978311963, -0.062003365901567055, 0.01365557144848213, -0.19744766839170805, 0.08325810255451015, 0.05478473032770138, -0.24118970707735765, 0.07859736447271579, 0.0676346587495, -0.1189109796840839, -0.15726836237699546, -0.17488191045196425, -0.1789978649337477, -0.10570756148295245, -0.09924376984484759, -0.2542350689375067, -0.07170251765378072, 0.022743206869213658, -0.24434967396161494, -0.06447701089411406, 0.03739020703037694, -0.3780097602826666, -0.00827947416693579, -0.3616045820614247, -0.40663763910870465, -0.1942023753938159, 0.8789857378758646, 0.8504925812518119, -0.30044131717278727, -0.4254156080774063, -0.4982280851269683, 0.008647668220357656, 0.08472312160203695, 0.12171441415531273, -0.22227877732222256, -0.3747609813147635, -0.3000216028513621, -0.7077597341360725, 0.021024916146082363, 0.22833182388336612, -0.11211290630140906, 0.8024545595680231, 0.8497877948153982, -0.24314920922381916, 0.9048746877197122, 0.978140571737569, 0.14695966095388682, 0.284334924513483, 0.07702773754503858, -0.0905704064455458, 0.17017943190430726, 0.2439733828091887, -0.7572370725821888, 0.0026689897038374194, 0.4346170517065137, -0.4916641528364123, 0.05791150834161224, 0.570660630331451, 0.35006647491507176, -0.00025395831199092646, 0.30721709281527754, 0.338238940917351, 0.3039143227912012, 0.13463873896942075, 0.14254268326916597, 0.318472216641459, 0.3260082875133691, 0.30729131872537113, 0.2617894624595898, 0.3140583420081603, 0.318381874200971, 0.3135035046354873, 0.31035951835315617, 0.29223350066494447, 0.21627807785682704, 0.10019613761874732, 0.06701011124477814, 0.3201945549538247, 0.14762640601853452, 0.15650820951599906, 0.30538472033605946, 0.156678532696711, 0.21022300908799674, 0.22770887688108704, 0.2841335184639611, 0.31524776853816505, 0.25439601354609487, 0.2741459967048509, 0.25913978385391084, 0.20197467710026495, 0.09507373411689268, 0.05366946522270957, 0.2500188416097721, 0.14722028756028704, 0.08746981965493426, -0.7303545408077118, -0.00011054281484139221, -0.622501835516699, -0.821510330032743, -0.27497758273725176, 1.9492549917640356, 1.8938224140045068, -0.5161465261720787, -0.8036410923927569, -0.9429257279750398, 0.11020147434306521, 0.33303650167273285, 0.39604948456856953, -0.30414007287111017, -0.7156177331603962, -0.5246567245980678, -1.455298382689594, 0.08533841594775934, 0.5125924899193237, -0.146793968029004, 1.712222335014224, 1.8410636628870318, -0.3569120951487167, 1.9938049857063924, 2.182553638159328, 0.4001890263221491, 0.7798383660132094, 0.289172610647582, -0.04312753997343573, 0.43447063455505125, 0.5865014474795459, -1.579103336519121, 0.029322544602455293, 0.9813892691827594, -0.932141376768629, 0.15280659915575256, 1.2552148016534888, -2.3288538686650355, 0.0008716601213884061, -2.0373687760743837, -2.4953199057309603, -1.0124810602785212, 6.953885073174583, 6.896300710029942, -1.6437369543175266, -2.373125331228043, -3.284215381615931, 0.6231692346325038, 1.188338139463072, 1.4659749694968311, -1.0130760380874433, -2.3423106311206228, -1.610061833426916, -5.122970032302018, 0.20181018005301582, 2.1302468641624297, -0.48543917252680235, 6.116478322407926, 6.746147732985953, -0.7936892005433311, 6.998451455025548, 7.584574277065761, 1.3768812173126346, 2.7328947906355503, 1.146961245796681, 0.4228415320188121, 1.7088735264071033, 2.0156712532488217, -5.307250342586696, 0.5160669907957297, 3.6829546872313594, -3.404765403291426, 0.5759938344608692, 4.6399251189098525, 0.09703849839550534, -0.008030197210381677, -1.1239309327776132, 5.198613307723446, -2.53461875418132, -8.60209150924277, -0.08693617505156785, 0.0014951155891313062, 1.1371030568300882, -5.193989519872086, 2.5338610047290286, 8.599924042837955]
29 Performance: 1.00000000 1.000 1.000
