weights len: 197
* * * * * * * * *
Parameters => Epochs: 100, Learning Rate: 1.000000
Type of network used: HiddenNetwork
Input Nodes: 36, Hidden Nodes: 5, Output Nodes: 2
* * * * * * * * *
1 Performance: 0.50000000 0.500 0.378
2 Performance: 0.50301205 0.500 0.387
3 Performance: 0.50301205 0.500 0.380
4 Performance: 0.50000000 0.500 0.622
5 Performance: 0.50301205 0.500 0.399
[0.20294515782708716, 0.008096229556149215, 0.11511108763573019, 0.15625931560981282, 0.18348407883841517, 0.6653290016157518, 0.6692461381889142, 0.11819037452748411, 0.09277575392549146, 0.07579373049996745, 0.2805969162964686, 0.34777675717893963, 0.35963702740484793, 0.1279784851408405, 0.12526423331691858, 0.08141130659952292, -0.2080214323099184, 0.1169996283123186, 0.2296417519928666, 0.2173745363687281, 0.6534928398249926, 0.6322427819239523, 0.1560732987132163, 0.7014417564721968, 0.7776377066284624, 0.3489878328062682, 0.40818209980231224, 0.39071265106096137, 0.1675912425792421, 0.42211572605409087, 0.42789148681177264, -0.22841192285465997, 0.0933941060691444, 0.28969904208672426, -0.08362097221565457, 0.2252174206353917, 0.38627012120302323, -0.7886633344914348, 0.002588860058585765, -0.9123410419208756, -0.9424431734844873, -0.7024004863421093, 2.053637929283658, 2.0321233113177124, -0.8907148692688953, -1.0643512054601811, -1.0671137059320133, 0.04840530760725675, 0.06955915157855598, 0.14830642965275126, -0.8977589513490665, -0.9061337287469141, -1.1466257715481476, -1.7542202064023134, 0.10288260906307384, 0.6953893112705261, -0.521872782924299, 2.0427429624945614, 1.8723796992634962, -0.8134522047826345, 2.165888352341362, 2.1895947399728026, 0.2242551276207391, 0.2403647489811073, 0.0707167421823631, -0.4017015641132589, 0.5309934962384959, 0.5693482729211643, -1.9102442181654447, -0.15412411290886888, 0.8616211911620459, -1.669311768823379, 0.2654505623518881, 1.1748953498696415, -0.5281721716795709, 0.00788142695346158, -0.5817470932523442, -0.5960530957353333, -0.4645221495837337, 0.8125082860552141, 0.7834821288472315, -0.5876215526223982, -0.646331503455917, -0.673428314675006, -0.13940856812859947, -0.18281571801500074, -0.14945306762464533, -0.5877191979199676, -0.5963197836297289, -0.7101996728367694, -0.9100776070046646, -0.045199616856488996, 0.2649292154397297, -0.42640580669645856, 0.8150660178683892, 0.7139992158117049, -0.5391676228469163, 0.8124219733177698, 0.8218297429202516, -0.04066532675631615, -0.11270289080985095, -0.16179757790711566, -0.3360596664210659, 0.06019688225191628, 0.086975334453701, -0.9652032932914256, -0.13182536643496703, 0.3047630393572042, -0.8534126597934415, -0.011074827887806048, 0.437082242495124, -0.5612569071762852, -0.0031553251225423587, -0.6579961353209957, -0.6469071481260973, -0.49850788906843546, 1.0824350219960064, 1.0756515446403558, -0.6622171450672796, -0.7275357915468615, -0.7522317701218316, -0.0982366775591188, -0.10630001162363276, -0.09883162758569138, -0.6822886599079888, -0.6301712390984606, -0.7695330093881273, -1.0757866554375806, -0.04059310333617177, 0.3518354402796929, -0.41829612822625206, 1.1054861802604272, 0.9907917431767582, -0.5964697408506114, 1.123281024000369, 1.1537823301025907, -0.009621525318405457, -0.019444634409402195, -0.10059470167623512, -0.3598755060464811, 0.16941586042679338, 0.21595893606936173, -1.1836688126943251, -0.15643443513680638, 0.4319124432334402, -1.0439726827971616, 0.08667127529488283, 0.6126841666226767, -0.4039908291497874, 0.007304894451601722, -0.4349927497485941, -0.4218884791663046, -0.3504063888638936, 0.4916996952643155, 0.46988505201598313, -0.4355802599632513, -0.4806326760456308, -0.5003060595525252, -0.14671732414609615, -0.20174834640359718, -0.17480692610349347, -0.4504303800886868, -0.44089157027136755, -0.5063862620505262, -0.6229669063604237, -0.07397138275682631, 0.13880279572057572, -0.3473698052705381, 0.5081316815955023, 0.4491684009864364, -0.4334765326751228, 0.5020432491595351, 0.4948327935949918, -0.07605552733178053, -0.130138604766652, -0.16974037291171382, -0.2792041530888681, -0.022884454578634257, -0.008031609582496907, -0.6529133493688578, -0.10928887208240667, 0.17773571051412704, -0.5988043789854126, -0.03673914373594104, 0.24830668061344147, 2.619947174318466, -0.005565157569699087, -2.41092997933833, -0.7089110984317802, -1.205956099810317, 0.5141293825479272, -2.607483566391898, -0.00601253793721057, 2.428126427680664, 0.7323412487729587, 1.228085705461073, -0.4873212104024185]
6 Performance: 0.50301205 0.500 0.428
[0.2627223534769517, 0.008096229556149215, 0.174064936718291, 0.21532053609004861, 0.23727927695051398, 0.6562215898639172, 0.6598721021292631, 0.1768258201128868, 0.15261657878598928, 0.13723958748623874, 0.3182496016831487, 0.3933530929209636, 0.40481109903705276, 0.18880374413142592, 0.18474196025169876, 0.14354263585659938, -0.15388806333853378, 0.13335343290204532, 0.22926681879387822, 0.27205606700558344, 0.6443380897883828, 0.6267744163999428, 0.21536043693974322, 0.6923886390341293, 0.7758759280439054, 0.3824631116731834, 0.4516619450443478, 0.4360561489405231, 0.2118247678960301, 0.4531851097598384, 0.4596354053663801, -0.16826808540591648, 0.11197838460969206, 0.28908037237244477, -0.023927596008903512, 0.24261231954454868, 0.3829311048216703, -0.858111240217926, 0.002588860058585765, -1.0317617920742272, -0.9469238247480115, -0.7535062642589456, 3.0478119257623772, 3.159241516029013, -0.950700765443334, -1.1390296377711124, -1.1561698572705805, 0.21625571866412638, 0.3814955368993214, 0.47925843800952656, -1.0053228708029445, -0.9540021936018808, -1.3480572487679747, -2.2499577633075063, 0.19850240365208324, 1.085040079434368, -0.5459648781130564, 3.0142437166386493, 2.849031594080453, -0.9174502748408113, 3.2488815673257974, 3.259019892076211, 0.5499013582931914, 0.642378886658774, 0.4047859872223987, -0.3581501358643314, 1.0214706452370421, 1.000641094544696, -2.4894830921624442, -0.07740024770971234, 1.3154941840582384, -2.1171926489428747, 0.5568638039616188, 1.8243090478039903, -0.4869497528765887, 0.00788142695346158, -0.5404685388164508, -0.5541918628161179, -0.42591482656803353, 0.8347233306252462, 0.8082279816113439, -0.546277222305077, -0.6052396479883688, -0.6321547192482878, -0.10814289460615087, -0.14055239627394958, -0.10668835656156972, -0.5469554443492056, -0.5548114845578008, -0.6692410572859372, -0.8848729387992592, -0.03096157018766693, 0.2762269059131453, -0.3879721862192156, 0.8371986252052328, 0.738318119004277, -0.4977224397790084, 0.8363879351321655, 0.8514677756885136, -0.008578710783494441, -0.06981733454303185, -0.11937227738007031, -0.3043995069407866, 0.09652951673295251, 0.12278131463659586, -0.9406907129033214, -0.11790402259859373, 0.31614313409238076, -0.8239955740466207, 0.008719585225013548, 0.4524711082866092, -0.43938742722385654, -0.0031553251225423587, -0.5386013693426329, -0.5280372083360104, -0.38495875176922023, 1.326367488444419, 1.334682089583151, -0.5512867551277901, -0.6293899381431449, -0.6461232480082466, 0.05606353878856929, 0.0926494335893118, 0.1020632650562628, -0.5667718364998852, -0.5149724642300264, -0.6732272648937349, -1.081626766667842, 0.04636495715554519, 0.4480346558875147, -0.27233829872135606, 1.3398370269514506, 1.237403958357402, -0.4773921427962089, 1.3934992244025561, 1.4401033742263072, 0.14593575554343455, 0.18752972213895122, 0.0902188494090148, -0.24555240959812916, 0.36275369122163825, 0.41644015933983375, -1.2087418766162759, -0.10557425423604139, 0.5576500114696928, -1.034969704880359, 0.19905547964380402, 0.7696157102793256, -0.4281819106130739, 0.007304894451601722, -0.45941628640153487, -0.44653383487494336, -0.3732189322609489, 0.4777083694706063, 0.4543368704485636, -0.4600401631371066, -0.5049274340658305, -0.5246277481299748, -0.1650730678778348, -0.22686509151570483, -0.20034826531732927, -0.4744026749861922, -0.46535363068365176, -0.5305117522233529, -0.6375622735757042, -0.08231063586416225, 0.13171964703660283, -0.3698016360727681, 0.4942121862689422, 0.4340961916317854, -0.4579284147076281, 0.48710200885419175, 0.476503487862847, -0.09509983558769058, -0.15577995269615622, -0.19507991442613515, -0.29777717017194505, -0.044771685767670794, -0.029348971504602115, -0.6666394378094337, -0.11742092523703897, 0.17077368445744623, -0.6157107927745032, -0.048558250007018404, 0.23880366811361953, 3.323138194288051, -0.005565157569699087, -3.7964199874116096, -0.38278407471756304, -1.1473537981151103, 0.8395806304945753, -3.3111513873838208, -0.00601253793721057, 3.8014590392645884, 0.4078199017304715, 1.1686729129125168, -0.8111510664041468]
7 Performance: 0.54066265 0.550 0.611
[0.2848572456706281, 0.008096229556149215, 0.19633715285082234, 0.2372259394413209, 0.25700235566825697, 0.6545322685365704, 0.6588213645775749, 0.19831844403321072, 0.17425654475873956, 0.15985838872473787, 0.3321256017879022, 0.41112497585853547, 0.422692638839803, 0.21064306923576329, 0.20632953281101177, 0.1659870547024562, -0.13568694345689028, 0.1388832297908315, 0.22989907301433868, 0.29213010889043295, 0.6438363824620746, 0.6265641730216349, 0.23706689757687108, 0.6908725402671032, 0.7771398928137314, 0.39473396230230406, 0.46765891435768564, 0.4538927397542566, 0.22757125614631696, 0.46541092286334607, 0.47238371593453765, -0.14790005127379785, 0.1184257468415756, 0.28933455379682876, -0.00297528268047146, 0.24955109177280865, 0.3830890339439238, -0.9706083007125298, 0.002588860058585765, -1.1622801233207603, -1.0384500575377422, -0.7980828083445873, 3.6163284837087075, 3.7370547484259333, -1.0483014866797806, -1.1921732347248035, -1.3059051378449864, 0.2650128374514615, 0.4860557102114702, 0.5596373837598521, -1.053202355362932, -1.0215084699218122, -1.4738282485544203, -2.483273897415706, 0.26243210941126194, 1.2999970488347443, -0.5782139680243383, 3.4461216359363895, 3.3659407481626187, -0.971403719669869, 3.8164466214715853, 3.8214199621579974, 0.7016952857412084, 0.8707311911569913, 0.5107191401185406, -0.29770306871295055, 1.254721677803667, 1.1965243873047842, -2.8266394678887456, -0.045032433450257224, 1.5577026599911004, -2.4096933707961794, 0.6727479296095134, 2.1287585764547696, -0.4703454743887072, 0.00788142695346158, -0.5237946431081918, -0.5373494228983564, -0.41011042151341204, 0.843641295939382, 0.8179125195855258, -0.5295610566766458, -0.588490296422842, -0.6155262732033642, -0.09542486434867742, -0.12363501913194999, -0.08961846418873123, -0.5302118369622125, -0.5379436561726726, -0.6524994897996331, -0.8740292870979742, -0.02503132340233795, 0.2805139980073596, -0.372331715206942, 0.8453966350421294, 0.7477974225994894, -0.4809187413252803, 0.8460230632902472, 0.8634042247299875, 0.004402885893546476, -0.052210476980088995, -0.10239453782592373, -0.2914958240395867, 0.11111230936145279, 0.1371908205688928, -0.930504831834384, -0.11223301649402685, 0.32063303319696207, -0.8119019481673068, 0.016602188277070263, 0.4583015550831435, -0.4737541472259929, -0.0031553251225423587, -0.5760744407686578, -0.5589489466191584, -0.3817393576599416, 1.6004270028199499, 1.6187948086207846, -0.578136749943356, -0.6482843371163124, -0.690179908670762, 0.10321285762047193, 0.16678436980198086, 0.1781287730507896, -0.5774074621350291, -0.5281815672911877, -0.7184047409955489, -1.180825299861176, 0.08907248448747458, 0.5344261634313706, -0.27881585433292216, 1.5534369048040204, 1.487412215443195, -0.5020634391561555, 1.69190824983011, 1.730893227822913, 0.22877261347380567, 0.32110354498905563, 0.17310137424759925, -0.22320908392101838, 0.4812744896069068, 0.531999374306292, -1.37430596068683, -0.0930876545615544, 0.6812408373093358, -1.1474317867317039, 0.25824329083022096, 0.921196922860164, -0.4410082460043423, 0.007304894451601722, -0.47230618620453146, -0.45961361297162734, -0.3854730487240005, 0.4700697376255089, 0.4460995906297761, -0.47306612672027065, -0.5179072361525259, -0.5374667974286107, -0.1750053669878222, -0.2401518676976723, -0.2137661956423814, -0.48733613697922823, -0.47840649961841575, -0.5434895820385718, -0.645721330930149, -0.08695097222276071, 0.1280253061993947, -0.38182231458764404, 0.48717115539539546, 0.426102608778741, -0.4709866103669153, 0.47893517157479687, 0.4665245828447396, -0.10537261943750453, -0.16974377614121236, -0.2083532284964908, -0.30774822302925653, -0.05642246758777889, -0.040680392867460176, -0.6740850750821076, -0.12182631578126095, 0.16704450348260383, -0.6246398713023422, -0.05481968765884045, 0.2339356324918684, 3.6315024139467074, -0.005565157569699087, -4.832119737198666, -0.09866768960839546, -1.5652818580880523, 1.137281139995893, -3.6197909953384113, -0.00601253793721057, 4.8318594866787645, 0.12523810804981447, 1.585204011499586, -1.107285984516931]
8 Performance: 0.88253012 0.863 0.656
[0.29451711177702716, 0.008096229556149215, 0.20624521987567393, 0.24697442456844867, 0.26569603750373383, 0.6533014512947997, 0.6579216433151882, 0.2078630472462105, 0.18395238392315005, 0.16968752608701396, 0.33792458359394717, 0.41879364740406966, 0.43012983345570927, 0.2200342525827357, 0.21614452771673517, 0.1757422205686131, -0.12730150871113644, 0.14141052005495688, 0.23045127407729363, 0.30088680641445426, 0.6434939644920008, 0.6260594644359113, 0.246604714987613, 0.6899310268125274, 0.7771458378044315, 0.40016843634419524, 0.47414340530930055, 0.4615669716409456, 0.23407729233403843, 0.4706750044464918, 0.47765902768585755, -0.13914849914571015, 0.12094692043911338, 0.2890515929350702, 0.005759435134742447, 0.252946954578376, 0.3830188809950078, -1.031719591930668, 0.002588860058585765, -1.2602907570887536, -1.098192402247307, -0.8310882855767098, 3.9660422216573483, 4.079872408820201, -1.1215804449415996, -1.2420278638891915, -1.3771574338813173, 0.3144733568002376, 0.5304619113410344, 0.632846266061448, -1.080878652875481, -1.1159248981545138, -1.528256642356902, -2.662283927016058, 0.2593672567372159, 1.3848024793016083, -0.6081330634699732, 3.681071749073409, 3.67522682837992, -0.9997872570674675, 4.123533832556063, 4.153788928078161, 0.7504274138408251, 1.0275692762288875, 0.5685997734469981, -0.2239439464610994, 1.3882115320585344, 1.3005745059072964, -2.967524717186032, 0.004034255506159518, 1.7282613973079397, -2.5264775267584736, 0.6739647475343657, 2.2844982391996975, -0.46557708197348036, 0.00788142695346158, -0.5190569833098291, -0.5326167752449382, -0.4056213600545167, 0.8461393203996828, 0.8205968648553958, -0.5248205938490226, -0.5837708405121173, -0.6107310682309929, -0.09181501595048805, -0.11879618683179975, -0.08468362881579436, -0.5253881597278882, -0.5332613707490492, -0.647687538237717, -0.8709791564756296, -0.02335693010159928, 0.2815858899621336, -0.36783707522185055, 0.8476456453979219, 0.7504737911953497, -0.476122920405401, 0.8486854580881257, 0.8667905086939619, 0.008094164300051372, -0.04707560000351945, -0.09754261672414515, -0.2877149297127496, 0.11528764093712, 0.14131981488859102, -0.9274589882740154, -0.11061620636566208, 0.3219283648417024, -0.80825098274704, 0.01877726865345716, 0.45992166198366363, -0.5009547916969969, -0.0031553251225423587, -0.6070491726610084, -0.5853349735040959, -0.38279383421520086, 1.7848663232538375, 1.800606636333091, -0.6029164803979459, -0.6741616918172915, -0.7204135131839511, 0.1365987612172362, 0.20575421766327848, 0.2325495707790482, -0.583217915632896, -0.5595751061905269, -0.7465325605733892, -1.2582143880939984, 0.10496567373470012, 0.5690885492448317, -0.28663804400620596, 1.6823856745961632, 1.6459229954120018, -0.5157453833450993, 1.8803088924206335, 1.9246395817907986, 0.2706358622362463, 0.4165920026311058, 0.22003136211566407, -0.19940709889809688, 0.5525238203811846, 0.6078814733090603, -1.4724235508853167, -0.08387756372583928, 0.7671714256729368, -1.2031551353261862, 0.2712482606022432, 1.0103994348867125, -0.44975370189298663, 0.007304894451601722, -0.48088876892491794, -0.4683551918930523, -0.3937025741018237, 0.4648958558458032, 0.4405383679557241, -0.48178546905596475, -0.5266175884516893, -0.5462803256244348, -0.18175129633940654, -0.2491200492250719, -0.22294510735845616, -0.49612579025232373, -0.4869946165926611, -0.5523637823808316, -0.6510621191896515, -0.09005750546898428, 0.1257702619949619, -0.3898985387903775, 0.48255319784714024, 0.42066077372492416, -0.4797411367514828, 0.47350503804021643, 0.45974159089472844, -0.11221513202780176, -0.1793315286847475, -0.2173788024517662, -0.31467961923117693, -0.06433722793485003, -0.048457217757189704, -0.6794549360470278, -0.12497580535159734, 0.16441146943080964, -0.63106729888853, -0.05884342385062545, 0.23070468449499723, 3.8786437794755244, -0.005565157569699087, -5.250937273104039, 0.1950490868105463, -1.790746979576508, 1.4429898709755782, -3.867715268207112, -0.00601253793721057, 5.247965461988487, -0.16804023212060415, 1.809328260171016, -1.4125302432939923]
9 Performance: 0.96084337 0.963 0.675
[0.29992487304714016, 0.008096229556149215, 0.2118219345731619, 0.2526258853750683, 0.2705327046280524, 0.6520452690368218, 0.6570082398178307, 0.2133281594420167, 0.18956770846344934, 0.17522516032245342, 0.3409218709195004, 0.4229456612711641, 0.4340636293356517, 0.2250469040090834, 0.221751517351071, 0.18118068532366963, -0.12225434196419306, 0.14275378000393965, 0.23063726961000863, 0.3054853974869487, 0.6429634210589327, 0.625329284172523, 0.25186319178451805, 0.6888294203257188, 0.7765094665468651, 0.40300131039534165, 0.47722007698730906, 0.4655764779924405, 0.23752405780660515, 0.4733971932893212, 0.48019871500620187, -0.1340715778576973, 0.12226946141348974, 0.28862962054138885, 0.01057883120809555, 0.2548689592807097, 0.38263491498479435, -1.082504718704513, 0.002588860058585765, -1.3333345895651973, -1.1597440570449251, -0.8547820611296996, 4.217649900778007, 4.301221269669516, -1.1961707197593021, -1.297399627303022, -1.437951503559194, 0.3635903612051836, 0.547581992268937, 0.6752464439255222, -1.0844208532576427, -1.19648153389108, -1.5671296961628192, -2.813581472165647, 0.2491088782955478, 1.446243775430149, -0.596138427927205, 3.83570075643794, 3.8842393470154954, -1.0065020742165474, 4.340002646071752, 4.387431155909781, 0.7759328616521111, 1.1526039918074709, 0.6212728799375827, -0.16127573871291634, 1.4739053170297254, 1.3841880666896058, -3.063492581064215, 0.03994215502312784, 1.850246715440584, -2.595860397449702, 0.6560448098469456, 2.3953854567915793, -0.4672229320934131, 0.00788142695346158, -0.5206353917502249, -0.5342532819422005, -0.40713208064223755, 0.8452255693984512, 0.8196233182674826, -0.5264373058579201, -0.5854039365265649, -0.6123865597818551, -0.09306368406945452, -0.12040922340365531, -0.08633107911551481, -0.5270164017641908, -0.5348687248736068, -0.6493592498532842, -0.8719693514802257, -0.023927543315953186, 0.28114750478425954, -0.36931681257506443, 0.8468311970638783, 0.7495225887266127, -0.47773841185472793, 0.8477376244571839, 0.8656122362594201, 0.006871116369014232, -0.04877902316856242, -0.09919505748821283, -0.28897598369877847, 0.11384251148803959, 0.13988440015151396, -0.9285118353599671, -0.11124345353397307, 0.32147414623740883, -0.8094551210685472, 0.018053849104194237, 0.4593528524346259, -0.5247063491844561, -0.0031553251225423587, -0.6356173945281935, -0.616564285489413, -0.3870647616724013, 1.9324838781929234, 1.9350883799593164, -0.6323550661928844, -0.7054298818124097, -0.7493853502418618, 0.16697213126085478, 0.22803037059064032, 0.26946693908207164, -0.5810088384996753, -0.5912743509512269, -0.7712233759675058, -1.3274975598568075, 0.11567040558974984, 0.5942355132482666, -0.28173651577536596, 1.7759565554683046, 1.7664506632747587, -0.5270563877846002, 2.030020596803316, 2.0785775200709016, 0.2993049125182379, 0.4975371640723548, 0.2579742719687761, -0.1775415324441846, 0.607572062128727, 0.6760824117955008, -1.5457400079638304, -0.07510042641533453, 0.8341689003888215, -1.239739273581645, 0.2751998990250331, 1.0830836784192106, -0.4572772148859177, 0.007304894451601722, -0.4882569887982005, -0.4757415483741764, -0.40071892488950644, 0.46055039032822737, 0.4359691447210171, -0.48920062952322546, -0.5340112812201528, -0.553826549256094, -0.187538665319303, -0.25676606264574986, -0.23076599083801494, -0.5037512859904718, -0.4943136604810693, -0.5599848419525513, -0.6556048784833206, -0.0927387552848107, 0.12390204650488136, -0.3969725499786777, 0.47872144105923886, 0.4161003344327165, -0.4872848013339828, 0.4689441559617182, 0.4540150699067161, -0.11808283249898961, -0.18761056570506782, -0.22514809866695848, -0.3206773351469668, -0.0710900625225821, -0.055199676498257945, -0.684153313977528, -0.1276851684317555, 0.16220779342635522, -0.6367596939484089, -0.06224533993582533, 0.22794227012415236, 4.067039141254621, -0.005565157569699087, -5.471198923643983, 0.48598983418037406, -1.9388883143222968, 1.7439561354075026, -4.057108030762367, -0.00601253793721057, 5.465705339109867, -0.4603604721621132, 1.9556418779714175, -1.7148643616833268]
10 Performance: 0.97439759 0.981 0.683
[0.30406912474736364, 0.008096229556149215, 0.21606481948149903, 0.25721690712848055, 0.2741289829051485, 0.65072388313337, 0.656056725679828, 0.21745329631944585, 0.19387814011273527, 0.17970178375787108, 0.34281697025636426, 0.42582299782038674, 0.43681881939727807, 0.22866683646166586, 0.22613939198556152, 0.18532711890374917, -0.1183609957807408, 0.14360474422726643, 0.23066233195530367, 0.30864985481765644, 0.6422286564710071, 0.6242050603139674, 0.255763172439407, 0.6873148435710997, 0.7755692200584641, 0.4049836194928964, 0.4791398926223593, 0.468282278930978, 0.2400167315550024, 0.4752992708236047, 0.48199053275016296, -0.12979356833219127, 0.1235070553495865, 0.28805673070203724, 0.014485399708771217, 0.25612494884810877, 0.38204483228681535, -1.1419488262722182, 0.002588860058585765, -1.4070244700389687, -1.2618933980578093, -0.8769535306665694, 4.451021623529605, 4.498000755464755, -1.2721463379404225, -1.3612450317748983, -1.5447167351654172, 0.4383861374185271, 0.5803307849404108, 0.7219915108028524, -1.074441052682108, -1.2903831498809983, -1.6197010761522614, -2.9462286898279553, 0.2539946526329544, 1.5099594531096439, -0.539577520238681, 3.9933916785071952, 4.12650374422772, -1.017123792419809, 4.594060405000867, 4.617431618756598, 0.7935827022887211, 1.2843885160528514, 0.6931535726340134, -0.10874010257376232, 1.5472349973462507, 1.4506431770799881, -3.2015388896161303, 0.04320511970099189, 1.9790793607677402, -2.7035972780696684, 0.6620328869775329, 2.5201275951163233, -0.47341090760113635, 0.00788142695346158, -0.526694457808114, -0.5402713767445074, -0.4128507250756278, 0.8420580146028397, 0.8162704820192923, -0.5324968031819759, -0.5914852200536905, -0.6184767726968249, -0.09772400880465729, -0.12657331141985087, -0.09256116964326422, -0.5332305740501599, -0.5409038034370285, -0.6555534655341805, -0.8758893595973348, -0.02609640635692463, 0.2796718812238782, -0.37513172173875337, 0.843980874551849, 0.7460708064293289, -0.48391564269646903, 0.844293767506346, 0.8613098362877969, 0.0021933260770436174, -0.055329667583647976, -0.10546763432619358, -0.2938098327751433, 0.10852446218375872, 0.13457205495731944, -0.9324451952829227, -0.11341076532505849, 0.3198498573576825, -0.8141063629390197, 0.01528587143157072, 0.4572338639869224, -0.5552030839720864, -0.0031553251225423587, -0.6736255432048144, -0.671991935263802, -0.39517395844658354, 2.0746617405569308, 2.0598685869285225, -0.6679233415821865, -0.7440351428901976, -0.8033805765815178, 0.209378098959676, 0.2519909792993185, 0.30218461510025707, -0.5777788668183641, -0.6352183500378343, -0.8075318286204571, -1.39372848474494, 0.13096234470032284, 0.6219132526944101, -0.26153172547328213, 1.8685196847200658, 1.9009317639843428, -0.5448559740771871, 2.1970195158855153, 2.2315328950770144, 0.3202139107498661, 0.5787516791215114, 0.29699762714442735, -0.15891238328392354, 0.6584528178352744, 0.7354259670585395, -1.635580876055344, -0.07885010114413593, 0.9054357068160267, -1.297038763494165, 0.28842144523383456, 1.1631277884273048, -0.4651638799394019, 0.007304894451601722, -0.49600495237329767, -0.48334188020759195, -0.4080657246872279, 0.45623514618288336, 0.4314328737593948, -0.4969370702367832, -0.5417487875020288, -0.5615461301460533, -0.19360784589444902, -0.264802902681042, -0.23888999508039915, -0.511769202454262, -0.5019870592946153, -0.5678837429802689, -0.660526898554529, -0.09556928842065157, 0.12196288234104434, -0.4045386808877742, 0.47486970020547636, 0.41136770622547497, -0.495217774884338, 0.46419701042148936, 0.44815213334020754, -0.12419803138750944, -0.19627751193531806, -0.23333025244577024, -0.32694991784821525, -0.07801428991397664, -0.06214110242148584, -0.6890165720327612, -0.13043684888360643, 0.1599722978626072, -0.6426619405787, -0.06583886665707721, 0.22504096686173425, 4.194912737986815, -0.005565157569699087, -5.59533421382177, 0.754349103409288, -2.079533583540603, 2.0216226296856896, -4.185778919227149, -0.00601253793721057, 5.587332640472238, -0.731690328866677, 2.0940322035887062, -1.995505335627168]
11 Performance: 0.98343373 0.981 0.687
[0.306630268025285, 0.008096229556149215, 0.21855921465791905, 0.26001052164996313, 0.2763359788345915, 0.6493928079544905, 0.6551048396654839, 0.21994333906216512, 0.19664420915570208, 0.18234872502345062, 0.3440061546178195, 0.4274376695671308, 0.43825733887339097, 0.2307502180681603, 0.22888393475748592, 0.18775565456367402, -0.11569136055372428, 0.1441073647415698, 0.23071484575510207, 0.31058259040249203, 0.6414372407434058, 0.6232171754870699, 0.25798495086608575, 0.6860236846570381, 0.7744761803135601, 0.4060059814275166, 0.4799053854705245, 0.46970289095761975, 0.24135740015049542, 0.47621649906807406, 0.482852870724644, -0.12688132491164844, 0.1242589108396651, 0.2875484214110158, 0.016796491132935486, 0.2569506531527031, 0.38156556701789013, -1.1970954152841466, 0.002588860058585765, -1.4449951828108007, -1.322297504129515, -0.8985497445695515, 4.641963383499819, 4.637311077292388, -1.3288848253845582, -1.4235733289512154, -1.6069730368037205, 0.4686821800636808, 0.5936841038099597, 0.7585131896314449, -1.0629117002499453, -1.3660191202581564, -1.6399455192665657, -3.0720673099228604, 0.24115645162126773, 1.5353823062485314, -0.515386255295858, 4.1107035448253235, 4.281132750703247, -0.9943497295585122, 4.75817220678476, 4.787878824634609, 0.8126465769378216, 1.3914233391818644, 0.7551760373027178, -0.04845234800243251, 1.608802484241008, 1.5005688075155266, -3.3165782177749166, 0.032551895791900806, 2.0665694150331637, -2.7607656065472086, 0.6415823610424344, 2.5864994568292197, -0.4811015124056754, 0.00788142695346158, -0.5343589941558491, -0.5478073222416983, -0.41995103354288343, 0.8380743748998079, 0.8121458007092448, -0.5401118808326332, -0.5990144314460107, -0.6261427122902206, -0.1034674728530856, -0.13426850297769097, -0.10037519937699405, -0.541017526598165, -0.548388009679167, -0.6633631068203568, -0.8807146055083839, -0.02879504991397167, 0.27795220694085765, -0.3823377022366484, 0.8404150583822585, 0.7418688663057958, -0.4917459463947655, 0.8400966153224827, 0.8559587241695008, -0.0037622808375503314, -0.0635979025499527, -0.11332557114486332, -0.2999095310982598, 0.10183123961886956, 0.12793174142879393, -0.937269211861825, -0.11596208738181135, 0.3178685727986594, -0.8200306519762754, 0.011849351122681226, 0.45468122757635104, -0.5851819136214026, -0.0031553251225423587, -0.6994063203956493, -0.7131301344149221, -0.4058786982336688, 2.1989382349700555, 2.1592708583152738, -0.6971783738337156, -0.7866312625307413, -0.840253266950416, 0.22991445998941856, 0.2640159235664792, 0.32829178441618084, -0.573591857076394, -0.6758736887052734, -0.8320419184949376, -1.4593721313480947, 0.13715637190986682, 0.6304957049636335, -0.2565329640775227, 1.9409747610642656, 1.9971724151467916, -0.5528336077721099, 2.326389227407389, 2.3560800436968816, 0.3373290415057638, 0.6473876700078016, 0.3284909072426922, -0.13933427711534965, 0.7021409374518878, 0.7851266238531999, -1.7171775479872742, -0.08900917046906301, 0.9576265591211216, -1.3341200489632492, 0.28772614110766354, 1.2167519594054896, -0.47174151597367026, 0.007304894451601722, -0.502596845636027, -0.48975646828180996, -0.41418072266085115, 0.45256959971568633, 0.42767784490183786, -0.5034783355592287, -0.5481730040202284, -0.5681101046515179, -0.19860758669502604, -0.27152661654624993, -0.24573591380744983, -0.5185170528175697, -0.5083776177726728, -0.5746020149366539, -0.664559224048612, -0.09792390385973812, 0.1204546948391003, -0.41079608171733867, 0.4716246339983645, 0.40751815531352326, -0.5019843599434314, 0.46033349335075546, 0.443256076593957, -0.12942779335791688, -0.20361836424802335, -0.24021459719404772, -0.33226961012715245, -0.08387668794062222, -0.06797152235765701, -0.6930174300744715, -0.13261633440101306, 0.15814573451806424, -0.647740546687861, -0.06881015389283165, 0.222718207405087, 4.2922749640979205, -0.005565157569699087, -5.6861299849929035, 0.9894317265318169, -2.214545641882317, 2.2634624885981274, -4.283543653377502, -0.00601253793721057, 5.676083242687802, -0.9704481635332128, 2.2268550987937927, -2.2410348936232762]
12 Performance: 0.98644578 0.981 0.687
[0.30883965471970404, 0.008096229556149215, 0.22081247823059513, 0.2625547700222189, 0.27827386160902634, 0.6482602794821429, 0.6543597085595209, 0.22224368693743096, 0.19915202826570863, 0.1847317485515845, 0.3451150071598611, 0.42895734109631595, 0.439618217190695, 0.23269106483219054, 0.23128154341548016, 0.19006573808325267, -0.11337947145441668, 0.14461140180525447, 0.23078439863046257, 0.31226363418731484, 0.64091401652039, 0.6225630119028166, 0.259990698831854, 0.6850211940377566, 0.7736046860779388, 0.40693464832201637, 0.4806244458274152, 0.4711377606067622, 0.24251906597840361, 0.4770407600782023, 0.48355448219924474, -0.12457355358943699, 0.12486273402462415, 0.2870657508578158, 0.018761839754196263, 0.2576431286402488, 0.3811154380269236, -1.2299717625380202, 0.002588860058585765, -1.4839603055513884, -1.386223438634323, -0.9112860365742766, 4.816495040568407, 4.754335624102398, -1.3963345790575814, -1.4917438563900483, -1.666217021064934, 0.48991019831945687, 0.5961989250246924, 0.7837759556056696, -1.0604680951169725, -1.4325297768850056, -1.6816355802341878, -3.179567608458228, 0.2193702302983972, 1.5533660515170133, -0.48200499564916854, 4.196103630614525, 4.393900665411014, -0.9728117606932568, 4.89506941506515, 4.932288592446598, 0.8255303591474797, 1.487701646785909, 0.7851513315578363, 0.021810546526000823, 1.6735406814514258, 1.5594397935017543, -3.377759220792329, 0.030646716111192567, 2.151701943308306, -2.80030893969231, 0.634164866196623, 2.6559537023408852, -0.4889863308348633, 0.00788142695346158, -0.5421545031238195, -0.5554143205880878, -0.42719735738011094, 0.8339586366771647, 0.8079423478986267, -0.547818493373335, -0.606592719638073, -0.6339040894382153, -0.10929954047812736, -0.14207230274946828, -0.10832254457668315, -0.5489517737812952, -0.5559609112107828, -0.6712250757233821, -0.885645245475162, -0.031524506837153916, 0.27626645091212965, -0.38974745772156644, 0.8368321391221423, 0.7376498416156153, -0.49970495202089615, 0.8357866553689678, 0.850520381430703, -0.009805645899336858, -0.07204034960515904, -0.12122558604143704, -0.3061672225738715, 0.09495318010782236, 0.12109368843383081, -0.9422705558602941, -0.11854270024008982, 0.31581636143550357, -0.8260955841682295, 0.008271281666053907, 0.4520237137135209, -0.609168103201699, -0.0031553251225423587, -0.7227956864737148, -0.7504055373318352, -0.4121689425400287, 2.3173051045383053, 2.2488745863373336, -0.7293377893391371, -0.8243067679837253, -0.8740020484615668, 0.24764948134842396, 0.27118787313208603, 0.349244087382632, -0.5763619493251211, -0.7062036215632248, -0.8620305225768767, -1.514938842711291, 0.1415755901610262, 0.6389595998941219, -0.249529869793513, 2.000603102386013, 2.0770910675525998, -0.5573983361260128, 2.4416094822772667, 2.4724329919808445, 0.3550233488585276, 0.7123063638032984, 0.35382341949388935, -0.11631976127751928, 0.7467450354302341, 0.8415774904218173, -1.7759452427763922, -0.09326966649571247, 1.0092981762610809, -1.3634857838286492, 0.2903625164423426, 1.2689013234257744, -0.47734479697087256, 0.007304894451601722, -0.5081422590238825, -0.4951074768825983, -0.4193594745229624, 0.44940523185009956, 0.4244884159064553, -0.508953627912338, -0.5535187584928293, -0.573614119635785, -0.20282220250903035, -0.2771748514281286, -0.25150827476324483, -0.5242104507404579, -0.5137382584884983, -0.5801861624103207, -0.6679668772269465, -0.09989369644029146, 0.11922306504845455, -0.4161415547031164, 0.4689204551407712, 0.404315504128411, -0.5076768957492113, 0.4570314839047848, 0.43911379107534226, -0.13382501728004198, -0.20984082517115835, -0.24593139899987, -0.3368034981467921, -0.08888788526275485, -0.07297324793747469, -0.6964914710115072, -0.13446453686166832, 0.15655612917346026, -0.6520589380670821, -0.07138825062020338, 0.22069334107807098, 4.3775081811009615, -0.005565157569699087, -5.7703209066127705, 1.1855423810594987, -2.332828627953772, 2.4645564004573055, -4.368656878204987, -0.00601253793721057, 5.75905368584357, -1.1700597652134204, 2.3435374970556384, -2.445647422586741]
13 Performance: 0.98795181 0.981 0.686
[0.3112554397651729, 0.008096229556149215, 0.22318232664827392, 0.26513078762048964, 0.28034544054445665, 0.6474081054959421, 0.6539163566176165, 0.2246870048004776, 0.20172094012041103, 0.1873089382490049, 0.34637793927248306, 0.430817712057117, 0.44131525049732845, 0.23489535167224387, 0.2337366703656663, 0.1925227265157546, -0.11112857151525181, 0.14519176033982475, 0.23098709253034322, 0.314193203458089, 0.640704171579125, 0.6222464707811293, 0.2621694108103234, 0.6842848486115457, 0.7731659539143612, 0.40818064294111883, 0.48181547933508506, 0.47275934660256347, 0.24393674158615775, 0.47812964160642435, 0.4844439917316859, -0.12222228023247202, 0.1255510627929538, 0.28673110578635574, 0.02086457610343493, 0.2584373041939948, 0.3808843992873266, -1.2592836125745908, 0.002588860058585765, -1.5137774345922312, -1.4343103127486168, -0.921788117136479, 4.99722479689406, 4.872076588530385, -1.462756858456621, -1.551166747974895, -1.7270556078812842, 0.5109151476503485, 0.5893264078308225, 0.8054524797356899, -1.0623184288872582, -1.4906942841460535, -1.7210819999500466, -3.2721481553701697, 0.20471721455111688, 1.5578028175364043, -0.45264755098062065, 4.27337236626021, 4.503836058906042, -0.9483063059132434, 5.0425932695768445, 5.067156633386592, 0.8268233575010466, 1.5729419262052398, 0.8248621391385246, 0.08776414268981395, 1.7462851183694725, 1.6350751443455345, -3.4388524944560825, 0.022973919939624266, 2.234298521755802, -2.8403722548824732, 0.6351344182847771, 2.722702670689902, -0.49598463397825177, 0.00788142695346158, -0.5491541540992171, -0.5622997400771715, -0.4337099483746679, 0.8301813378655784, 0.8041304525448799, -0.554673927021599, -0.6134060061916184, -0.6407512227983525, -0.11453017292643751, -0.14891503288728464, -0.11532942257155711, -0.5559692032223892, -0.5627779618495864, -0.678232487846877, -0.8901147744314335, -0.033987063951423875, 0.2748248658322416, -0.39632110965338063, 0.8336895988970168, 0.7339058611470904, -0.5068434198438234, 0.8318114238038734, 0.8456682117774148, -0.01510728391465244, -0.07947379509059323, -0.12834143653523045, -0.31169129448696725, 0.08879678615510823, 0.11485293048038925, -0.946668426127948, -0.12080408126979414, 0.31397250356154033, -0.831454034722478, 0.005070927907311332, 0.4496529824115956, -0.6326030518866824, -0.0031553251225423587, -0.7399022889764869, -0.778475042552479, -0.4138254736006165, 2.432952203308387, 2.33328069488432, -0.7578973195148757, -0.8542091946902889, -0.9068923046661936, 0.26725260606682816, 0.27298870500620254, 0.36622141291359633, -0.5812774839172468, -0.728315069591486, -0.8879226305543079, -1.5606271363780264, 0.14676355337955507, 0.6422013350027562, -0.2444205331363404, 2.0516201080938092, 2.149680126984778, -0.559064737240825, 2.5555944755342, 2.5790559808115967, 0.36604429936299243, 0.7685872736987919, 0.3845814139090897, -0.09643920866382372, 0.7913015248850792, 0.9029063219280641, -1.8320688939559056, -0.09920613997018715, 1.057926528022147, -1.3920050396316583, 0.29446399992636585, 1.3158412906769072, -0.48182571827163817, 0.007304894451601722, -0.5126412264551072, -0.4994916036962852, -0.42356942496284766, 0.44674837113177357, 0.42185216549824345, -0.5133505696496211, -0.5578652282554495, -0.5779854983700812, -0.20625043223740272, -0.2816352205099014, -0.2560995664214243, -0.5287483129906723, -0.5181072675553711, -0.5846789874871258, -0.6707557655561365, -0.10150434987932994, 0.11827316972174771, -0.4204189549882055, 0.4667717135031451, 0.4017345965832257, -0.5122906338549017, 0.454244859068177, 0.43575317247464923, -0.13729801293889196, -0.2147878398538515, -0.25059999608367656, -0.34041151518146984, -0.09294950268072966, -0.07712614115937425, -0.6992309294857255, -0.13592978642049722, 0.15524969694312976, -0.6554937105202705, -0.07347295690810955, 0.21905162062500522, 4.48337434006047, -0.005565157569699087, -5.8565321399638695, 1.343038752596361, -2.407393990209757, 2.625619067800268, -4.474082897394276, -0.00601253793721057, 5.844609052065452, -1.3304849613314902, 2.417021207804549, -2.6096541429458355]
14 Performance: 0.98795181 0.994 0.688
[0.31347662558443623, 0.008096229556149215, 0.2252949268591628, 0.2674308511763741, 0.2822105133089458, 0.6467412639448338, 0.6536741201790317, 0.22689273168738658, 0.20402557765024384, 0.18963343861802534, 0.34759406092798906, 0.4326155226945788, 0.4429428305683393, 0.23700954572674704, 0.2358080226627147, 0.19473002105264248, -0.10912776444656438, 0.14571950604910835, 0.23115199490537763, 0.31602501693135554, 0.6406368304542495, 0.6220680774569289, 0.26412280470870336, 0.6837413147725959, 0.7728040959522924, 0.40931096206297757, 0.48300058012759517, 0.47425607155402716, 0.24531640135729182, 0.47923702921837175, 0.4852485512075099, -0.12013051965537185, 0.12613661585366026, 0.28642214334276106, 0.022792869740541167, 0.2592324072834181, 0.3807267717235469, -1.295225284472355, 0.002588860058585765, -1.532132300718105, -1.478984099464238, -0.916252114048555, 5.1664259947755955, 4.977145829742535, -1.5127531999296018, -1.596027265620268, -1.7810320252246097, 0.5394396029869968, 0.5742074916447143, 0.8254856902892704, -1.0761605025261627, -1.506987712558513, -1.7552416155135289, -3.34287710543173, 0.20015620273864654, 1.5607390510984467, -0.443206878697476, 4.32430396815564, 4.593842477301475, -0.935842375125243, 5.194405660466603, 5.21640569094706, 0.8359668208343409, 1.6573808622497375, 0.87005449363555, 0.13269555790199877, 1.8015396281556157, 1.72670297354272, -3.5062345747548114, 0.021354956667373515, 2.31593025806302, -2.8766471462958454, 0.626098719572699, 2.787774042704861, -0.5018539338637973, 0.00788142695346158, -0.555110563811782, -0.568140513842868, -0.4392374673542498, 0.8269812783145464, 0.8009653360439588, -0.5604889332877371, -0.6191713697058975, -0.6465342653873031, -0.11896812277313772, -0.15462242764770373, -0.12120213319737887, -0.5618364376546603, -0.5686491510784516, -0.6841592966097658, -0.8938885293111618, -0.03608972342767429, 0.27356013669065365, -0.4018405983427334, 0.8310611406459192, 0.7307553495692043, -0.5129063610409715, 0.8284676842622196, 0.841493064676793, -0.019644515609136583, -0.08573474452107378, -0.1343805792822079, -0.31626277538153746, 0.08368580634449024, 0.10953512490809984, -0.9503689222254494, -0.12275646998317867, 0.3123476293233228, -0.8359750285220363, 0.0024160014633187623, 0.4476312174156419, -0.6599013580180292, -0.0031553251225423587, -0.7561075101282897, -0.8058893049140298, -0.41810935537484967, 2.5308405382491093, 2.3971718023929047, -0.7871762523879577, -0.8841549408048776, -0.9383594540259211, 0.27858625013070326, 0.2655217521416217, 0.37474248720564546, -0.5966473388010122, -0.739531621446419, -0.9118822788390142, -1.607015623494635, 0.15157644708280513, 0.649871620666826, -0.2442984240197278, 2.09213804987504, 2.2116592231205643, -0.5589925741609777, 2.647922170206912, 2.676880600552628, 0.37849817704007865, 0.814230227038451, 0.4075135802661272, -0.08715699195784099, 0.8198533960683796, 0.9565353417643662, -1.879906267112151, -0.09908414022702856, 1.107288032785648, -1.4204311667722869, 0.2905143365108079, 1.3567264274960649, -0.48542449503664487, 0.007304894451601722, -0.5163222471173877, -0.5030658133665444, -0.4270025216740382, 0.44457395472207595, 0.4197499790358885, -0.5169300698887864, -0.5613971554860843, -0.5815276840230346, -0.20904010692094904, -0.28519169361582175, -0.2597847225385211, -0.5323742481889657, -0.5217429412421365, -0.5883282741942567, -0.6730115339282445, -0.10282843837757395, 0.11746490051389696, -0.42385808525075197, 0.4650475061142014, 0.39964304048151217, -0.5160589554968369, 0.45198471863376, 0.43295512882856646, -0.14015873027346573, -0.21878629230680727, -0.2544107191995966, -0.3432643571351116, -0.09617940375481149, -0.08054288259802556, -0.7014399519970133, -0.13715334451905314, 0.15413264918728065, -0.6582679848360276, -0.07512466901173878, 0.21770014633937554, 4.590631121545245, -0.005565157569699087, -5.975088728300171, 1.4627763804261562, -2.4789669038114193, 2.747924159941296, -4.5805208678098985, -0.00601253793721057, 5.963161926569625, -1.4524443943715604, 2.4882007568121285, -2.7341941736522233]
15 Performance: 0.98945783 0.994 0.692
[0.31550069015523846, 0.008096229556149215, 0.22709280864736847, 0.2695095564633644, 0.2838766979663145, 0.6459451551049556, 0.6531811694827155, 0.22871427875671899, 0.2061129577993657, 0.19184143007613416, 0.34854084864636165, 0.43400972213113914, 0.44422511765042544, 0.2386735096463757, 0.23773228023264356, 0.1965366769602115, -0.10726951901189243, 0.14610177949157277, 0.2311577236610254, 0.3174804180998635, 0.64022526069026, 0.6212501884608982, 0.265900315340772, 0.6827628615810442, 0.7721381070459279, 0.410119214383233, 0.48382638533523775, 0.47517874923496767, 0.24676339814970963, 0.4803153453630117, 0.4859937431224542, -0.11783135291071573, 0.12664243068994058, 0.2860110561517091, 0.02475188328017971, 0.2598871034630283, 0.38036972850192496, -1.351522263632346, 0.002588860058585765, -1.5574053348183399, -1.5447257664515535, -0.9305017013200344, 5.319258758771152, 5.083103189888676, -1.5571051839607868, -1.6632601948900276, -1.8676341158912027, 0.5725867147125843, 0.5663132499622698, 0.8462866929954354, -1.0690135984222608, -1.5579863067475013, -1.7837594764203146, -3.4318325750329524, 0.19723975839396699, 1.5847300433291651, -0.4183954341109435, 4.410650397742327, 4.759279548258623, -0.9536451140609242, 5.372827022298581, 5.37060460523144, 0.8499983984181679, 1.7365535948859925, 0.9427048636890657, 0.12312210439043568, 1.8058842915786328, 1.7656369896081432, -3.639900407092001, 0.024298943610194915, 2.4045610525637993, -2.9581618437055854, 0.6086515021488859, 2.86294189544597, -0.5087647372350813, 0.00788142695346158, -0.5621671279486424, -0.5749740706079283, -0.44578887608290735, 0.8235765641515322, 0.7974233534342029, -0.5674276083322106, -0.6260554256488398, -0.6532800459436354, -0.12422956557224665, -0.16149652884461724, -0.12811807353263646, -0.5688275271863931, -0.5756728742350466, -0.6911840311056886, -0.898457850856755, -0.03857154503204237, 0.27189281717282177, -0.40845225016591286, 0.8280438396922681, 0.7269135001227336, -0.520013393037189, 0.8246157067482722, 0.8365731567392538, -0.025132147137342003, -0.09317377582108402, -0.14167091289538994, -0.3214631709702574, 0.07803731623436566, 0.10352982655183349, -0.9546602311133937, -0.12517089485127186, 0.31047188427931616, -0.841226976827701, -0.0006001251431636607, 0.44521846235675, -0.6857786742928225, -0.0031553251225423587, -0.7642325612300684, -0.8333570960017357, -0.41915673116425134, 2.63449367349784, 2.4754227388510146, -0.8011514530189516, -0.9115427968060865, -0.9763629955494807, 0.3046196682358272, 0.2804882768993992, 0.39754133136463016, -0.5917373981612618, -0.7501496488056488, -0.9240501103719828, -1.6502998383195282, 0.16521788990839223, 0.6737432247065919, -0.2234679869713002, 2.1579122121533594, 2.3262627761367565, -0.5632128014454255, 2.775888247788867, 2.8010146754758396, 0.40723881464189, 0.8783484246064943, 0.4640742853034027, -0.09628612926978791, 0.8369013148110729, 1.004190824328497, -1.957128793027953, -0.09109626781616645, 1.1658266331423848, -1.4673988801594147, 0.29220735303208706, 1.4157148053244415, -0.48986465708105387, 0.007304894451601722, -0.520899778055481, -0.5074548987122691, -0.4312543699196005, 0.4422026800513857, 0.4173128002375397, -0.5214250094642077, -0.5658285403512473, -0.5858459510338361, -0.21249155132144615, -0.28969142136885256, -0.26431808859121453, -0.5369245564323213, -0.5262860703392727, -0.5928839242822733, -0.6759023313035125, -0.10446132750585525, 0.11634298158326808, -0.42817964468871283, 0.4629811725366236, 0.39695828102323205, -0.5206713389888237, 0.4492812255129509, 0.4295548115368466, -0.14378571784707153, -0.22373293244443782, -0.25925153128289646, -0.3466174198529597, -0.09986506408900053, -0.08452575979832368, -0.7041008164905311, -0.13872926510617958, 0.15281913284047338, -0.6616176634411142, -0.07708286989910079, 0.2160298689305291, 4.646318138479529, -0.005565157569699087, -6.06804986631052, 1.5575815532883492, -2.542742645849818, 2.8454880570785295, -4.63615767866218, -0.00601253793721057, 6.056146123859213, -1.5488211212500675, 2.5514708412792184, -2.8333382971205863]
16 Performance: 0.98945783 0.994 0.692
[0.3169692051250662, 0.008096229556149215, 0.2285543843970602, 0.2710701990622462, 0.285206650926545, 0.6454849739318548, 0.6530394143650387, 0.23023561464911624, 0.20788713224370123, 0.19346036371320857, 0.34943671861619896, 0.4351192630702037, 0.44528732103793073, 0.24014246888870927, 0.23923998055348375, 0.19799396284197593, -0.10572514729141748, 0.14645966453454717, 0.23122459827739802, 0.31868537951543013, 0.6399977707319943, 0.6210329465524671, 0.2671105806491458, 0.6824214929733539, 0.7719026282433669, 0.4109190683854673, 0.4845382859956779, 0.47622145423615436, 0.24759973044404984, 0.48113474496806785, 0.4867149043242323, -0.11616187554303278, 0.12712042413365424, 0.28581768571246285, 0.026038534870231493, 0.2604647673895096, 0.3802654023270663, -1.3656700140080136, 0.002588860058585765, -1.5681921588345813, -1.5687435147342677, -0.9271846370928489, 5.432608544763249, 5.142343219035994, -1.5910244773839914, -1.7260795410994223, -1.9000546663912565, 0.5919097134220047, 0.5780509049958087, 0.8758950034724018, -1.077490444257932, -1.572367320950804, -1.7961134432315309, -3.5092063109343443, 0.20021054878794078, 1.6001127134690525, -0.39530625723830315, 4.475195222356346, 4.8370338426130814, -0.9179602252323495, 5.468949570593471, 5.480024658252495, 0.8628607730555133, 1.821029484166795, 0.9737004965472806, 0.1717027036895046, 1.8269083241165958, 1.798886655837253, -3.7216685475813773, 0.017333851649044045, 2.465219985537277, -2.970627584861254, 0.5903091152208183, 2.9059074842267734, -0.5129083028034918, 0.00788142695346158, -0.5662844155638944, -0.5790568490358609, -0.44963001430699445, 0.8214892960497052, 0.7953436313665694, -0.571499936708639, -0.6298750465033419, -0.657308872919878, -0.12728063842661366, -0.16560645665069545, -0.13228342045382963, -0.5729209462059348, -0.579724913559289, -0.6953766811002972, -0.9009659171326956, -0.04006537916321806, 0.2709763791508662, -0.41235768214598617, 0.8260984195855968, 0.7247375087753055, -0.5243321168110521, 0.8223940175866432, 0.8337246320071786, -0.028260137043599254, -0.09759965513115545, -0.14580149996173075, -0.32472142541825527, 0.07460408921689089, 0.10006996358804225, -0.9570157316548532, -0.12644453384656917, 0.3093999135562707, -0.8444311518856821, -0.002378471620336484, 0.44389409258843726, -0.702981126185108, -0.0031553251225423587, -0.7816280488613601, -0.8524774910684909, -0.4262520019281123, 2.6986616416405047, 2.512269116547457, -0.8255230816253302, -0.9555823278222902, -1.0007377781318243, 0.3083782812613721, 0.28681877584119486, 0.4081090004013217, -0.6057792578496483, -0.7674985865607301, -0.9395951189689005, -1.6996402814363298, 0.16928089104534894, 0.6825357166666134, -0.2164948904041617, 2.2010885921992864, 2.374758258483627, -0.5534766676362032, 2.836638600430225, 2.8673795815962633, 0.41020806602578125, 0.9184979463453978, 0.47384341218952464, -0.08004408103890658, 0.8484458461598543, 1.0211767527530582, -2.0152108621751545, -0.10023230254837666, 1.197369633385274, -1.4847513769074259, 0.28338370379443767, 1.440206207203916, -0.49242684621658234, 0.007304894451601722, -0.5234505657540292, -0.5099713201661529, -0.4336404642017861, 0.4407861474486701, 0.4159354640010163, -0.52394156819599, -0.5681454555147976, -0.5883215716294633, -0.21440123531549796, -0.2922835910364259, -0.2669470361642619, -0.5394651391303271, -0.5287881942238056, -0.5954886523649866, -0.677382049404812, -0.10540466720142605, 0.11575136646448174, -0.4306340352749099, 0.46167976168761127, 0.3955019064537466, -0.5233876897699604, 0.44778469467696, 0.4276542381132114, -0.14575250410343973, -0.22657389957360377, -0.2618579777108275, -0.348675249268447, -0.10203080641779064, -0.08672631290150039, -0.7054731728358776, -0.13951235989328603, 0.15209124378509845, -0.6635974085817654, -0.07818787762969885, 0.21514621394600192, 4.73010932523593, -0.005565157569699087, -6.1830982862192165, 1.6335842729199925, -2.600603798880668, 2.92292275808877, -4.719223137026525, -0.00601253793721057, 6.171596504284408, -1.6259649308156026, 2.6094739843623236, -2.911921071364098]
17 Performance: 0.98945783 0.994 0.694
[0.3184323468212179, 0.008096229556149215, 0.23006889967692484, 0.27261927709180134, 0.2866143148683629, 0.6450852197178075, 0.6529763252639578, 0.23181262274194442, 0.20976722633290357, 0.19510480629742485, 0.35044182935666957, 0.4363251149688733, 0.4464175614823258, 0.2416702151076844, 0.2407280223763645, 0.1994739333031568, -0.10417330856404675, 0.14677627607177382, 0.23134186021478173, 0.3199557409131521, 0.6398488680090234, 0.6208470976307131, 0.26839149734609874, 0.6821172969808765, 0.7717270411693651, 0.4118265215020071, 0.4853169764480098, 0.47737502290231826, 0.24843441455962362, 0.48200311912187815, 0.48746881792751945, -0.11442215133882253, 0.12759271976373873, 0.2856690575206793, 0.027351009089122684, 0.2610698127727835, 0.3802240778227907, -1.376246604013759, 0.002588860058585765, -1.5892945698139964, -1.586096915184429, -0.9342269303270886, 5.549052096391544, 5.197796088754233, -1.636191793546711, -1.812102082599332, -1.9344653539881655, 0.594420500218214, 0.5843191001908291, 0.9015811259626795, -1.0958531101844387, -1.5819179362325142, -1.8118574140892691, -3.592083480881263, 0.2185180916971713, 1.609086648528995, -0.37721699676538667, 4.540761366797141, 4.923744790345253, -0.8892084190656279, 5.576230382167866, 5.600089777839944, 0.8621858051839191, 1.906322343427504, 0.9926163714358999, 0.2244200680886779, 1.8492615805228811, 1.8368286487574128, -3.8260504779527764, 0.0065685273711335685, 2.5217839738703796, -2.9883657597695503, 0.5703983996102479, 2.9432664463826153, -0.5168569751371851, 0.00788142695346158, -0.5701533400306875, -0.5829534561927047, -0.45323794195849254, 0.8195158256810852, 0.793404462433804, -0.5753111488276634, -0.6334055061652151, -0.6611236242065661, -0.1301242254424752, -0.16948973197895756, -0.13622251476256253, -0.5767724106403875, -0.5835684865996257, -0.6993265938648995, -0.9033295064789884, -0.041532243242956284, 0.27014129808546605, -0.41606549454364145, 0.8242598077199826, 0.7226625362906065, -0.5284166095245886, 0.8202682094738362, 0.8310068682666961, -0.03116969035015682, -0.10179651381802778, -0.14967574980036746, -0.32783714306422285, 0.0713462985212838, 0.09678677513107123, -0.9591901768791503, -0.1276389772263982, 0.308382892612182, -0.8474732369597888, -0.004066450139575625, 0.44266145044269567, -0.7103636384312927, -0.0031553251225423587, -0.795014591063657, -0.8604598263794047, -0.430326135291653, 2.764776470067786, 2.5492754029785782, -0.8465441030830924, -1.0017804102953127, -1.0182950247264733, 0.30937762041360645, 0.2962090098704607, 0.42422522593498646, -0.6159100193416457, -0.7735274694605683, -0.9471093108227217, -1.7449580679063015, 0.18216952385292837, 0.6890679937452518, -0.20552401930006825, 2.2449411098416827, 2.4286627032716406, -0.5398702026107023, 2.903663243350964, 2.940254718847985, 0.41167880449908895, 0.9651635608964788, 0.484288057990934, -0.05634538079148298, 0.8651864549548697, 1.0455288100395346, -2.0775305584932147, -0.10792551031926934, 1.2275809953511667, -1.498078296060998, 0.27596282531446625, 1.4627463309928082, -0.4948455041043318, 0.007304894451601722, -0.5258138791630868, -0.5123509393240966, -0.4358463911943086, 0.4394570155449624, 0.41466837751837826, -0.5262632897261493, -0.5702424751614041, -0.5906376035979567, -0.21614869742483866, -0.2946984776610721, -0.26940132780322407, -0.5418223533227994, -0.5311384239163534, -0.5979125279571739, -0.6787548445888258, -0.10632945889160246, 0.11522178181339485, -0.4329343430671745, 0.4604635373450672, 0.394123282371692, -0.5259237600849985, 0.44636253221047933, 0.4258566731682532, -0.1475489774969696, -0.22923692170367915, -0.2642640517416846, -0.3506260675477257, -0.10406313697206211, -0.08879428414087005, -0.7067066637441405, -0.1402385362367429, 0.15140870019431335, -0.6654523324554698, -0.07922456885973087, 0.2143344133640056, 4.807745284489765, -0.005565157569699087, -6.2849374586198445, 1.6953088721568863, -2.6459471021296266, 2.9859229136804077, -4.796579735533356, -0.00601253793721057, 6.27367541134296, -1.6885525654681717, 2.6548133869968864, -2.9757886874147736]
18 Performance: 0.98945783 0.994 0.694
[0.32076434458402986, 0.008096229556149215, 0.23240380967068086, 0.2750992418387354, 0.28881381372417436, 0.6447703403052526, 0.6528265868233337, 0.23415354248409784, 0.21246500300607193, 0.1977186855046112, 0.35170505641425254, 0.43809600212609523, 0.44794668568011964, 0.24349588475581915, 0.24335372658063817, 0.2018674082478608, -0.10193395987585359, 0.14708149044316338, 0.23164483327883195, 0.3214907098815867, 0.6395956244212032, 0.6204285637964008, 0.27064027031177174, 0.6815753217132926, 0.7717084358737668, 0.41324290374462924, 0.4865468445782243, 0.4792981116757287, 0.24998581167821216, 0.48360123918972864, 0.48901549663277316, -0.11190288723494042, 0.12817673555914752, 0.28544577267313676, 0.029219370189458287, 0.261805129505875, 0.37998065336016923, -1.4212600667262603, 0.002588860058585765, -1.6439963138039797, -1.6502899217667266, -0.9692182547553433, 5.702680687722032, 5.329771461207895, -1.6998289118708392, -1.9343359003853562, -2.03108416694955, 0.6390606686782022, 0.6217256271784937, 0.9827827840412656, -1.052346807356348, -1.6764317276364091, -1.8727597412117156, -3.7186743816605925, 0.28981436095846774, 1.6112801862736943, -0.2757374863026336, 4.687416609421958, 5.132595943101708, -0.9134116727403847, 5.802026422190851, 5.778941167961197, 0.8499021106262463, 2.0361721185542274, 0.992589020250125, 0.2376950056962063, 1.845713770718844, 1.8348506611194744, -4.002970002057926, 0.0183756146511007, 2.626116867273483, -3.0192877845345647, 0.5858785097219429, 3.0583402608672836, -0.521867970679726, 0.00788142695346158, -0.5750618779382394, -0.5878554974360217, -0.457843432420861, 0.8171837425945454, 0.7909074365003564, -0.580174383510457, -0.6380214750705657, -0.6658835662482274, -0.1338535624325425, -0.1745532504525609, -0.1413369365219762, -0.5818316368458851, -0.588388877679686, -0.7042828831225649, -0.9064186663251377, -0.04347340856415271, 0.2690740603772491, -0.42105981936143955, 0.8219248711056448, 0.7198733878422517, -0.5335198396711878, 0.8175058801732502, 0.8276165411175872, -0.03482266045307772, -0.10715637786602406, -0.15458003719416347, -0.33171702316652085, 0.06728726769036752, 0.09272488320181173, -0.9620800271960767, -0.12933607530937613, 0.3070162404356512, -0.8513775236540454, -0.006318147403619707, 0.4409546734198645, -0.7302752491605776, -0.0031553251225423587, -0.8194237902303884, -0.8874271754331765, -0.44492757862927124, 2.846976659887267, 2.6207366661547677, -0.8734545367537512, -1.0594687161599259, -1.060944864355963, 0.333107885356579, 0.3201507454119836, 0.46795929220475085, -0.593667262670342, -0.817293420897275, -0.9738766966238874, -1.8069932604447918, 0.21801373369627106, 0.692699347801249, -0.15491457581813628, 2.3249959842743944, 2.5367356027747476, -0.5488927533979956, 3.0218793578958008, 3.0361052642915842, 0.4099622996297351, 1.0324276344486962, 0.4882817434851125, -0.04927077231438312, 0.8696873894566087, 1.0506239696274764, -2.1672453553931628, -0.10287832788042559, 1.2800726855207585, -1.5140627478802102, 0.28593514305526607, 1.521279105946786, -0.4979820244460392, 0.007304894451601722, -0.5288847763772514, -0.5154020389030077, -0.43872781420019896, 0.4378594863490371, 0.41297423424893487, -0.5293094193624552, -0.5730789399101017, -0.593577918069617, -0.21853603977831365, -0.29794389467404825, -0.27270052569966763, -0.5450563993926345, -0.5341191312209878, -0.6010133592476101, -0.6806049416598707, -0.10760766655917706, 0.11453484400713326, -0.4361680583516993, 0.4588634416687209, 0.392192580874794, -0.5291393847981888, 0.4444445088924283, 0.42356991598219434, -0.1498598023938678, -0.23272975738508522, -0.2673721632280966, -0.3530855454793562, -0.10663233413875889, -0.09137644077025178, -0.7084059021550426, -0.14132608573878905, 0.15045856550753683, -0.6679058591648779, -0.08066971560514478, 0.21315217142291967, 4.868483890464358, -0.005565157569699087, -6.4042303435486945, 1.7487743770252218, -2.7138566621958002, 3.0409961192671227, -4.8569136865454645, -0.00601253793721057, 6.393323282475535, -1.7426628614482804, 2.7228716675441995, -3.031510284149588]
19 Performance: 0.98945783 0.994 0.696
[0.3221166973517022, 0.008096229556149215, 0.23363946342028122, 0.27648020437171283, 0.29006561234775796, 0.6445385995146288, 0.6526014868426366, 0.23532202620007547, 0.21399326094107746, 0.19911236341067273, 0.3526114406600097, 0.43908473658733166, 0.44893925619765457, 0.24468615708950123, 0.2445058606958043, 0.20288487603398184, -0.10055684605718775, 0.1471547853102584, 0.23162549128450266, 0.3225441276321763, 0.6396439746252545, 0.6202650787615264, 0.271705941475707, 0.6813542968057854, 0.7715454301017478, 0.413985710407358, 0.4870908849702572, 0.48032567659159975, 0.25073892653607954, 0.48430655214667834, 0.48967579479414175, -0.11031697877430156, 0.1284445938004217, 0.2853258705295957, 0.030388504520433363, 0.2622271152646766, 0.37976377937278605, -1.461354957173708, 0.002588860058585765, -1.6605127472462538, -1.6763381188661792, -0.9857880709990614, 5.800276344354978, 5.428421047954515, -1.7085686040683892, -2.0078530136965425, -2.063851951934858, 0.6276759866793268, 0.6381175381422097, 1.0060169130424705, -1.055588935953575, -1.6657749580702874, -1.8425449158280438, -3.8056389030921345, 0.35219395776214996, 1.6441020970130633, -0.2558610939183345, 4.719632566960077, 5.2185036577638195, -0.8913592429276045, 5.902818856235426, 5.904509276425939, 0.8530311484628001, 2.1337388699332074, 0.9963961049102682, 0.26454825939230947, 1.882730225501901, 1.871718795819088, -4.136565988786098, 0.02331229660799402, 2.6746348510448854, -3.0511392309211063, 0.588070923149357, 3.123526213006665, -0.5249781726207267, 0.00788142695346158, -0.5782681296175882, -0.5910305005823687, -0.46073316555496296, 0.8156377397693392, 0.7891998446431204, -0.5834276272851159, -0.6409634342106872, -0.669027639182062, -0.1361176558295032, -0.17778443386943313, -0.1445429701560829, -0.5850412829638196, -0.5915450485515417, -0.7076365537582859, -0.9083054670913526, -0.04476678531600988, 0.2683121120681112, -0.42412148797755905, 0.8205221379872235, 0.7181682432960445, -0.53683952188172, 0.8158282426242199, 0.8254182983789116, -0.037214736081419134, -0.11060720122686585, -0.15771410969946326, -0.3341802336633796, 0.06459391027306588, 0.09004889255186618, -0.9637956196082972, -0.13038006348225278, 0.3061602204256687, -0.8538659204730246, -0.007788793744043181, 0.43983223957823375, -0.7558956426330752, -0.0031553251225423587, -0.8331832762595571, -0.9042788687755634, -0.4583962588961951, 2.8989491046634503, 2.669918721484736, -0.8816410848654689, -1.1021391782024343, -1.081040568114383, 0.32347207214724283, 0.32654784899002354, 0.4762798728706059, -0.6007954068379522, -0.8183075837269745, -0.96574166457768, -1.8558042761219335, 0.24555853063139726, 0.7086248488600431, -0.1489488413545927, 2.3473122241433684, 2.582591940522222, -0.5437942329940291, 3.0770187106211866, 3.101561828045065, 0.4072165863261627, 1.0754231915164003, 0.485028661941237, -0.04130710826954154, 0.8856621089305362, 1.0687821712842276, -2.24017708880076, -0.1041797678049899, 1.3044829978659127, -1.5359211782721276, 0.2857875192827055, 1.5549620336438341, -0.4999016252280851, 0.007304894451601722, -0.5308845317456352, -0.5173678306989363, -0.4405164521465014, 0.4368057425336595, 0.4118169590710712, -0.5313519990470645, -0.5748668536881907, -0.5955219280726971, -0.21994275126517637, -0.299992459285438, -0.2747279360091176, -0.5470675941780355, -0.5360949927159914, -0.6031384342599774, -0.6817108434513252, -0.10846114219612749, 0.11402776871833334, -0.43810231912686015, 0.45793905521198847, 0.39104042709039943, -0.5312353285725726, 0.4433042397324892, 0.42208731744093414, -0.15136547171044232, -0.23496842351256442, -0.2693448294704839, -0.35464444294338116, -0.10834877049407836, -0.09309033228924521, -0.7093741075325719, -0.1419865797584435, 0.14987656169583535, -0.6694415626623674, -0.08160305244875136, 0.21238241246396122, 4.9297372413963645, -0.005565157569699087, -6.499727642009316, 1.800544001285385, -2.761458914587596, 3.0937159132396763, -4.91814705182863, -0.00601253793721057, 6.488984215581893, -1.7949269220533828, 2.770473612371298, -3.0847266066357664]
20 Performance: 0.98945783 0.994 0.699
[0.32366035208927835, 0.008096229556149215, 0.23507361238522032, 0.2781337400998697, 0.2915344103935524, 0.6443932390572108, 0.6524402799194547, 0.23656146971380476, 0.21562619841226063, 0.20064559547509067, 0.3535968768469749, 0.4401174291609956, 0.4499545244229943, 0.24591717997528323, 0.24601312861561608, 0.2042160599507458, -0.09895989643457773, 0.1473386866310841, 0.23176384401511246, 0.3236732832854886, 0.6395140193067066, 0.6200012315292645, 0.27291423217105243, 0.6810183038759441, 0.7714137639268592, 0.41472254648797324, 0.4876698353081427, 0.48152080478295783, 0.25163060220256356, 0.48525948456750845, 0.49068521101405277, -0.10865697768308903, 0.12866728094234756, 0.2851199392493184, 0.03165122960230303, 0.26264260177480825, 0.3793925520501589, -1.5115881236269784, 0.002588860058585765, -1.6910758290895171, -1.7321351967944347, -1.0262587118847768, 5.887191661641225, 5.512978724345868, -1.701998326135438, -2.077332204020163, -2.098914363448194, 0.6156297187259738, 0.6744526096474297, 1.046208644957542, -1.035882187564675, -1.7062971252230794, -1.8544661829447622, -3.9228500352332785, 0.39316334074987674, 1.6462971397531925, -0.2244145872193559, 4.806416977692395, 5.3419495544000775, -0.8702465339115044, 6.037721496201467, 6.036527195698498, 0.8742059651168925, 2.2482255166628287, 0.9903259679890637, 0.2811595912120785, 1.8868580384907745, 1.8607946858220097, -4.267455903195615, 0.04623698345585499, 2.7449433959381575, -3.0795579434498768, 0.6034041783520107, 3.232715749758273, -0.5282267294634049, 0.00788142695346158, -0.581583784682703, -0.5942808116312633, -0.4636964712070523, 0.8141266350492651, 0.7875427421425921, -0.5868679229549424, -0.6440948520150805, -0.6722741957636134, -0.13842642419541853, -0.18122281728373002, -0.1478931626959777, -0.5884712273682159, -0.5947502717009227, -0.7110517376430208, -0.9102205525159746, -0.04598789036049824, 0.26762364620593737, -0.4272929118994487, 0.8189483532309721, 0.716345734323613, -0.5403233905925142, 0.8140861842187783, 0.8231409687954604, -0.03974440224492253, -0.11421614919375093, -0.16096697171141133, -0.33674224489941357, 0.0618787080198014, 0.08734079349892426, -0.9656493662636227, -0.1315069674674352, 0.30527302588695654, -0.8564738780137353, -0.009310710840614776, 0.4385896667660616, -0.7816774210067463, -0.0031553251225423587, -0.848938860745253, -0.9302235065284454, -0.47806533940700996, 2.9470663986635737, 2.714134073594083, -0.8786984425831124, -1.1377689326627785, -1.0974357474473568, 0.3175270692221283, 0.346509619824782, 0.4966148656633296, -0.5930622380339144, -0.8389985421902949, -0.9729956808022754, -1.914709106877994, 0.2638122506875519, 0.7111036287498121, -0.1334472983518681, 2.395971224848196, 2.6461702069221706, -0.534247462686482, 3.148331519504072, 3.171551780491888, 0.41650749358478667, 1.1300602053633022, 0.48215711849361215, -0.034409258538221084, 0.8901932442770706, 1.067651750730523, -2.307017917024769, -0.09582984629104031, 1.3398677944953226, -1.5521550899331538, 0.2936271285729911, 1.6090896579301701, -0.5019470645363877, 0.007304894451601722, -0.5329907089892173, -0.5194064471835895, -0.4423820530950244, 0.43576749047927366, 0.41068169964284096, -0.5335651421037622, -0.5768243864792172, -0.5975707015345829, -0.22141099440196751, -0.3022288501643396, -0.2769019927532929, -0.5492779946010342, -0.538114966996539, -0.6053247331951022, -0.6828477373979893, -0.10927053779498387, 0.11357851268061968, -0.44015650355870944, 0.4568577557409626, 0.3897728147113333, -0.5334799303151041, 0.44208497139283853, 0.42052619285809556, -0.1530031975067788, -0.2373638070263151, -0.271431899620698, -0.3562923825770895, -0.1100939920234084, -0.09482952045282787, -0.7104631468819133, -0.1427249665180215, 0.14925378533690054, -0.6710917487758649, -0.08259438980879641, 0.21149901029952445, 4.983146623104025, -0.005565157569699087, -6.600618555507998, 1.848695952584992, -2.814967664773298, 3.142814037115191, -4.971463224822296, -0.00601253793721057, 6.590118822006529, -1.8434571707446268, 2.8240594745507996, -3.1342048688145216]
21 Performance: 0.98945783 0.994 0.700
[0.32552772295198334, 0.008096229556149215, 0.2368995644410768, 0.2801762113715486, 0.29344063392644226, 0.644023837002266, 0.6522634199979885, 0.23818957032185065, 0.21767571701159186, 0.20261714195403346, 0.35499034087121245, 0.441658824897392, 0.45130646931620955, 0.2476871615629983, 0.24780170166303098, 0.20596430844508304, -0.09696839709567348, 0.14767147556689197, 0.23193267571379456, 0.3255795469812752, 0.6394173920816234, 0.6198070577517117, 0.27450279126791943, 0.6807766330235479, 0.7713416084227803, 0.4155494415874876, 0.4885188569651782, 0.48294938674888, 0.25272322242733747, 0.48654184717369814, 0.49195454439768505, -0.10661829669102625, 0.1290513285287204, 0.2849475901163423, 0.03323693799142371, 0.26334699842850684, 0.3791348740737851, -1.550559580209058, 0.002588860058585765, -1.7231213103239436, -1.7867140987416361, -1.086389646026658, 6.053814841113613, 5.635097155583569, -1.6919608305300733, -2.157699061204012, -2.1388523147246503, 0.5737788055672676, 0.6878699839726344, 1.0951105469620468, -1.0429307989685885, -1.7237436029309356, -1.8670013867984818, -4.078577984368028, 0.4280499817647148, 1.660400339129939, -0.2752210203957531, 4.920092820147678, 5.488382438167773, -0.843776254761812, 6.194363076325284, 6.206492874974816, 0.9358022636105687, 2.390527850549473, 1.012418039308234, 0.3204400672520665, 1.8875485368646188, 1.862932634214872, -4.424206815862235, 0.06185067659998673, 2.8284430056581154, -3.1129086844690597, 0.5933912347347542, 3.345421356608706, -0.5319697034107073, 0.00788142695346158, -0.5853426481340853, -0.597989923006276, -0.46702085805820365, 0.812240340417073, 0.7856032438528395, -0.5907609698580337, -0.6476402030766949, -0.6759620119869653, -0.14096877225558535, -0.1849816832372185, -0.15169137542673294, -0.5922706970610745, -0.5984966071190674, -0.7149274542423315, -0.9123611517036112, -0.047316841242087765, 0.2668069734143672, -0.4305742029359363, 0.8171759534491213, 0.7143659608648032, -0.544296090456615, 0.8121866643770653, 0.8205554068302013, -0.042734746047728284, -0.11830074046303352, -0.16473001255544695, -0.3397136184407944, 0.05882796767581521, 0.0842596604121916, -0.9678005315810136, -0.1327528651828829, 0.3042834528683959, -0.8594237195775671, -0.01093710682244613, 0.43726236631216203, -0.7998901503803026, -0.0031553251225423587, -0.8634009096802916, -0.9536682616073079, -0.504216947130799, 3.0284301791715915, 2.7746978479508937, -0.8738892781178041, -1.174894025134426, -1.115394008520234, 0.2999605127078961, 0.3557953172043073, 0.5211280038580536, -0.5961665470053522, -0.8476363914500751, -0.9787507126183467, -1.9871002412508114, 0.27929026151522524, 0.7190657955991933, -0.15498324351707504, 2.4540742414689976, 2.717736500622005, -0.5215275736670082, 3.225833386595467, 3.2556161126808396, 0.44542184905679194, 1.1968518016200513, 0.4942363814779044, -0.017126596719629298, 0.8942471519305154, 1.0724072850793551, -2.3821149178398238, -0.08944754531141773, 1.3798034648337971, -1.5690116064480133, 0.2900761074890345, 1.6622977098764273, -0.5043081658617649, 0.007304894451601722, -0.5353735564138572, -0.5217291073557893, -0.44446094265228275, 0.43444858994536745, 0.40935068147761305, -0.5360571317005655, -0.5790320003506954, -0.5998869194875492, -0.22300666890674903, -0.3046407563058001, -0.2793558833843989, -0.551698168464195, -0.5404849727809508, -0.6077961165600637, -0.6841083065607877, -0.11014232720447055, 0.11304350053546555, -0.44221945372912996, 0.4556432982860849, 0.38840027442278857, -0.5360287072982194, 0.44076199239450525, 0.4187568379905443, -0.15495352328471879, -0.24006844626532545, -0.2738586269942804, -0.35820341263582317, -0.11204047306378738, -0.09680653734521413, -0.7117201493836278, -0.14352854791054034, 0.14856578486833458, -0.6729518556975547, -0.08363122992532077, 0.21056644918369014, 5.057752837551942, -0.005565157569699087, -6.703090450901104, 1.8959139984789544, -2.87897772505484, 3.1910371004822764, -5.045943193194199, -0.00601253793721057, 6.692814983335752, -1.8909710585440749, 2.888155368130047, -3.182725225191062]
22 Performance: 0.98945783 0.994 0.701
[0.3268848190192755, 0.008096229556149215, 0.23818359893783597, 0.2817566829057549, 0.29489216300676874, 0.643533808827453, 0.6519319143925287, 0.23924748065135018, 0.21925329483932146, 0.2042694619973779, 0.35602707036439185, 0.44267889009058986, 0.45231337897689916, 0.24882376558375568, 0.24912129951008594, 0.20698441927451125, -0.09535500675706891, 0.14791031531358648, 0.231934050661647, 0.3269446393496943, 0.6391906843638633, 0.6192933236021062, 0.2756072765338103, 0.6803733202602301, 0.7711265722820357, 0.4161913532460557, 0.4889971195651644, 0.4837477093964648, 0.25346299983019954, 0.4874108599129218, 0.4927357416461673, -0.10481421694844503, 0.12938414780118748, 0.28481914828267213, 0.034555669943422074, 0.263828122512481, 0.37880206107610065, -1.5890495051249787, 0.002588860058585765, -1.7540913265621552, -1.8586948075455099, -1.1490552908378597, 6.215625800967535, 5.759843117006255, -1.6749330041956332, -2.2405199401699365, -2.2282914480341542, 0.5356984848688809, 0.7048358922865736, 1.1146806426067282, -1.0307942637068443, -1.7487364608649207, -1.841271310998657, -4.22635586615568, 0.44514208824785095, 1.6945619409321195, -0.31464541220198305, 5.025692439954033, 5.662876386205506, -0.8285851464964461, 6.353179692910315, 6.356338453094362, 0.9577603210570694, 2.5031531778543537, 1.0658352374399505, 0.3580302474836427, 1.889396678284284, 1.8814057943069515, -4.600414056718827, 0.0611313662693762, 2.8909057297703957, -3.187872870388972, 0.5838483998485783, 3.44822314011191, -0.5358416817832987, 0.00788142695346158, -0.5892324641956406, -0.6017780924453647, -0.47046035847161427, 0.810356588078937, 0.7836168877539066, -0.5947999774580273, -0.6513444633486943, -0.6796777323812547, -0.14360646496242505, -0.18889168756014732, -0.15553602841464184, -0.5962001351438443, -0.6023957019247649, -0.7189742467915812, -0.9146591626022236, -0.04865546021283362, 0.26590245212411623, -0.43401840057583163, 0.8154284896253995, 0.7122890547377377, -0.5483751227204198, 0.8101994274723956, 0.8179092588792717, -0.045744189713020265, -0.1224487963402247, -0.16868001481314357, -0.34279528637046325, 0.05575135165753595, 0.08104286378347417, -0.9700510879356343, -0.13401888383873017, 0.30331187693365913, -0.8623921762020736, -0.01261309986721371, 0.43588897737602805, -0.8135384890152867, -0.0031553251225423587, -0.8726545444314014, -0.9802619144109346, -0.5279834354855106, 3.110136401981156, 2.8377522271068485, -0.8587075350139958, -1.2100096463067633, -1.1508432944718894, 0.2859705012940576, 0.37379577557723087, 0.5375333802062868, -0.5846957331591172, -0.8536885395898096, -0.9610522889427209, -2.053600613425576, 0.2899427626767777, 0.7366992111764004, -0.1646914003095198, 2.5110311357256636, 2.8065401236296186, -0.5085281390234282, 3.309397694128373, 3.3360722926724153, 0.4579935765448475, 1.2564168417765949, 0.5238806688357596, 0.003259552810348875, 0.9019288283543572, 1.090223398471125, -2.465670233289829, -0.09045835289773246, 1.4105310268563724, -1.600372081694714, 0.28942588298147987, 1.7145570990056893, -0.5068493387142143, 0.007304894451601722, -0.5379415696666399, -0.5241916935530091, -0.44670164172798993, 0.4331012746207661, 0.40795221572885754, -0.5387487785263857, -0.5814362960313652, -0.6022922177071731, -0.22473143861979816, -0.3072488461979075, -0.28191385696062055, -0.554310399770166, -0.5430486658733119, -0.610500705511201, -0.685542087497727, -0.11104306895652759, 0.1124216456915528, -0.44448275236615065, 0.454417573335715, 0.3869095822587378, -0.538741201024788, 0.43934226955599737, 0.4169042359551288, -0.1569667290557477, -0.24289501276603867, -0.27651982631133504, -0.3602573566994963, -0.11407628745732712, -0.0989596789456991, -0.7130922565782231, -0.14436122800151074, 0.14788721899327675, -0.6748807439438935, -0.08474001511082274, 0.20958290557615533, 5.110649314738962, -0.005565157569699087, -6.781192482657391, 1.9403746964244528, -2.9318180963912215, 3.2364894896633754, -5.0988776271640335, -0.00601253793721057, 6.771042553761554, -1.9356522078939606, 2.941011682739661, -3.2283989746877686]
23 Performance: 0.98945783 0.994 0.702
[0.3286099521086579, 0.008096229556149215, 0.23986561885162622, 0.28367775574320603, 0.29665287153834374, 0.6431088778811874, 0.6515370757756966, 0.24062402899924787, 0.2211580675708202, 0.20632694982272753, 0.3573467790747138, 0.4438774217635916, 0.4534750423200137, 0.2501930393694831, 0.2507936550877731, 0.2083145729360988, -0.09342610005102087, 0.14817810172455992, 0.2319259682869526, 0.3284701939383118, 0.6389481281597154, 0.6185868561948024, 0.2771035510076811, 0.6798185854474492, 0.770897600978476, 0.41702062968061127, 0.4896895919496583, 0.4848162333199976, 0.2544800222231911, 0.48851857862900305, 0.4937642198492878, -0.10272487695216209, 0.12969461413873698, 0.28460217749744193, 0.036182666940957516, 0.2643844540997733, 0.3783998296468897, -1.6363645009903263, 0.002588860058585765, -1.7956978929093461, -1.931226022764088, -1.2171613255456697, 6.3927113157956414, 5.926336875947584, -1.6485351723050325, -2.325896769288571, -2.3329871221793637, 0.48330592201786926, 0.7530188829283183, 1.1685047606424084, -0.9950872826986227, -1.7791786720748501, -1.8056328280191287, -4.401912723126554, 0.4783350595615509, 1.7424458537833942, -0.32616127251923066, 5.164181929992201, 5.9118872013030614, -0.8234399722622017, 6.572721946701737, 6.548345198677366, 0.9884684502019985, 2.6406217444732003, 1.1274134719952853, 0.3918859437493798, 1.895697634814775, 1.9069151960106183, -4.796591764314529, 0.08308449021280244, 2.9852213724773264, -3.268365509614394, 0.5859329396900737, 3.5836791342498917, -0.5402786234453505, 0.00788142695346158, -0.5936539758523591, -0.6061264945006514, -0.47442431581483574, 0.8082840989634759, 0.7813232177400532, -0.5994045745843265, -0.6556459436236627, -0.6839027039770511, -0.14663370445071308, -0.19343971057390502, -0.1599876789235141, -0.6007396073657809, -0.6068594445217552, -0.723566940636616, -0.9173394533574614, -0.050211619153233376, 0.2648346698701989, -0.43809237304497406, 0.8134466127880751, 0.7098190138237549, -0.5530015861071549, 0.8078642954256918, 0.8148703636008946, -0.0491634446796549, -0.12718771498864792, -0.17318195660862445, -0.34630865314930964, 0.05223122166217264, 0.07737064417285631, -0.9727077514884994, -0.1355694323973464, 0.30213941921393, -0.8657857592506023, -0.014565876658577932, 0.4342754808009791, -0.8450927026372042, -0.0031553251225423587, -0.9027341924510552, -1.022495151736705, -0.5665246179497604, 3.195675704676075, 2.9171871813275208, -0.8543757849299549, -1.2593728010875413, -1.2098413477047838, 0.2563584009078895, 0.3937406639678623, 0.5573731411693846, -0.5766253190221233, -0.8746014539879567, -0.9554692056209315, -2.1412380469710435, 0.30437183657333666, 0.7603943981063145, -0.17060239533867216, 2.579422370483355, 2.9296248917587673, -0.5162087462367693, 3.4209574201089, 3.432444072568436, 0.464079970121314, 1.3152367192109138, 0.5451171411587875, 0.01141738518869286, 0.900836095278182, 1.1008380888650997, -2.5670331710590446, -0.08111327920507784, 1.4558557778234351, -1.6480177840909231, 0.2897998689382854, 1.7813219563431653, -0.5098001289377966, 0.007304894451601722, -0.5408936692535854, -0.527062273763391, -0.4493250897035854, 0.43160846906552414, 0.40630874051957644, -0.5418556444951885, -0.5842757779569091, -0.605061930699098, -0.22673602791571668, -0.31033657364761164, -0.28493188188280055, -0.557377936424421, -0.5460216220081219, -0.6136076813350471, -0.6872451040361685, -0.11211060808133022, 0.11167350737789547, -0.4472206517538557, 0.45300660198110704, 0.38509803135544723, -0.5418482137807871, 0.43763946003033527, 0.41474530790109376, -0.15928455555867865, -0.2461658722269393, -0.27959017739223585, -0.3626235491901359, -0.11643734046531105, -0.101448321202422, -0.7147530953853449, -0.1454129318910851, 0.14704581793737118, -0.6771184569967932, -0.08605652948899552, 0.20840841347366568, 5.160176252559624, -0.005565157569699087, -6.848752651411693, 1.9811235386225807, -2.9829483748258894, 3.2783567405302656, -5.1485505775912905, -0.00601253793721057, 6.838704419923771, -1.9765439949284156, 2.9921345922374583, -3.270409846288637]
24 Performance: 0.98945783 0.994 0.703
[0.32925006755079866, 0.008096229556149215, 0.24037659406645914, 0.284415369728249, 0.2973295533513737, 0.6429545225494747, 0.6513816673191695, 0.2409395568368154, 0.22185922954266424, 0.20701831298392143, 0.3578149676440839, 0.44417386984511775, 0.4539588594693808, 0.25058928354884136, 0.25139658916014557, 0.2086760037077091, -0.0926345329265917, 0.1482480369428857, 0.23193913669766594, 0.3288813978453951, 0.6388864464805696, 0.6183284074701019, 0.2774626975537964, 0.6795611329529743, 0.7706464554532454, 0.41727215505243614, 0.4897292144956858, 0.48514992429384896, 0.2547467174838277, 0.4889535650538945, 0.49402913034567897, -0.10184685959280258, 0.12982527621451048, 0.28448495725786205, 0.03666259647941015, 0.2645361689666461, 0.3780815265158259, -1.6785758318160193, 0.002588860058585765, -1.8101147403757178, -1.9803042557144042, -1.2624776918491958, 6.442925427224937, 5.962703665078509, -1.6164703991744298, -2.3791796354247143, -2.3725351010367883, 0.4539132552524171, 0.7827206810774863, 1.1535899157276808, -0.9790101114828385, -1.8065840176921908, -1.7881355621592177, -4.487936229748263, 0.48811997892743875, 1.749052863853399, -0.3088773865510339, 5.19437562039214, 5.985240901625546, -0.7975490452457551, 6.645658272922579, 6.634675869867419, 0.989390704640877, 2.7115383793209236, 1.1394258210174213, 0.40917362550943925, 1.8756005091344787, 1.9230864016438627, -4.899954447395456, 0.07115750283798995, 3.012465272031068, -3.2818809428557403, 0.588340145283032, 3.6578863187408897, -0.5419962277118308, 0.00788142695346158, -0.5954691138243927, -0.6078349785024103, -0.4759427391111775, 0.8075031323251753, 0.7804797338188837, -0.6013486258697475, -0.6573005540452025, -0.6856122178742042, -0.1478071177527756, -0.19532377306835033, -0.16168889626854735, -0.6026079601820264, -0.6085553176416704, -0.7254738485755097, -0.9183398554709489, -0.050834264013077265, 0.2644736825434337, -0.43981373448492495, 0.8126716971266786, 0.708842074615939, -0.5548888614160605, 0.8069362886803996, 0.813641744225648, -0.050487166535118304, -0.12912469146963723, -0.17497485456869905, -0.34768567564541575, 0.050876245535003674, 0.0758553555439561, -0.9736315882821992, -0.13609131246148073, 0.30170479849344767, -0.8672302683237588, -0.015375751383012958, 0.4335760698968635, -0.8615363113523804, -0.0031553251225423587, -0.9053885289844129, -1.0401481929245517, -0.5835253992231374, 3.2257291814669102, 2.938481890317994, -0.8342341262005839, -1.28230771132394, -1.2229421115688544, 0.24553595632374975, 0.4145657558908315, 0.5567404294441795, -0.5644271950083897, -0.8832946240381049, -0.943199494985855, -2.1809161408378337, 0.31034041668510776, 0.7644296349177184, -0.1563107014165664, 2.6005203901902103, 2.9700511322318213, -0.4993581721776158, 3.463390016619506, 3.4814826440060154, 0.4665346750573626, 1.3541858959910578, 0.5544718077076902, 0.02282539671279498, 0.8962926509761407, 1.1151222066749866, -2.616374822095526, -0.0872092654654243, 1.471012942520892, -1.6520281555933662, 0.29311387568137043, 1.8194880802049722, -0.5109620437351793, 0.007304894451601722, -0.5421389962611662, -0.5282110173157006, -0.45034453022998977, 0.4310370894516864, 0.40569553508610673, -0.543214458287803, -0.5853875011881707, -0.6062157283977152, -0.22752747675854784, -0.3116544394971247, -0.2860985684538477, -0.5586745006038797, -0.5471732633078163, -0.614934654724588, -0.6878827400987252, -0.11254623997927227, 0.1114190834436049, -0.44841218104194785, 0.4524490990362055, 0.3843771863120069, -0.543162257146102, 0.43695240317606554, 0.41384300706504806, -0.16020391243134888, -0.24754448413731633, -0.2808382180645812, -0.36358109458579096, -0.11736107153484568, -0.1025055548852427, -0.7153267338002965, -0.1457679837732079, 0.14672626327569338, -0.6781046578140233, -0.0866177205696823, 0.20788062362332235, 5.197039999341064, -0.005565157569699087, -6.90018857720166, 2.0115475283628874, -3.007494160683324, 3.3092058370801696, -5.185384886771125, -0.00601253793721057, 6.89029041880883, -2.0070881341439137, 3.0167401729365446, -3.3013796296378763]
25 Performance: 0.98945783 0.994 0.703
[0.3298141155250144, 0.008096229556149215, 0.24084157685620808, 0.2851623867490659, 0.297912258158687, 0.6429069496332556, 0.6511440471929318, 0.24137705134213283, 0.2223952709965911, 0.20776424084206066, 0.3581478264228164, 0.4445016289105198, 0.45437905999076117, 0.2510244684273186, 0.2519994259572702, 0.20903104309119921, -0.09192456950211422, 0.14833987311768768, 0.23189975267588742, 0.3292909724673403, 0.6388654221676524, 0.6181745366601133, 0.27781969228940084, 0.6795068547279546, 0.7705886686044809, 0.41743935419672357, 0.48980386055550984, 0.4854390194301517, 0.2549986514470537, 0.4893335607088219, 0.49435804936351957, -0.10126173497055242, 0.1297665406368608, 0.28426788816279436, 0.037068808319443515, 0.26468470386192766, 0.37783377087027403, -1.6995098256794368, 0.002588860058585765, -1.809528645155802, -2.028413754680794, -1.2828958421925514, 6.469492514218819, 6.020689495424846, -1.6092944132986, -2.3913227193414155, -2.4206477173113283, 0.45799967876538294, 0.8047358945762697, 1.1593798900605266, -0.9671131083640561, -1.8298665594667118, -1.766749102756122, -4.553376613571526, 0.4956560381088196, 1.766086133687027, -0.29065246529801725, 5.2160791704245755, 6.036804669582068, -0.7707440173626863, 6.677273725516354, 6.678888840339659, 1.012697974802741, 2.777440238193274, 1.1623741491850892, 0.4313022189774897, 1.867340864702492, 1.923625016744365, -4.936642822703153, 0.10428366784067479, 3.0637876260036725, -3.2779085620103525, 0.5922868609677064, 3.7168348734353858, -0.5432089767768904, 0.00788142695346158, -0.5967454585573012, -0.6089691461621687, -0.4770353051174279, 0.8069815498805419, 0.7797878470674418, -0.6026453369273396, -0.6585220552210842, -0.6867297086328304, -0.1486854677363925, -0.1966026691779375, -0.16290985744790254, -0.6038966039563995, -0.6097124044051518, -0.7268067365929367, -0.9190250518087333, -0.0512519122144366, 0.2641998223479731, -0.44098999006632156, 0.8121391901577378, 0.7081913118148861, -0.5561940357419075, 0.8063425921129445, 0.812830108800435, -0.05147456675646284, -0.1304836313747443, -0.17625179696228022, -0.3486613733796508, 0.04992771818535312, 0.07484926494807909, -0.9743707684473817, -0.1365678956945517, 0.3013062859431384, -0.8682422355103164, -0.01593314385506943, 0.43310172454511325, -0.8777825762970525, -0.0031553251225423587, -0.911176092609014, -1.0677689687987242, -0.5970427378952525, 3.2407032586421027, 2.966383304115445, -0.8370894853514839, -1.294476088604432, -1.250587130369574, 0.24446691910468038, 0.42116289664759676, 0.5554597725076926, -0.565003546861911, -0.9001917797609289, -0.9396809822714692, -2.216752769983216, 0.3108563289813457, 0.772084247812442, -0.15188911674572625, 2.613065396127151, 2.994276624265377, -0.49201650420906934, 3.4802142757410954, 3.50398041085847, 0.47339856548003845, 1.380407935845451, 0.5606401745119515, 0.02933518662248648, 0.8902137842411111, 1.1137015534184662, -2.6390207474517178, -0.07446348125109394, 1.4957741731942964, -1.6560248200798457, 0.2923716334166631, 1.8464387844565187, -0.5117807468216459, 0.007304894451601722, -0.5430138987265396, -0.528957572746042, -0.4510787755119827, 0.4306591221580412, 0.4051773126572292, -0.5441077484663406, -0.5862169637114774, -0.606950003912246, -0.22812995689398968, -0.31254637450725836, -0.28693987880738836, -0.559562968922404, -0.5479491995015927, -0.615861918187293, -0.6883096753991432, -0.11283701261055383, 0.11121975093217615, -0.44922511906325396, 0.45206471259696385, 0.38389551922541004, -0.544070025393299, 0.4365209330316185, 0.4132540664893775, -0.16089844487322522, -0.2485161401173063, -0.2817302003870369, -0.364260431496204, -0.11800748376453228, -0.10319889863159581, -0.7158067914261902, -0.146114894395191, 0.1464186622520261, -0.6787980173035425, -0.08700360872595249, 0.2075177637497634, 5.244233085628879, -0.005565157569699087, -6.970733840165138, 2.039685529838639, -3.039282390781138, 3.337621091572723, -5.232552382054584, -0.00601253793721057, 6.960985075557595, -2.0353343023070396, 3.0485958564640896, -3.3299035367096246]
26 Performance: 0.98945783 0.994 0.703
[0.32993505106055127, 0.008096229556149215, 0.2409033322851133, 0.28535022230846135, 0.29811121428334436, 0.6425481673061375, 0.6507141203499798, 0.2415199323562263, 0.2226159157431418, 0.20809949747929818, 0.3584140462409429, 0.4446575707667995, 0.4544894742797602, 0.2510833756745404, 0.25222013489259426, 0.2090260021906774, -0.0914221823128813, 0.14850178568334504, 0.2317838276033702, 0.3296184542211012, 0.6388312884881845, 0.617816679187516, 0.27794385015453954, 0.6791622882220577, 0.7702044819621409, 0.4172154233379543, 0.4895798858407306, 0.48516003137357294, 0.2549348128845815, 0.4895080595321997, 0.4942796894758563, -0.1007984216116809, 0.1297553051573154, 0.28397073425135694, 0.03722314285380451, 0.2649404131596494, 0.37775329869186225, -1.7069834714513068, 0.002588860058585765, -1.804257841102786, -2.039822537571791, -1.3004280829998989, 6.541169461252598, 6.096932265343343, -1.627685045927416, -2.416836941528689, -2.4640587669785536, 0.4139555890058625, 0.7814251837800089, 1.1491381873273658, -0.9595870575661647, -1.8513640005482925, -1.751238487040271, -4.640294972948709, 0.460148348061293, 1.7896869449885247, -0.3368618394608885, 5.209924020990942, 6.107012950049076, -0.7790407928515979, 6.749306843617782, 6.757080960935306, 1.0651779466735756, 2.8366420919229878, 1.2342352236324252, 0.465756269277224, 1.8400404118601692, 1.95000114242015, -5.009993166742154, 0.10702243153395466, 3.1204750206156677, -3.289540025748769, 0.5328217719900771, 3.721479280066914, -0.5449811827856085, 0.00788142695346158, -0.5985698900096166, -0.6107045485475676, -0.4786251612405038, 0.8061452738384136, 0.7788131051002657, -0.6044138318241274, -0.6602297235090072, -0.6883735640782358, -0.1498396550870804, -0.19827245571204685, -0.16459731465614244, -0.6057063902668824, -0.6114008805154858, -0.7286658973277245, -0.920054556393076, -0.051759565896845376, 0.2637980609726016, -0.44247679921061056, 0.811495172539563, 0.7073039404140118, -0.5579741807033323, 0.8054477476715671, 0.8116429411103896, -0.05292599302634261, -0.1323501617841788, -0.1781527307082647, -0.35005610836675444, 0.04860030374663994, 0.07337724343079244, -0.975363130403715, -0.1371239664363503, 0.30082053600100167, -0.8696220968950481, -0.016566681228734354, 0.43260249833145326, -0.8855024933785065, -0.0031553251225423587, -0.9126148661724971, -1.0765487989301006, -0.6066677471968465, 3.277584474053609, 3.00408506433952, -0.8478069429052661, -1.310354390880124, -1.2745230619333816, 0.22329654281076766, 0.4081853557251087, 0.5490475638639382, -0.5643116572572803, -0.9136433542067256, -0.9359356318559489, -2.2603944051389546, 0.29236691611121923, 0.7836344219019692, -0.17489778641749976, 2.61326445323322, 3.028065510537699, -0.49748381681703807, 3.51552444689488, 3.5427008892012353, 0.49607301254564984, 1.4057243581014545, 0.5921373078560919, 0.04327319375643276, 0.877564820328855, 1.125131460340867, -2.676256166842053, -0.07455319597805268, 1.5234317982833019, -1.6653679624770876, 0.26388730066382476, 1.8485916917201493, -0.5130478609499826, 0.007304894451601722, -0.5443271523162225, -0.5301942763244017, -0.45220968314677334, 0.43002671925563596, 0.40443528376203647, -0.5453712317461329, -0.5874290610752825, -0.6081065932086661, -0.22893597043195682, -0.31373858431892, -0.28814898884756146, -0.5608664127048445, -0.5491449548162808, -0.6172042856495445, -0.689007588868099, -0.11318617726551479, 0.11091999091017773, -0.45026881431997734, 0.45159999350129165, 0.3832206432512756, -0.5453439515544728, 0.4358440803849935, 0.41236330512885266, -0.16196795651467455, -0.24988514222426048, -0.2831319436510975, -0.3652719667303513, -0.11894583475061074, -0.10426921599537732, -0.7164790959660147, -0.1465143654826178, 0.1460396054876386, -0.67978257411751, -0.08743332792045688, 0.2071521459863216, 5.287784351951684, -0.005565157569699087, -7.026875045952946, 2.067724424168365, -3.0666229519923793, 3.366041012876816, -5.276053311364339, -0.00601253793721057, 7.017235687062424, -2.0634753826758647, 3.075982747322545, -3.358426124407964]
27 Performance: 0.98945783 0.994 0.702
[0.3309927947056949, 0.008096229556149215, 0.241724467129592, 0.286326136038715, 0.2989613183154095, 0.6420011439698504, 0.6502806477181046, 0.24214328386685793, 0.2236886661204359, 0.20909023963203616, 0.359137673138774, 0.4452416682535183, 0.45502491364872244, 0.25187975234686516, 0.2529385239195722, 0.2095408462672446, -0.09030983762847106, 0.1484699753030444, 0.2316784934530402, 0.33039727813961084, 0.6389097979004066, 0.6177017042404364, 0.2787157200185849, 0.6788272694087012, 0.7698308215193319, 0.4176055125044898, 0.48978004506881684, 0.48571157473130305, 0.25551980590685097, 0.48990902013705634, 0.49455133952114566, -0.09952141810615989, 0.13010972626866232, 0.2838082632700948, 0.037958879650868846, 0.2652296936434012, 0.3775650115797809, -1.7889481340987887, 0.002588860058585765, -1.824853039027508, -2.081105958783056, -1.3254288397922258, 6.712170319570643, 6.244743543047549, -1.5994644246757583, -2.4950750032005633, -2.5067650513134345, 0.3710312865693456, 0.7959714430944314, 1.1835381666625675, -0.9729837564966383, -1.8324585520566368, -1.6866645406310947, -4.7699467597876986, 0.5219518225628054, 1.8465812081646205, -0.3459430936963939, 5.217814012066512, 6.180220921195454, -0.7870633295893796, 6.8690113474337835, 6.905121935913978, 1.0817857152824542, 2.9422035742440515, 1.2532526026318271, 0.4591202873775172, 1.884394850084346, 2.009452768085676, -5.1730194175917985, 0.07352644380430727, 3.175671373358036, -3.316954855423571, 0.5299221810761194, 3.785540408327894, -0.5474716627697968, 0.00788142695346158, -0.6012822126972241, -0.6133353359820973, -0.4810133565914094, 0.8047301492086024, 0.7772868568314357, -0.6072409447403373, -0.6626966990838763, -0.6909965711984412, -0.15166911522295043, -0.20091108691886303, -0.1672677387391253, -0.6083889846400484, -0.6140670242952231, -0.7315848100475922, -0.9215848735707024, -0.052828689718480946, 0.2630905053047208, -0.4449670695060488, 0.8104821660200803, 0.7059757614891877, -0.5606808790011136, 0.8041331005142983, 0.8098693512563407, -0.054949565229952445, -0.13521152341537837, -0.18080527070451113, -0.35200383581229416, 0.046357885710067145, 0.07111857415372852, -0.9767949115548794, -0.13792176206185625, 0.3001458528217709, -0.8717748752840438, -0.01779825177608342, 0.43167644462464083, -0.9234978618422266, -0.0031553251225423587, -0.9195109319776767, -1.092956108997576, -0.6166702140602718, 3.364059575493204, 3.079617160900516, -0.8306983449027894, -1.3460554324640006, -1.291466130218444, 0.20542740467729032, 0.4211125116480473, 0.5705509373508774, -0.5675071459230011, -0.9030769886323793, -0.9037844205410572, -2.320768286401971, 0.32479273147660864, 0.812488428000776, -0.1746461029580706, 2.6233484169679695, 3.067995608282567, -0.49837003126133483, 3.578669854989096, 3.619882028265917, 0.5059139140044107, 1.4600051502958817, 0.6036971979480908, 0.03988746474859756, 0.903258815160102, 1.1582193649076937, -2.7554787587919405, -0.09056795058765059, 1.5511445121585232, -1.6766824573943575, 0.26610037158422895, 1.88320169354047, -0.5147192844794357, 0.007304894451601722, -0.5461817496716045, -0.5319760219345706, -0.453831354593022, 0.4289694093061699, 0.40330947940001904, -0.5473284771379153, -0.5890838710346188, -0.6098821907479769, -0.23016943387775426, -0.3155653987353981, -0.2900006443874175, -0.5627033459527873, -0.5509759450598791, -0.6192369718892257, -0.6899926044192638, -0.11395022125749117, 0.11040732155470996, -0.45197158954915395, 0.45088725683290953, 0.38226373322594304, -0.5472009933401013, 0.4348768095701313, 0.41106439604601563, -0.1633716973003749, -0.25190568685044246, -0.2849703399174282, -0.36660360193727654, -0.12050386444196858, -0.10585343120955341, -0.7173764198258894, -0.14704553441315193, 0.1455449320675374, -0.6812480110412148, -0.08828201938042363, 0.2064752125005359, 5.332177294347295, -0.005565157569699087, -7.092333900986702, 2.094717278955512, -3.1083913500219778, 3.3936532740625545, -5.320573358930988, -0.00601253793721057, 7.082756228964889, -2.0905424660911343, 3.1177454795914223, -3.3861129040189164]
28 Performance: 0.98945783 0.994 0.703
[0.33106145665889364, 0.008096229556149215, 0.24171114470251084, 0.28644059998308696, 0.2990597996887033, 0.6415386375580693, 0.6498343212345309, 0.24220290044877793, 0.22395090340482696, 0.2093767717573695, 0.3592736209018401, 0.44526157484694906, 0.454968132661673, 0.2517108305561214, 0.2533004304773158, 0.20942065771026638, -0.08988428131899465, 0.14859507747416442, 0.23168913898697624, 0.3305932838866179, 0.6387277223582877, 0.6172466582322272, 0.27879847037812727, 0.6783080860131682, 0.7694174768335559, 0.41747384567941764, 0.48956826834759454, 0.48534498750779015, 0.2554709477481455, 0.49000622776416247, 0.4944769343765796, -0.09883155147208249, 0.1303344530125621, 0.2835502000546698, 0.03814203675933959, 0.2654423215006242, 0.3774786517103288, -1.802181120828541, 0.002588860058585765, -1.818525731567215, -2.0975377475851316, -1.3418201336233597, 6.804435829763437, 6.325248713543834, -1.6173237361175463, -2.551258684368185, -2.55865065322327, 0.3443141866054912, 0.7853872118297475, 1.1944271551265109, -0.9319642031128927, -1.9043046240928925, -1.662765168564558, -4.856279207232422, 0.49054010315027996, 1.840486488740043, -0.37820997834192555, 5.241111570793655, 6.272000530056356, -0.8066683762509033, 6.9796558925546694, 6.981429813473131, 1.1000474864853893, 2.9874493023167923, 1.3281670529435643, 0.4759729627832505, 1.8601767413134689, 2.0200609172827284, -5.315313664109697, 0.023533283804628515, 3.2246716468543464, -3.3544681331006214, 0.474522086483343, 3.792221225887582, -0.549441773382196, 0.00788142695346158, -0.6033135184370927, -0.6152720111894262, -0.48280833657153716, 0.8038031149898877, 0.7762471191305733, -0.6091989010172988, -0.6645733124794069, -0.6928388926467984, -0.15298607149684304, -0.202787522876528, -0.16917119004086972, -0.610424663753635, -0.6159209092400166, -0.7336517170304648, -0.9227783966600263, -0.05340796070020102, 0.2626786465621311, -0.44664536949960154, 0.8097455394710054, 0.7049898441640201, -0.56265977477113, 0.8031190095167796, 0.808570974807801, -0.05651751916068646, -0.13726506491728244, -0.18292198039485338, -0.3535260371515335, 0.04487977512614802, 0.06949968938280317, -0.9778518226979993, -0.1384628579291333, 0.2996553022606097, -0.8732855597037705, -0.018508193373153625, 0.43112279269235837, -0.9270440233855238, -0.0031553251225423587, -0.9135969089146775, -1.0979256229316916, -0.6201375345318103, 3.4117096940426417, 3.121543035317256, -0.8347934907578105, -1.3693280564624346, -1.313065344057336, 0.196695893962679, 0.42008597093161343, 0.5794811976438292, -0.5449355778374299, -0.9330944882337672, -0.8896905615033663, -2.3592899652808996, 0.31067542283492267, 0.8117333146301685, -0.18565469223480827, 2.638242855338339, 3.114008799878714, -0.5025456818828127, 3.634055544648176, 3.660796332165509, 0.5175451496640754, 1.48559236288371, 0.6428933040750997, 0.05084096486995213, 0.8967942418826291, 1.167207842908735, -2.8202964970457987, -0.1123815008850344, 1.576048876408313, -1.6927881476926794, 0.24228319810662863, 1.8882890324898483, -0.516160686421729, 0.007304894451601722, -0.5476787596869298, -0.5333909682587009, -0.4551437328840488, 0.42825213779368027, 0.4025073368617478, -0.548763163439712, -0.5904409404175187, -0.6112130687531266, -0.2311235053604835, -0.31694451661967393, -0.2914056233596058, -0.5642169769209653, -0.5523051495152231, -0.6207671579687704, -0.6908344280766751, -0.11436325669804992, 0.11010623605575252, -0.4531884987920885, 0.4503334103120502, 0.3814984605819855, -0.5486493363269549, 0.43408695137107334, 0.4100753909751748, -0.1645371905095863, -0.25343549204444143, -0.28656210163442686, -0.3677258305213615, -0.12157850355068796, -0.10705033047775825, -0.7180914574436632, -0.14742089628418253, 0.1451615642658133, -0.682344684076944, -0.08878165909779714, 0.20606227530253116, 5.366273110703151, -0.005565157569699087, -7.140399209743428, 2.120993748941927, -3.1384107685757083, 3.42034076718163, -5.354599053524448, -0.00601253793721057, 7.130930435845542, -2.116879825558867, 3.147824001568196, -3.4128616202206814]
29 Performance: 0.98945783 0.994 0.701
